{"config":{"head":null,"layers":[{"gated":false,"channels":16,"dilations":[1,2,4,8,16,32,64,128,256,512],"head_bias":false,"head_size":8,"activation":"Tanh","input_size":1,"kernel_size":3,"condition_size":1},{"gated":false,"channels":8,"dilations":[1,2,4,8,16,32,64,128,256,512],"head_bias":true,"head_size":1,"activation":"Tanh","input_size":16,"kernel_size":3,"condition_size":1}],"head_scale":0.02},"version":"0.5.4","weights":[-0.0019171766471117735,0.3792749345302582,-0.5682145357131958,-0.7795481085777283,-0.0036490492057055235,0.25124526023864746,-0.008456897921860218,0.8443245887756348,-0.01742941327393055,0.19913268089294434,-0.48207512497901917,0.0006651864387094975,-0.953070342540741,-0.7052407264709473,-0.19733817875385284,-0.0051917703822255135,0.08133319765329361,0.252936989068985,-0.049382586032152176,0.03016103431582451,-0.22595995664596558,0.11474750190973282,-0.11520224064588547,0.38746267557144165,-0.011401165276765823,-0.06815623492002487,0.4410700798034668,-0.11507024616003036,-0.12783634662628174,0.12848372757434845,-0.02923675812780857,0.21403749287128448,-0.40402573347091675,-0.0778709203004837,-0.225676029920578,0.07317876815795898,-0.12626518309116364,0.20010577142238617,-0.25451526045799255,0.044158417731523514,-0.07155138999223709,0.21527056396007538,0.036246996372938156,-0.025177715346217155,-0.3759218454360962,-0.06413859874010086,-0.012660604901611805,0.3942418694496155,-0.06287732720375061,-0.10612057149410248,0.34083986282348633,0.13883163034915924,-0.0194584671407938,0.33254414796829224,0.12143712490797043,-0.1672644168138504,0.3401462435722351,-0.09217274934053421,-0.19381101429462433,0.18726550042629242,0.06729095429182053,0.03017258085310459,-0.19504576921463013,-0.10864803194999695,0.058505829423666,0.011110814288258553,0.003890677820891142,0.13751769065856934,-0.052071794867515564,0.1903793215751648,-0.20703373849391937,0.09848430752754211,0.012688204646110535,0.02023075334727764,0.2873495817184448,0.08209937810897827,0.0055597638711333275,-0.0353415384888649,0.03327663615345955,0.012275059707462788,-0.2853506803512573,0.18001438677310944,-0.010875499807298183,-0.11818729341030121,-0.05728693678975105,0.07023179531097412,-0.19058707356452942,-0.024633383378386497,-0.03646213188767433,0.027256397530436516,-0.0011821551015600562,0.19096675515174866,-0.024357890710234642,0.12002354860305786,-0.2609303891658783,0.05873192474246025,0.00901681836694479,-0.061941809952259064,-0.01793922670185566,-0.1277865618467331,0.04040463641285896,0.2614014744758606,-0.10475441068410873,-0.135262131690979,0.02468654327094555,-0.04774228483438492,-0.21353353559970856,0.019262949004769325,-0.06512217968702316,0.032312992960214615,-0.04517015069723129,0.04047556221485138,0.010632372461259365,0.12840436398983002,0.0587509348988533,-0.1768733114004135,0.031294092535972595,0.1515154242515564,0.06461896747350693,-0.0449209101498127,-0.10030530393123627,0.05681256577372551,-0.15211820602416992,-0.09116821736097336,-0.03510593622922897,-0.06239216402173042,-0.06904526799917221,-0.13384512066841125,0.01361590065062046,0.019875165075063705,0.0769403800368309,0.028235994279384613,-0.15210527181625366,-0.054839521646499634,0.18545320630073547,0.14467275142669678,0.10429812222719193,-0.0238623209297657,-0.03983379900455475,0.01755823940038681,0.18609125912189484,0.21712322533130646,0.20197705924510956,-0.08034947514533997,-0.27775225043296814,0.0030829862225800753,0.05796001851558685,-0.08457001298666,-0.025654667988419533,-0.1930254101753235,-0.295699805021286,-0.07227720320224762,-0.10972356796264648,-0.07896096259355545,0.14301885664463043,-0.19438479840755463,-0.03855111077427864,-0.10128062963485718,-0.02908886782824993,-0.11097687482833862,-0.03408993035554886,0.024398714303970337,-0.08602790534496307,-0.1735512614250183,0.03312606364488602,-0.014649082906544209,-0.008232067339122295,0.004727717023342848,-0.10594858229160309,0.054269492626190186,0.07575689256191254,-0.037058379501104355,0.08004070073366165,0.012232436798512936,-0.149349182844162,0.03947087749838829,0.039031464606523514,-0.0722004622220993,0.07925630360841751,-0.15618263185024261,-0.03348945081233978,-0.09506580978631973,0.15517009794712067,0.019798973575234413,0.07953031361103058,-0.010139593854546547,-0.07095872610807419,-0.06743058562278748,-0.053617119789123535,0.07676682621240616,0.17439913749694824,0.03807670623064041,-0.09095726907253265,0.04728972166776657,-0.10126390308141708,-0.06743873655796051,-0.020056070759892464,-0.0028928255196660757,-0.06428741663694382,0.0600031316280365,-0.04583621770143509,0.11358170211315155,-0.07072576135396957,-0.15641072392463684,-0.07812155038118362,0.10651758313179016,-0.05772167816758156,0.20490822196006775,-0.10572528094053268,-0.1482226401567459,-0.09036029875278473,-0.06438132375478745,0.22579675912857056,-0.1271609365940094,0.03343810513615608,-0.1920788288116455,-0.01978437975049019,-0.04651687666773796,-0.116118423640728,-0.030167194083333015,-0.04510825127363205,-0.0035544962156563997,0.05793222039937973,-0.0224206130951643,0.10078302770853043,-0.01767907291650772,-0.05827100947499275,-0.12940610945224762,0.0584443137049675,-0.042808614671230316,0.24224267899990082,0.03856218233704567,0.020550237968564034,-0.07861030101776123,0.15108570456504822,-0.13683420419692993,0.2632812559604645,-0.2060377299785614,-0.018933439627289772,-0.18443408608436584,0.1506081074476242,0.15578964352607727,-0.20188528299331665,0.08326343446969986,0.09804142266511917,-0.37605056166648865,0.18630601465702057,-0.09234966337680817,-0.23201657831668854,0.0615629181265831,-0.03268733248114586,-0.1763288825750351,0.2175946682691574,0.005360572598874569,-0.008935652673244476,0.05381006374955177,-0.053617484867572784,0.05589846894145012,-0.08339066803455353,0.05587374046444893,-0.11539984494447708,0.21012844145298004,-0.0856303870677948,0.13403776288032532,-0.08347596973180771,-0.21257729828357697,-0.0026314372662454844,-0.09162309765815735,0.1354771852493286,0.08010204881429672,-0.09569652378559113,0.07807311415672302,-0.18774531781673431,0.1447090357542038,-0.10042525827884674,-0.08692420274019241,0.103212870657444,0.06771750003099442,-0.05876627564430237,0.17149075865745544,-0.05813824012875557,-0.007303240243345499,-0.15121780335903168,0.2565803527832031,-0.022053629159927368,0.23371349275112152,-0.2116963267326355,0.09284846484661102,-0.16208449006080627,-0.10292664170265198,-0.06701052188873291,-0.040430475026369095,-0.116793692111969,0.03607546538114548,-0.16496695578098297,-0.2513895630836487,0.13947458565235138,-0.23967304825782776,-0.08171310275793076,-0.011033106595277786,-0.1825588047504425,0.06835602968931198,-0.04928584024310112,-0.050283282995224,0.11826152354478836,-0.0903346985578537,-0.03546115383505821,0.02959580346941948,-0.10198869556188583,0.10709918290376663,-0.09609725326299667,0.12738187611103058,-0.08477308601140976,-0.02353505976498127,0.22301463782787323,-0.037581317126750946,0.0328582338988781,0.12922227382659912,0.0290839821100235,-0.034492719918489456,-0.1701911985874176,0.12973175942897797,-0.030818713828921318,0.1405744105577469,0.04857258498668671,0.09682048112154007,-0.08884147554636002,0.1484825313091278,0.16121706366539001,0.13508710265159607,-0.15761196613311768,-0.168081596493721,-0.029529830440878868,0.20310628414154053,-0.06292169541120529,0.24014641344547272,-0.01975906640291214,0.16172097623348236,0.2358296811580658,0.009507943876087666,-0.002311407122761011,0.1188797727227211,-0.013146464712917805,0.11246771365404129,0.08372625708580017,-0.0017399444477632642,0.10725967586040497,0.24022796750068665,-0.20286794006824493,0.06301902234554291,-0.058259811252355576,0.037524208426475525,-0.08698206394910812,0.022073766216635704,0.0721018984913826,0.15041054785251617,0.21097178757190704,-0.06836143881082535,-0.18690286576747894,-0.22366158664226532,0.04505385085940361,-0.23531441390514374,-0.3968048393726349,0.26025688648223877,-0.07276948541402817,-0.05457558110356331,0.10937727987766266,-0.028298132121562958,0.18852537870407104,-0.15725889801979065,-0.16462098062038422,-0.05941484495997429,-0.0077512613497674465,0.029240582138299942,0.14976374804973602,-0.22198839485645294,-0.014452976174652576,-0.16966405510902405,0.16469265520572662,0.20236071944236755,0.3937029540538788,-0.17294059693813324,-0.029378946870565414,-0.1632724106311798,0.20162862539291382,0.09418553858995438,-0.11680147796869278,0.20051488280296326,-0.1476173996925354,-0.21442945301532745,0.15816640853881836,-0.12947294116020203,-0.36474448442459106,0.06403860449790955,-0.205431267619133,-0.16268232464790344,0.22469072043895721,-0.11458730697631836,-0.2086837887763977,0.04739265888929367,0.11922848224639893,0.02756672352552414,-0.0639038011431694,-0.06311056762933731,0.10935504734516144,-0.04681508615612984,0.33200737833976746,0.05302048847079277,-0.12095922231674194,0.29431188106536865,-0.1410764753818512,-0.09072894603013992,0.19216236472129822,-0.00020869758736807853,-0.14686788618564606,-0.25543949007987976,0.011421197094023228,0.03271900862455368,0.12466426938772202,0.14445364475250244,0.00681898882612586,-0.3021720051765442,0.068564772605896,0.1392042338848114,0.2413080781698227,-0.14079438149929047,-0.0458366833627224,-0.3098553419113159,-0.020750269293785095,0.10483986884355545,0.12820573151111603,-0.0013222843408584595,0.061147674918174744,0.134129598736763,-0.1075485497713089,-0.0701146051287651,0.24241545796394348,-0.1708858460187912,0.0011105110170319676,0.08241754025220871,-0.19765420258045197,-0.20838016271591187,0.16049833595752716,0.05615798756480217,-0.18927942216396332,0.0873650312423706,-0.05956543609499931,0.11380699276924133,0.043115898966789246,-0.1573498249053955,0.06707017868757248,0.05274376645684242,0.24197445809841156,0.1400979906320572,-0.08076740056276321,0.012011107988655567,-0.06772836297750473,0.08389513194561005,-0.2317233383655548,-0.12057439237833023,-0.11949816346168518,-0.09772735089063644,-0.020379383116960526,-0.1411564201116562,0.1469077467918396,0.14262361824512482,0.09056680649518967,-0.11487919837236404,-0.1332630217075348,-0.057270001620054245,0.18154868483543396,0.22306805849075317,0.12733671069145203,-0.0760962963104248,0.016210295259952545,-0.18315957486629486,-0.039917655289173126,0.11912009865045547,-0.051129888743162155,-0.036744680255651474,-0.16900523006916046,-0.04594733938574791,-0.18871691823005676,0.022192198783159256,-0.0022343650925904512,-0.006185207050293684,0.008335329592227936,0.0959533303976059,-0.11073257029056549,-0.12311125546693802,-0.00012716645142063498,-0.06906210631132126,0.016468634828925133,-0.0491243377327919,0.1468449831008911,0.03238515928387642,-0.05275978520512581,-0.2387215942144394,0.05211995914578438,0.08677490055561066,0.18899011611938477,0.1608249992132187,0.10691627860069275,-0.24049928784370422,0.05440680310130119,-0.04294051229953766,-0.3095753490924835,-0.015544756315648556,0.019033383578062057,-0.08387088030576706,-0.03611375764012337,0.04367323964834213,0.31437820196151733,0.011291364207863808,0.1414671689271927,-0.22933286428451538,-0.09295114874839783,-0.01769484579563141,0.44449615478515625,0.0639692172408104,0.10840187966823578,-0.3418675661087036,0.01609184965491295,-0.16840612888336182,0.2301439791917801,-0.030702142044901848,0.18807511031627655,-0.39670872688293457,-0.06039704754948616,0.004188180435448885,-0.12811806797981262,0.11326270550489426,-0.07845769822597504,-0.47240015864372253,-0.1868211030960083,0.034276727586984634,-0.3945249915122986,-0.16944058239459991,0.002101814839988947,-0.2661793529987335,-0.11926046013832092,0.06949733942747116,0.034628354012966156,-0.051079053431749344,0.1682843714952469,0.09146076440811157,-0.012207621708512306,-0.1744406670331955,0.23876497149467468,0.13769523799419403,0.035699598491191864,-0.43247202038764954,0.13860788941383362,0.08170463889837265,-0.29809385538101196,-0.024255722761154175,0.07744493335485458,-0.20293907821178436,0.09244241565465927,-0.1733991950750351,0.18400335311889648,-0.07877367734909058,0.14758241176605225,-0.1449899822473526,-0.06583916395902634,-0.030074328184127808,0.3016061782836914,-0.007252487353980541,0.27844738960266113,-0.22667138278484344,0.11818782240152359,-0.11337505280971527,0.24210278689861298,-0.11303374171257019,0.1840488612651825,-0.20578217506408691,-0.04533551633358002,0.05395142734050751,-0.1967400312423706,0.16043421626091003,0.1246739849448204,-0.4476673901081085,-0.14833474159240723,0.20841674506664276,-0.33941954374313354,-0.08605889976024628,0.2079455405473709,-0.22133521735668182,0.12215065211057663,0.0819961354136467,0.05655438080430031,-0.01020839624106884,0.0021335554774850607,0.15050071477890015,0.008584978058934212,0.00017932013724930584,0.07728752493858337,0.2902661859989166,0.18617850542068481,-0.08442510664463043,-0.2897224724292755,0.0005686262156814337,-0.3239736557006836,-0.0359799824655056,0.021530723199248314,-0.12054821103811264,0.021230412647128105,-0.13812373578548431,0.13397151231765747,0.14195086061954498,0.11241205781698227,-0.1936596781015396,0.03053153119981289,-0.11687751859426498,0.27797263860702515,0.29959049820899963,0.1764545738697052,-0.11765535920858383,0.023734763264656067,-0.06416590511798859,0.11741930991411209,0.274432510137558,0.10928082466125488,-0.3559776246547699,-0.20176303386688232,-0.0001926511322380975,0.0007714772946201265,-0.11066141724586487,-0.07977462559938431,-0.23503592610359192,-0.08379650861024857,0.09367292374372482,-0.17825673520565033,-0.15855614840984344,0.12368182837963104,-0.22221311926841736,-0.1982603818178177,-0.18423321843147278,-0.15172423422336578,-0.005220605991780758,-0.03699945658445358,0.04577832669019699,0.04290337488055229,0.022674622014164925,-0.05614858120679855,0.1447070986032486,-0.09507279098033905,0.08319643139839172,-0.11968320608139038,-0.036112528294324875,0.039826661348342896,-0.06415186077356339,0.0884748175740242,-0.13519051671028137,-0.13199761509895325,-0.06432703882455826,0.06263178586959839,0.1420034021139145,-0.06414134800434113,0.021493643522262573,-0.0743819922208786,-0.03034735843539238,0.14504240453243256,-0.10598956793546677,0.012073533609509468,0.09350550919771194,-0.05179234594106674,0.12200942635536194,-0.005092246923595667,0.12546847760677338,-0.1335848867893219,-0.06003987789154053,-0.0317024365067482,0.06652724742889404,0.03802388161420822,0.10623054951429367,-0.02487047202885151,-0.044711966067552567,0.0931839719414711,-0.04032245650887489,0.08801175653934479,-0.10145478695631027,-0.02815154567360878,-0.049091607332229614,0.05181150883436203,0.06005830690264702,-0.08972938358783722,-0.21430739760398865,-0.13013651967048645,0.09112460911273956,-0.008747010491788387,0.12098059058189392,-0.200235515832901,0.11686558276414871,-0.18986791372299194,0.16406624019145966,0.12764878571033478,-0.3072814345359802,0.35472553968429565,0.05617266520857811,-0.23410628736019135,0.2359037846326828,-0.1268027275800705,0.24269823729991913,-0.40531837940216064,-0.04163932427763939,-0.24154219031333923,0.3046908676624298,-0.11289514601230621,0.28665873408317566,-0.34717994928359985,-0.10981285572052002,-0.3339095413684845,0.14355094730854034,0.14611664414405823,0.19168710708618164,-0.27278175950050354,0.03587028384208679,-0.1265677809715271,0.4351957440376282,0.13420021533966064,-0.31005018949508667,0.24140293896198273,-0.08618468046188354,-0.2760602533817291,0.3595263361930847,0.17637968063354492,-0.3159884512424469,0.4103338420391083,-0.03902624920010567,-0.23542675375938416,0.3966614007949829,-0.01936519704759121,0.07184712588787079,-0.1931382417678833,0.04333794116973877,-0.014520581811666489,-0.034094445407390594,0.02806534431874752,-0.00898833479732275,-0.3605111837387085,0.043842390179634094,0.02268451452255249,0.20450088381767273,0.03655445948243141,0.04308600723743439,0.37710636854171753,-0.09113968908786774,-0.08738560974597931,0.053743015974760056,-0.18326959013938904,0.08044292777776718,-0.17441347241401672,0.13723541796207428,-0.0674755796790123,0.2243996560573578,-0.09891197085380554,0.18287305533885956,-0.34933748841285706,-0.09163150191307068,-0.0449514240026474,0.3451148569583893,-0.14730781316757202,0.23384727537631989,-0.19091211259365082,-0.05697066709399223,-0.12444810569286346,0.40993568301200867,-0.13547179102897644,-0.14382284879684448,0.25928860902786255,-0.16454735398292542,0.0032210638746619225,0.3580653667449951,0.07788462936878204,-0.17121456563472748,0.42771977186203003,-0.09937713295221329,0.04254589602351189,0.09000787883996964,-0.1701512485742569,0.10668738931417465,-0.00672049168497324,-0.04644237086176872,-0.05702928453683853,-0.10752164572477341,-0.03449438512325287,-0.1328478902578354,0.018103480339050293,0.021346449851989746,-0.013482538983225822,-0.01893693208694458,0.0005325640086084604,0.08394705504179001,-0.020175864920020103,-0.02393566630780697,-0.004778075031936169,-0.0017943278653547168,-0.03377451375126839,0.015155903063714504,0.40653175115585327,-0.3976324796676636,0.9700117707252502,-0.7319267988204956,-0.06813102215528488,1.0372281074523926,1.1324158906936646,-0.7208794355392456,0.25348982214927673,0.2105899155139923,-0.377402663230896,-0.3147161304950714,0.45803388953208923,-0.6915808320045471,0.11033295840024948,0.43166375160217285,-0.19325098395347595,0.22457312047481537,-0.12738004326820374,0.12633998692035675,0.3543272316455841,-0.17874325811862946,0.14876793324947357,0.17238624393939972,-0.28701865673065186,-0.05922086536884308,0.0895293802022934,0.013144993223249912,0.023250294849276543,0.32780924439430237,0.17239965498447418,-0.23535703122615814,0.043796949088573456,-0.21734614670276642,-0.23948132991790771,-0.08618877828121185,0.07694249600172043,0.005061551462858915,0.09984280169010162,-0.037361931055784225,-0.005651362240314484,0.26031720638275146,-0.17580926418304443,-0.009695847518742085,0.05140512436628342,-0.1683172583580017,0.041952554136514664,0.2864632308483124,0.11203013360500336,0.15391461551189423,0.22825975716114044,0.3433012068271637,-0.19024889171123505,-0.052493855357170105,0.02057136595249176,-0.286360502243042,-0.0778362825512886,-0.11034886538982391,0.38001954555511475,-0.13196872174739838,0.350504606962204,0.27349191904067993,0.17365945875644684,0.02756156399846077,0.14283259212970734,-0.16365385055541992,-0.028412597253918648,-0.29198238253593445,0.041362419724464417,0.09735473245382309,-0.09956305474042892,-0.11274673044681549,-0.14346468448638916,0.08314693719148636,0.024645181372761726,-0.035086628049612045,0.15830105543136597,0.0536053366959095,-0.14686617255210876,-0.01768329367041588,0.02109525538980961,-0.31619831919670105,-0.13517770171165466,0.13605692982673645,0.07235404849052429,0.29178690910339355,0.23690751194953918,-0.547494649887085,0.28676196932792664,0.30195358395576477,-0.33881375193595886,0.08810271322727203,0.053479041904211044,-0.0026608516927808523,-0.15295258164405823,0.45891615748405457,-0.020672084763646126,-0.03547491878271103,0.13115711510181427,0.06473157554864883,0.09930005669593811,0.4081066846847534,0.3127164840698242,-0.029589086771011353,0.20189477503299713,-0.012403375469148159,-0.3533158302307129,-0.24509233236312866,-0.03485807031393051,-0.31992805004119873,0.24066706001758575,0.36753222346305847,0.016894349828362465,0.13246260583400726,0.2516383230686188,0.1924542486667633,-0.16442634165287018,-0.30274373292922974,-0.04093413054943085,0.21817193925380707,0.09149531275033951,-0.340702623128891,-0.10674352198839188,0.2255629599094391,0.23245657980442047,-0.1824123114347458,0.07021065056324005,-0.37155818939208984,0.39839625358581543,0.11385191977024078,0.2639034688472748,-0.13449114561080933,-0.3588831126689911,0.2250269651412964,0.22844481468200684,-0.02094605751335621,0.19723325967788696,-0.2538876235485077,0.03830374777317047,-0.3525283634662628,0.051294684410095215,-0.2355067878961563,-0.0033885985612869263,0.3113578259944916,-0.137226864695549,0.0008983862353488803,-0.2782804071903229,-0.20579637587070465,0.16545358300209045,-0.18781597912311554,-0.12141957134008408,0.09619099646806717,-0.3910333514213562,-0.2257097363471985,0.27739232778549194,0.20582686364650726,0.05332498624920845,0.012941026128828526,0.1410161554813385,-0.13163049519062042,-0.0947294533252716,0.08807705342769623,0.11263417452573776,-0.25476256012916565,-0.3528374433517456,-0.05066179484128952,0.031694620847702026,-0.4400976896286011,0.19566112756729126,0.10741918534040451,-0.1051221415400505,-0.11220747232437134,0.11373346298933029,0.05975013226270676,-0.14827589690685272,0.208439439535141,0.2030494064092636,0.28605061769485474,-0.3285149931907654,0.14533394575119019,-0.09436478465795517,-0.32722294330596924,-0.092090904712677,-0.11760742962360382,0.029838886111974716,-0.23893187940120697,-0.24151772260665894,-0.17448332905769348,-0.15145793557167053,0.033442191779613495,0.2007417231798172,0.2401287704706192,-0.16161523759365082,-0.14534041285514832,0.08354179561138153,-0.0625004842877388,0.028223050758242607,-0.24416793882846832,0.04259553924202919,-0.27370965480804443,0.2836446762084961,-0.1831216961145401,0.015683041885495186,-0.08519043028354645,-0.10196306556463242,-0.05299672856926918,-0.5195685029029846,-0.32236969470977783,-0.3297463059425354,0.005143208894878626,0.0684887170791626,0.15206344425678253,0.11614775657653809,-0.3482374846935272,-0.08743796497583389,0.28183501958847046,0.3110854923725128,-0.059470366686582565,0.1099763959646225,0.3831159770488739,0.19235597550868988,-0.17853710055351257,-0.5389541983604431,-0.19851984083652496,-0.06616926938295364,-0.1593812257051468,-0.08023384213447571,0.12317641079425812,-0.04577278718352318,0.2111453264951706,0.12835514545440674,0.10393301397562027,-0.0744318962097168,-0.10875383019447327,0.12564459443092346,0.09578632563352585,-0.10901176929473877,-0.02070797048509121,-0.16690784692764282,-0.005869071930646896,-0.05021534487605095,0.3305526375770569,-0.049627725034952164,-0.03859633952379227,-0.09025513380765915,-0.0796709954738617,0.14968566596508026,-0.07650478184223175,-0.19699113070964813,0.04991990327835083,-0.044277291744947433,-0.03316600248217583,0.19093993306159973,0.15789178013801575,-0.20332348346710205,-0.029967764392495155,0.37991514801979065,0.07719908654689789,0.24785380065441132,-0.11716027557849884,-0.10371065884828568,0.4012816846370697,0.12131531536579132,0.2861038148403168,-0.31424206495285034,-0.12617695331573486,-0.12179552763700485,-0.4382762312889099,0.08064350485801697,0.23662588000297546,0.35079219937324524,0.21042421460151672,0.08843182772397995,-0.06895584613084793,0.09760858863592148,-0.07038210332393646,-0.06562332808971405,-0.023904290050268173,0.10308931022882462,0.0019601916428655386,-0.015169944614171982,-0.07846162468194962,0.06486373394727707,-0.020634092390537262,0.004926822613924742,0.07860630005598068,0.02824448235332966,0.0390898697078228,-0.012850319966673851,-0.1337987333536148,-0.07699793577194214,0.1366751343011856,0.029859798029065132,0.1209552213549614,-0.1608600914478302,-0.14294718205928802,-0.0665624588727951,-0.11313772201538086,0.030613891780376434,0.03453653305768967,-0.12448286265134811,0.04090566188097,0.08058620989322662,0.13012322783470154,-0.02999824844300747,0.06699711829423904,-0.08159492909908295,-0.23073844611644745,0.045990169048309326,0.059315964579582214,-0.011489004828035831,-0.18571028113365173,-0.005017109215259552,0.06318531185388565,-0.1547260582447052,-0.12160205096006393,0.08898840099573135,-0.07458052039146423,-0.12058150768280029,-0.09727835655212402,0.07664783298969269,-0.19370217621326447,-0.018712827935814857,-0.0025763376615941525,-0.19947248697280884,0.08429308980703354,-0.045606829226017,-0.17484605312347412,-0.027765750885009766,-0.1746739149093628,-0.1865660846233368,-0.0018628273392096162,-0.05063414201140404,0.17995688319206238,-0.28797218203544617,-0.1088176816701889,-0.04927363246679306,0.04173079878091812,0.14835289120674133,-0.21065504848957062,-0.14030864834785461,0.005914443638175726,0.23977206647396088,0.14170445501804352,0.2915334403514862,0.049263935536146164,0.13573147356510162,-0.034650132060050964,0.16451364755630493,-0.18963700532913208,0.03491227701306343,-0.22428378462791443,-0.2730226516723633,-0.05028381571173668,0.19250117242336273,-0.14077693223953247,-0.11614049971103668,0.030180171132087708,-0.09633279591798782,0.09301367402076721,-0.2545848488807678,0.06624514609575272,-0.039956554770469666,0.124672070145607,0.007184374611824751,-0.1147412657737732,0.13537786900997162,-0.05444534868001938,-0.07734329998493195,-0.05800440534949303,-0.12183588743209839,-0.11354080587625504,0.002904161112383008,0.20365270972251892,-0.12995845079421997,0.0820527896285057,0.036825910210609436,-0.0069868420250713825,-0.10251466184854507,-0.12907852232456207,-0.08717703819274902,0.03927226737141609,0.09079058468341827,0.07320933789014816,-0.012910333462059498,-0.060271117836236954,-0.0914333388209343,0.1695994734764099,0.22327125072479248,0.06390432268381119,-0.2189870923757553,-0.1741756945848465,-0.16454654932022095,0.13806775212287903,-0.05655716359615326,-0.14386394619941711,0.037301205098629,-0.08663365244865417,0.13608698546886444,-0.081090547144413,-0.028311874717473984,0.15247519314289093,0.14254507422447205,-0.12916913628578186,-0.10783638060092926,-0.09463610500097275,-0.11186378449201584,0.2608734369277954,0.040299102663993835,-0.028404198586940765,-0.12708429992198944,-0.062153320759534836,0.12728147208690643,0.03276814520359039,-0.1064966470003128,-0.20314353704452515,-0.0589689277112484,0.06219850480556488,0.0662294551730156,0.24232204258441925,0.03747723624110222,0.1405039131641388,-0.09918910264968872,0.00728118559345603,-0.07422655820846558,-0.02242358587682247,-0.18787860870361328,-0.050742633640766144,-0.027493245899677277,-0.07861707359552383,-0.0934256985783577,-0.04364398494362831,-0.16382960975170135,-0.12078303098678589,-0.05074634402990341,-0.019495707005262375,0.03090459480881691,0.008281544782221317,0.12054519355297089,0.08174139261245728,0.1230928897857666,0.08400846272706985,0.15769626200199127,0.0007220779662020504,0.005127428565174341,-0.12193461507558823,0.029858412221074104,0.018932582810521126,0.20167604088783264,0.02891366370022297,-0.024555539712309837,0.19048018753528595,0.07512062788009644,-0.08847261965274811,0.08283592015504837,0.042590100318193436,0.10746161639690399,-0.18552207946777344,0.05277404561638832,0.14692993462085724,-0.1400981992483139,0.04087768495082855,-0.0031941283959895372,-0.061967238783836365,-0.012555702589452267,0.04434041306376457,-0.048212237656116486,0.3691745400428772,0.19419029355049133,0.017087453976273537,0.16180458664894104,0.00024177970772143453,-0.19151335954666138,-0.1506941020488739,-0.07553499937057495,0.02898971363902092,0.1750699132680893,0.09556250274181366,0.34234127402305603,0.023799026384949684,-0.1822287142276764,-0.08214782923460007,-0.07282614707946777,0.07916927337646484,0.13617128133773804,0.019842009991407394,0.10873570293188095,0.09343580901622772,-0.11439763754606247,-0.08852435648441315,0.07531679421663284,0.035933688282966614,0.027786603197455406,0.04765671491622925,-0.07394680380821228,-0.09540709853172302,0.15538492798805237,-0.03985702246427536,0.03827216103672981,-0.16310052573680878,-0.061953384429216385,-0.07273374497890472,0.09313975274562836,0.13830937445163727,0.055206939578056335,-0.01185289304703474,-0.05699983239173889,-0.07195752114057541,-0.09930399805307388,0.03892642632126808,0.18889762461185455,-0.003870289772748947,-0.10002245754003525,-0.05116613209247589,0.01725725829601288,0.22104193270206451,-0.15952028334140778,-0.2727973163127899,0.12391841411590576,0.08358727395534515,0.022829964756965637,0.021758215501904488,0.09268001466989517,-0.005881578661501408,-0.032440148293972015,0.09267979860305786,0.10826899111270905,-0.15960748493671417,-0.060276154428720474,-0.016859320923686028,-0.04458639770746231,-0.0868249386548996,0.030924255028367043,0.008916055783629417,-0.10758278518915176,-0.041913989931344986,0.47704100608825684,-0.050566621124744415,0.16262385249137878,0.30450838804244995,-0.019157608970999718,0.024856824427843094,0.15025560557842255,0.18425381183624268,-0.07251011580228806,0.039067406207323074,0.10368040949106216,-0.1993890255689621,-0.11495416611433029,0.22072216868400574,-0.07801805436611176,0.17854660749435425,0.10212397575378418,0.22939372062683105,-0.11490729451179504,0.1615956872701645,-0.10582795739173889,0.0033264539670199156,-0.017504611983895302,-0.08463162183761597,0.010299794375896454,0.16246743500232697,-0.007160637062042952,0.0498579703271389,0.07974635809659958,0.34943023324012756,0.18168964982032776,-0.14236482977867126,-0.1638127714395523,0.06977122277021408,-0.15427175164222717,0.05070175975561142,-0.13385994732379913,0.004201618023216724,-0.10121697187423706,0.15768297016620636,0.03365737199783325,0.08106468617916107,0.00010275794193148613,-0.024117562919855118,0.1725524514913559,-0.08467932045459747,0.03968943655490875,-0.17866703867912292,0.13570153713226318,0.20405316352844238,0.040466710925102234,0.01492678839713335,-0.13570758700370789,0.055158864706754684,-0.11231323331594467,0.014162055216729641,0.09097135066986084,0.2559938132762909,0.3065313696861267,-0.0922965407371521,0.06356821209192276,-0.12018822878599167,0.09897399693727493,0.12967169284820557,0.022142237052321434,-0.08581703156232834,-0.20253817737102509,0.062467060983181,0.03599393740296364,0.029652690514922142,0.1719283014535904,-0.07343645393848419,-0.009106194600462914,0.10309401899576187,-0.017522286623716354,-0.3652404844760895,0.2802620530128479,0.14174412190914154,-0.10441917926073074,0.02026868611574173,0.06552758812904358,-0.20353005826473236,-0.16901607811450958,-0.06724490225315094,-0.16471964120864868,-0.23887404799461365,0.06818453222513199,0.37950462102890015,-0.3291681706905365,-0.12559457123279572,0.12163665890693665,0.22636254131793976,0.12542538344860077,-0.03707420080900192,-0.27020949125289917,-0.24453993141651154,-0.3343813419342041,-0.11006856709718704,-0.13440662622451782,-0.16437014937400818,0.19587098062038422,0.02980918064713478,-0.2702863812446594,0.14225806295871735,0.11672864109277725,-0.11956966668367386,0.025824537500739098,-0.03451055660843849,0.12399610131978989,0.12494590878486633,0.07064781337976456,-0.11028579622507095,-0.11430853605270386,-0.26729002594947815,0.26371294260025024,0.26947084069252014,0.20566174387931824,-0.1261378824710846,-0.009340308606624603,-0.12596024572849274,0.07873111218214035,0.3981126844882965,0.04290919005870819,0.06129679083824158,0.12924177944660187,-0.15897135436534882,-0.08192950487136841,-0.2476741373538971,-0.12325572967529297,-0.16751976311206818,0.02894297055900097,-0.031016435474157333,0.01811463199555874,-0.5521640181541443,-0.16657528281211853,-0.12484286725521088,0.2325165569782257,0.31857743859291077,0.02466752380132675,-0.2421441525220871,-0.22471368312835693,-0.2004081755876541,0.052660904824733734,0.12298887968063354,0.003746042726561427,0.0933917909860611,0.003700064029544592,-0.23303070664405823,0.016967011615633965,-0.1429426670074463,-0.1837977021932602,-0.20775267481803894,0.000363619823474437,-0.3362492322921753,0.12966853380203247,0.1324881762266159,0.16825944185256958,-0.17356854677200317,-0.1677810400724411,-0.10703127831220627,0.014643060974776745,-0.02118533104658127,0.39749178290367126,-0.010319303721189499,-0.010446022264659405,-0.1996578723192215,-0.004902221262454987,0.07514039427042007,-0.042257897555828094,0.18269768357276917,-0.2116880863904953,0.5100205540657043,0.061432093381881714,-0.1735185980796814,0.38819620013237,-0.025413233786821365,-0.04858901724219322,-0.1029021292924881,-0.0009663451346568763,-0.1729154884815216,0.050267431885004044,-0.20991255342960358,0.22237691283226013,-0.6098400950431824,0.10143142938613892,0.08647315949201584,-0.07146093994379044,-0.043171368539333344,0.05572659894824028,0.11649039387702942,-0.20298674702644348,-0.11955422908067703,0.01040249690413475,-0.08408280462026596,0.1010550707578659,-0.035935379564762115,0.08237580955028534,-0.09468889236450195,0.10065316408872604,-0.08963543176651001,0.06331655383110046,0.19356557726860046,0.08025679737329483,-0.025566017255187035,0.03739066794514656,-0.17616607248783112,0.0728835016489029,0.2575125992298126,-0.01573498733341694,0.1392374187707901,-0.07426165044307709,-0.09573642909526825,-0.07176605612039566,0.13740243017673492,-0.02542782947421074,0.05982408672571182,-0.10106050968170166,0.013585717417299747,-0.22819067537784576,0.07490283250808716,-0.11427821218967438,-0.2783104181289673,0.013099484145641327,-0.1065870150923729,0.03670326620340347,0.0088548818603158,-0.08683296293020248,-0.13155314326286316,0.14422118663787842,-0.03845619782805443,0.1992771327495575,-0.15886521339416504,-0.017582863569259644,0.02187284082174301,-0.13662123680114746,-0.08676362037658691,0.07957050949335098,-0.09005671739578247,-0.05876808613538742,0.07735567539930344,0.22436405718326569,-0.06242813915014267,0.05373836308717728,0.103085458278656,0.006474845577031374,0.14682501554489136,0.04609891399741173,-0.0034614389296621084,0.026834048330783844,0.13240927457809448,-0.028676912188529968,0.043052732944488525,0.0017119980184361339,-0.06031988561153412,0.11727920174598694,0.2551993429660797,-0.07072802633047104,-0.06955649703741074,-0.024865420535206795,-0.019559184089303017,-0.028418831527233124,0.07339060306549072,0.12637309730052948,-0.20251742005348206,-0.2491479068994522,0.05143403634428978,0.14306281507015228,-0.18118521571159363,0.04475906491279602,0.29126888513565063,0.037385351955890656,0.10681211203336716,-0.0645422711968422,0.03672996908426285,0.022231368348002434,0.10435947775840759,-0.0027384900022298098,-0.014310496859252453,-0.40318533778190613,0.04337279126048088,0.07694049924612045,-0.044035863131284714,-0.20588593184947968,-0.003607615828514099,-0.04756959155201912,-0.1714480221271515,-0.08098042011260986,0.0860152393579483,0.21712160110473633,0.06334571540355682,0.09091117978096008,0.06755826622247696,0.00046661595115438104,0.012825164012610912,0.08094461262226105,0.06508376449346542,0.19347214698791504,0.16185349225997925,-0.05365550518035889,-0.10998277366161346,0.038829755038022995,0.08774808794260025,0.10655456781387329,0.1396683305501938,0.13415098190307617,-0.11372227966785431,-0.20746415853500366,-0.16983093321323395,0.09994879364967346,0.08797118067741394,0.01651882566511631,0.093999482691288,-0.22254416346549988,-0.20523209869861603,-0.015441141091287136,0.15616245567798615,-0.1393362283706665,-0.09265997260808945,0.26773205399513245,0.128374382853508,0.028611458837985992,-0.0953686311841011,-0.0009489223011769354,0.02197909541428089,-0.09065394103527069,0.020410126075148582,0.1197444275021553,-0.012037357315421104,-0.06090771034359932,0.10923949629068375,-0.08072084933519363,0.07909904420375824,-0.049673620611429214,-0.042650915682315826,0.1930103898048401,0.1453724354505539,0.12465309351682663,0.029698902741074562,0.06818370521068573,-0.004328261595219374,0.20616918802261353,-0.25678637623786926,-0.06237522140145302,-0.14945998787879944,-0.3088625967502594,0.200725719332695,-0.008825120516121387,-0.11739452928304672,-0.15655077993869781,-0.19834935665130615,-0.2027897983789444,0.16307762265205383,-0.11363818496465683,0.25216618180274963,0.0871167927980423,-0.008402043953537941,-0.007117516826838255,-0.06744644790887833,0.16942456364631653,0.10928919166326523,-0.1606128066778183,0.25409242510795593,-0.2076580673456192,-0.1087026596069336,0.25284314155578613,0.06716889142990112,0.12990505993366241,-0.01969299465417862,-0.021604035049676895,-0.11478772759437561,0.1108127161860466,-0.01237994059920311,0.05834236368536949,-0.0853731632232666,0.16748467087745667,0.12920546531677246,-0.09862647205591202,-0.1891094446182251,-0.06734149158000946,0.04916427284479141,0.10750842839479446,0.0178973488509655,0.16709379851818085,0.006983940023928881,0.3712816536426544,-0.055531129240989685,0.01523016206920147,0.11761783063411713,-0.06382300704717636,0.10391533374786377,0.25392216444015503,-0.07293318957090378,0.19520583748817444,-0.050959791988134384,0.008741703815758228,0.12081748247146606,0.09374627470970154,0.08137141168117523,0.1443205624818802,0.00208487780764699,0.06181200221180916,-0.19919957220554352,0.013870608992874622,0.06519227474927902,-0.03621269017457962,0.19231602549552917,-0.00593889644369483,-0.004892374388873577,-0.11028183996677399,-0.07367342710494995,0.02951757051050663,0.17148436605930328,-0.09196042269468307,-0.10276900976896286,0.18974566459655762,0.08794669061899185,0.0918380469083786,-0.09732512384653091,-0.07500553876161575,-0.029605355113744736,-0.06250684708356857,0.029599079862236977,0.01683538220822811,-0.04501543939113617,-0.17016854882240295,0.003632470965385437,-0.18563564121723175,-0.03483365476131439,0.1773993968963623,0.05667105317115784,-0.34775519371032715,-0.1842702031135559,-0.3843041658401489,-0.12863072752952576,-0.10817063599824905,-0.14915789663791656,0.08207353204488754,0.05216860771179199,0.05195797234773636,0.18977776169776917,-0.12148454040288925,-0.07943251729011536,-0.13484971225261688,-0.00371125852689147,0.09520000219345093,0.17486803233623505,-0.047715090215206146,-0.07156294584274292,0.06193259730935097,-0.006957890931516886,-0.052126217633485794,-0.06203756108880043,-0.19429528713226318,0.1283601075410843,-0.16874779760837555,0.18159763514995575,0.1358867585659027,0.14732900261878967,-0.04427039250731468,0.06604521721601486,0.00046977109741419554,-0.10463608056306839,-0.013970301486551762,-0.16398237645626068,-0.08170007169246674,-0.15830112993717194,-0.1441141664981842,-0.040675193071365356,-0.24597713351249695,0.025391889736056328,0.07502022385597229,-0.11499587446451187,-0.20210544764995575,-0.037130750715732574,-0.17905794084072113,0.06273471564054489,0.10127662867307663,0.10767394304275513,0.10959646850824356,-0.021758217364549637,0.22708718478679657,-0.01705733872950077,0.04959559068083763,-0.017692919820547104,0.012790313921868801,0.1058199405670166,0.06354900449514389,0.01316163782030344,0.06036566570401192,0.04974272474646568,0.08464235812425613,0.09839369356632233,-0.18228670954704285,0.12379433959722519,-0.04085032641887665,-0.18006214499473572,-0.14695698022842407,-0.16794724762439728,-0.04984526336193085,-0.0652632862329483,0.14423997700214386,0.09752977639436722,-0.052062369883060455,0.08943478763103485,-0.0077376700937747955,0.112124502658844,-0.04458938539028168,-0.09337377548217773,-0.060382064431905746,-0.255618691444397,0.030401216819882393,-0.04896155372262001,0.08479703962802887,-0.08178352564573288,0.010416675359010696,-0.065739206969738,-0.005432710517197847,-0.020047742873430252,0.34144777059555054,0.3634556233882904,0.045390378683805466,0.06128370761871338,-0.025622332468628883,0.04878092184662819,-0.05988696217536926,0.03499305248260498,0.09500264376401901,0.0676579475402832,-0.03246323764324188,-0.0648617073893547,0.09247829765081406,0.038423892110586166,0.07294312864542007,0.03545049950480461,0.04421055316925049,-0.07867486029863358,-0.37132182717323303,0.4430954158306122,0.565356433391571,-0.7257934212684631,0.25135281682014465,-1.0019629001617432,-0.30077654123306274,-0.4709020256996155,0.9863840341567993,-0.9554550647735596,-0.47556865215301514,-1.0615935325622559,0.22174470126628876,-0.8972187042236328,0.5040150284767151,-0.9532379508018494,-0.1744323968887329,-0.14135459065437317,0.08225024491548538,0.15164686739444733,0.24871623516082764,-0.10170520097017288,-0.05090256407856941,-0.15730594098567963,-0.16128447651863098,0.06995156407356262,0.2522989511489868,0.39780694246292114,0.11440568417310715,0.40094539523124695,-0.1908155232667923,-0.018824106082320213,0.12913601100444794,-0.07654084265232086,-0.0654127225279808,-0.2766862213611603,-0.1902153491973877,-0.07492516189813614,-0.051263052970170975,-0.19052281975746155,0.33237263560295105,-0.24790020287036896,-0.06787387281656265,-0.1296999603509903,-0.16944365203380585,-0.1325484961271286,0.411360502243042,0.14775864779949188,-0.1246635690331459,-0.12253667414188385,0.1368812471628189,0.2553909718990326,0.10376619547605515,0.31048691272735596,0.010434065014123917,-0.0921555608510971,-0.08022081851959229,0.10240378975868225,-0.18384996056556702,0.11898109316825867,0.1745772659778595,0.32833218574523926,0.04476809874176979,-0.11952871829271317,0.19264644384384155,0.08887244760990143,-0.1568552404642105,-0.08958607167005539,-0.06750126928091049,0.1308225393295288,0.041676655411720276,-0.09785716235637665,0.023006657138466835,0.1669154316186905,0.22949357330799103,0.5001313090324402,0.22036375105381012,0.1107650026679039,-0.007121316622942686,0.055884949862957,0.15404854714870453,0.058487437665462494,-0.10812871158123016,-0.11162854731082916,0.10096563398838043,-0.33321234583854675,0.03290858492255211,0.27413126826286316,0.23158499598503113,-0.22501802444458008,-0.26735466718673706,0.10381992906332016,0.07586388289928436,-0.014776719734072685,-0.11518075317144394,-0.22293736040592194,-0.09595739096403122,-0.05935761705040932,-0.2590690553188324,-0.02050805278122425,0.050090961158275604,-0.34349384903907776,-0.17873096466064453,0.0801229476928711,0.24485905468463898,0.00765299191698432,-0.1280614584684372,-0.33434468507766724,-0.14904658496379852,-0.2147826999425888,0.06735250353813171,-0.011103667318820953,0.22178344428539276,-0.09556271880865097,0.13398253917694092,-0.22183972597122192,0.22333498299121857,0.5220831036567688,-0.14060723781585693,-0.2239256203174591,0.07937709242105484,0.035751186311244965,-0.02506919577717781,0.11313635110855103,-0.057129066437482834,-0.12215333431959152,-0.0875491052865982,0.324887752532959,0.060199785977602005,-0.027604734525084496,-0.04521970823407173,0.007507417816668749,0.18372008204460144,-0.24848389625549316,-0.14178811013698578,0.06877817958593369,-0.036723461002111435,0.18331597745418549,-0.34697163105010986,-0.09923611581325531,-0.15778762102127075,-0.09620223194360733,0.1877649873495102,0.09277988225221634,0.10326044261455536,0.17445087432861328,-0.061085887253284454,-0.28591135144233704,-0.04329422488808632,0.03532537817955017,0.2427036017179489,-0.2087796926498413,-0.10414093732833862,0.1257554292678833,0.3393389880657196,0.06579506397247314,-0.1816476285457611,0.18922097980976105,-0.05989282950758934,0.2625144124031067,-0.1742895096540451,0.006541183218359947,-0.16172149777412415,0.04637701064348221,0.13721027970314026,-0.11245785653591156,-0.04155653342604637,-0.029827307909727097,0.0965486615896225,-0.10725470632314682,0.11761064827442169,-0.03245213255286217,0.3795489966869354,-0.21210826933383942,0.03788982331752777,-0.12082981318235397,0.011547517962753773,-0.10115707665681839,-0.17515629529953003,0.005009667482227087,0.09173255413770676,-0.051342666149139404,-0.04296741634607315,0.06249585002660751,0.06944269686937332,0.2890150547027588,-0.12766028940677643,0.0943688303232193,0.01915927045047283,0.006969052366912365,0.05087864398956299,0.1443386673927307,0.14865441620349884,0.2660101056098938,-0.2999606430530548,-0.3333587050437927,-0.09742255508899689,-0.41091713309288025,0.20590899884700775,0.16736716032028198,-0.055190760642290115,0.110027015209198,0.2689685821533203,-0.27922481298446655,0.051217157393693924,-0.29970666766166687,0.24350734055042267,-0.13510362803936005,-0.2701125144958496,-0.17189066112041473,-0.09216011315584183,0.10647506266832352,-0.0907408818602562,0.01129055954515934,0.029458917677402496,0.03543251007795334,-0.33603960275650024,-0.07236776500940323,-0.22760334610939026,-0.4053770899772644,0.13657227158546448,-0.4124065041542053,-0.04283175989985466,-0.11557354032993317,0.2892385423183441,0.127237007021904,-0.14575135707855225,0.17088547348976135,-0.2821710705757141,0.21176360547542572,0.024882324039936066,-0.0576634481549263,-0.037537988275289536,0.19914861023426056,0.21428966522216797,0.16262824833393097,0.2461676001548767,0.29324933886528015,-0.1281188428401947,-0.08884510397911072,0.12154190242290497,0.2950100302696228,0.13127782940864563,0.08914589881896973,-0.23641128838062286,0.12937496602535248,0.19979430735111237,-0.02270631678402424,0.0190095417201519,0.07486927509307861,-0.16505327820777893,0.08658786863088608,-0.001898262882605195,0.13037610054016113,0.13054892420768738,0.01596043072640896,0.25518640875816345,-0.224714994430542,-0.28935056924819946,-0.0049318578094244,-0.22915789484977722,0.1568852961063385,-0.3417074978351593,0.14824317395687103,0.38917747139930725,-0.261048287153244,0.08216564357280731,-0.005527673289179802,-0.24604234099388123,0.26310187578201294,-0.07396594434976578,-0.13553301990032196,-0.07586001604795456,0.004631391726434231,0.008979207836091518,-0.04516773298382759,-0.04720715805888176,0.04153604060411453,0.07884702831506729,0.11876831203699112,0.0118885338306427,0.00735501479357481,0.034015100449323654,-0.12588776648044586,0.012894864194095135,-0.16149698197841644,-0.03882206231355667,-0.01140697579830885,0.1684471070766449,0.06760576367378235,0.0352090522646904,0.09799615293741226,-0.023903749883174896,-0.09479305148124695,0.04950867220759392,0.014140000566840172,-0.05324839428067207,0.13709428906440735,-0.09540393948554993,-0.18729810416698456,0.16933661699295044,0.03876775503158569,0.0953867956995964,0.104023277759552,0.1777745485305786,0.0434391014277935,-0.04381357878446579,-0.07315085083246231,-0.18868164718151093,-0.021816376596689224,0.18222112953662872,-0.07956258207559586,-0.042314037680625916,0.08656404167413712,-0.0038776968140155077,-0.028205880895256996,0.055659037083387375,0.004599705338478088,0.1091991439461708,0.19710753858089447,-0.16796879470348358,-0.011100247502326965,-0.005762999877333641,0.06654632091522217,-0.06827498227357864,-0.12131194770336151,0.030601052567362785,-0.010968014597892761,0.14917129278182983,-0.28248336911201477,0.08941638469696045,0.08648207783699036,-0.039089132100343704,0.21586866676807404,-0.10601314902305603,-0.12296631187200546,0.057618096470832825,0.18456842005252838,0.15938447415828705,-0.31555116176605225,0.042423855513334274,-0.13283559679985046,0.030626049265265465,0.34591618180274963,0.3799893260002136,-0.09240004420280457,-0.00438690185546875,-0.1024828776717186,-0.052605465054512024,-0.031196655705571175,0.013240608386695385,-0.20994502305984497,0.0073396507650613785,-0.12141790241003036,-0.12183356285095215,-0.05203519016504288,0.0238161850720644,-0.1524362564086914,0.076453797519207,0.006977566983550787,-0.02031087316572666,-0.17824776470661163,-0.3646948039531708,0.19409650564193726,0.14404262602329254,0.12173452973365784,-0.036262307316064835,0.020451020449399948,-0.1321467012166977,-0.005848299246281385,-0.19958150386810303,-0.1934831440448761,0.11979566514492035,0.23917241394519806,-0.0673469752073288,-0.11209886521100998,-0.0664585679769516,-0.1710623800754547,-0.17023120820522308,-0.047280292958021164,-0.03720627725124359,-0.013888625428080559,-0.15643663704395294,0.20292818546295166,0.12815548479557037,-0.32694506645202637,-0.11631105840206146,0.05971672385931015,0.2286347895860672,0.0545869916677475,0.018110178411006927,-0.0451386421918869,-0.19299164414405823,-0.172369122505188,0.02916768379509449,-0.040311556309461594,-0.04230736196041107,-0.10413035750389099,0.08926364034414291,0.16421665251255035,0.03666842728853226,0.10459720343351364,-0.03130818158388138,0.17297378182411194,0.05003386363387108,-0.19057369232177734,0.003889929037541151,0.011983091942965984,0.15068742632865906,-0.04240986332297325,-0.028741609305143356,-0.012702475301921368,0.07158176600933075,-0.15375909209251404,-0.10130693763494492,-0.005224984604865313,-0.11548959463834763,-0.057300686836242676,0.14727862179279327,0.01487478893250227,0.09630776196718216,0.12154083698987961,0.08803915977478027,0.050092753022909164,0.033414553850889206,0.05457964912056923,-0.0035209155175834894,0.02014223299920559,-0.20363971590995789,-0.10347837954759598,-0.06148110330104828,0.371342271566391,-0.1797342747449875,-0.19470784068107605,0.16635243594646454,-0.019524309784173965,0.04987093806266785,-0.08967241644859314,-0.014525040984153748,0.23183241486549377,0.08754713833332062,0.036557991057634354,0.1107398048043251,-0.13259872794151306,0.036757294088602066,-0.2651830017566681,-0.0945383608341217,0.1012006476521492,-0.16384769976139069,0.08345624804496765,0.12817545235157013,0.17913469672203064,-0.051404938101768494,-0.11787591129541397,-0.03986760973930359,0.15045055747032166,0.00967567041516304,0.15856559574604034,-0.017268873751163483,-0.10026072710752487,-0.3198588490486145,-0.1280384063720703,0.10448845475912094,0.10466416925191879,-0.10533192753791809,0.09543388336896896,0.01608194224536419,-0.2759627401828766,0.08738618344068527,0.15052802860736847,0.033427026122808456,0.14836890995502472,0.05196503922343254,0.12639731168746948,-0.06983287632465363,-0.062276799231767654,0.026791241019964218,-0.24618679285049438,0.17030814290046692,0.5300320982933044,0.1193564236164093,0.02967500127851963,-0.009911366738379002,0.02015395648777485,0.043511416763067245,-0.005196227226406336,0.041097044944763184,0.18150416016578674,-0.1294652819633484,0.0539964996278286,0.13941290974617004,-0.11523623019456863,-0.09092475473880768,0.05833505094051361,-0.08968256413936615,0.03370330482721329,0.22907042503356934,-0.05728144943714142,-0.11946702003479004,-0.13532479107379913,-0.046958692371845245,-0.028620006516575813,0.030191369354724884,-0.013332931324839592,-0.0024645805824548006,-0.1854788362979889,0.11630930751562119,0.05339512974023819,0.0761915072798729,-0.001277234172448516,0.0013166998978704214,0.04369749128818512,0.019149193540215492,0.024708593264222145,-0.04588363692164421,0.035641301423311234,-0.16245251893997192,-0.05370481312274933,0.037697650492191315,-0.0391097292304039,-0.11975988000631332,0.033216916024684906,-0.028718464076519012,-0.0815119594335556,0.3548978269100189,0.2314312756061554,0.0019438366871327162,-0.3331058919429779,0.10976658016443253,-0.2104341834783554,0.01473167259246111,0.03058411367237568,0.007051227614283562,0.19831933081150055,0.11877842247486115,-0.12073688954114914,0.13852034509181976,-0.03721308708190918,-0.1070217564702034,0.027085570618510246,-0.012466136366128922,-0.03554407134652138,0.37655770778656006,-0.21315744519233704,-0.17451494932174683,0.3651043772697449,-0.0716177448630333,0.2327990084886551,0.11203166097402573,-0.15253819525241852,-0.2427714467048645,0.31800711154937744,-0.014606650918722153,0.012995801866054535,-0.28058987855911255,-0.13789889216423035,0.041398048400878906,0.08977562934160233,-0.0231586005538702,-0.06734608113765717,0.0899498239159584,-0.06791596114635468,0.1849844753742218,-0.27999576926231384,0.2809204161167145,0.043047185987234116,-0.3370819687843323,0.011807601898908615,0.05237004905939102,-0.010555039159953594,0.05727526172995567,-0.006943227723240852,-0.18394525349140167,-0.0014810072025284171,0.02525482513010502,0.19021137058734894,-0.058467209339141846,-0.09177104383707047,-0.032587263733148575,-0.04614051431417465,-0.017872542142868042,-0.07988514006137848,0.1968517005443573,-0.0664258673787117,-0.19806882739067078,0.06968297809362411,0.1504618376493454,-0.10632957518100739,-0.02273421548306942,-0.1442325860261917,0.16639623045921326,-0.10867860913276672,0.03902644291520119,0.07269171625375748,0.11289947479963303,-0.010152759961783886,-0.21910901367664337,0.09511493146419525,0.17428618669509888,0.011653395369648933,-0.047724127769470215,0.01999172754585743,0.0862218514084816,-0.12656353414058685,0.07337003946304321,-0.035180795937776566,0.18121962249279022,0.2850469946861267,-0.4272465407848358,-0.027203403413295746,-0.10826120525598526,-0.07763336598873138,-0.1637154221534729,-0.1716340333223343,0.16525554656982422,0.12298627197742462,-0.011819696985185146,-0.3749234080314636,-0.25383153557777405,-0.0031178633216768503,0.06848031282424927,0.14260925352573395,-0.03211857005953789,-0.03841807320713997,0.05424709990620613,0.11046797782182693,-0.10824857652187347,-0.027099840342998505,-0.04087169095873833,0.23844130337238312,0.05323627218604088,0.05439000576734543,-0.13560298085212708,-0.1649409383535385,-0.06800222396850586,0.10834123939275742,0.0005774112651124597,0.28318774700164795,-0.1028815284371376,0.0356663353741169,0.1099739670753479,-0.06409729272127151,-0.08901966363191605,-0.21093323826789856,0.11344035714864731,0.23794540762901306,0.1731816977262497,-0.13201715052127838,-0.04743032902479172,0.06165371835231781,-0.018094155937433243,-0.0025901480112224817,0.2841266095638275,-0.2202446460723877,-0.01168888807296753,-0.21812234818935394,0.1861511766910553,-0.1548951268196106,-0.06397861242294312,-0.07130520790815353,-0.1031549796462059,-0.27577123045921326,0.1849903017282486,-0.23477467894554138,-0.191489577293396,0.1466117650270462,0.1274668276309967,-0.11369496583938599,-0.06639756262302399,-0.08367204666137695,-0.20857028663158417,0.08627355843782425,-0.1241786777973175,-0.11399027705192566,0.29920583963394165,0.5451695919036865,0.09856773167848587,-0.04562777653336525,-0.041540373116731644,0.0016551836160942912,0.11397502571344376,-0.14535783231258392,0.13573642075061798,0.18011565506458282,-0.09361204504966736,-0.20754602551460266,-0.06274916231632233,0.12247049808502197,-0.01936148665845394,-0.08864901959896088,0.05363297089934349,0.08967141062021255,0.19906221330165863,0.34057503938674927,-0.034538496285676956,-0.1694232076406479,0.031604476273059845,-0.05122770369052887,0.1354566067457199,-0.13949885964393616,-0.18965037167072296,-0.06352727115154266,-0.1947336345911026,0.09897907823324203,0.17873966693878174,0.03523468226194382,0.15935972332954407,0.06050910800695419,-0.23009620606899261,0.09249822795391083,0.09909413754940033,-0.1488487869501114,0.022809818387031555,0.42799848318099976,0.24587976932525635,0.04011223465204239,-0.32570621371269226,0.37288913130760193,0.0899726003408432,0.0025667946320027113,-0.07152307033538818,-0.03733690455555916,-0.05557301267981529,0.03700738027691841,0.12773656845092773,0.024547284469008446,-0.01581346057355404,0.018874023109674454,0.2616409361362457,-0.07440098375082016,-0.013041311874985695,-0.08432944118976593,-0.1347087025642395,-0.10256871581077576,0.051617398858070374,-0.10064875334501266,-0.00034835212863981724,-0.10641634464263916,-0.18364892899990082,0.1645665317773819,-0.07042241841554642,0.04603264108300209,-0.07442668080329895,-0.07764068245887756,-0.09209393709897995,-0.18055877089500427,0.021774807944893837,0.0521385632455349,-0.23079954087734222,-0.03877304121851921,-0.01669505424797535,0.06630271673202515,-0.15087836980819702,-0.035729799419641495,0.23790712654590607,-0.137709379196167,-0.0420660674571991,0.08406869322061539,-0.18322956562042236,-0.05454890429973602,-0.1295986771583557,-0.04353189840912819,-0.14237351715564728,0.08145159482955933,-0.17020022869110107,0.0772031918168068,-0.23548540472984314,-0.05429850518703461,0.08955486863851547,0.05340934544801712,-0.03761045262217522,-0.14851251244544983,-0.0008940743864513934,0.2630264461040497,0.011704271659255028,0.04077275097370148,0.1592603474855423,0.059416793286800385,0.10563930124044418,0.047126274555921555,0.20153766870498657,-0.07973374426364899,0.19011594355106354,0.13833755254745483,-0.012367678806185722,0.19216059148311615,0.030666379258036613,0.1009594202041626,-0.17026592791080475,0.0246173907071352,0.018538029864430428,0.19939200580120087,-0.03944907709956169,0.09715573489665985,-0.13856062293052673,-0.07311828434467316,-0.03395339101552963,0.14099638164043427,0.06322535127401352,-0.08912450075149536,-0.03350206837058067,0.09955195337533951,0.03806321695446968,0.08915194123983383,0.05659189820289612,0.07265184819698334,-0.03244151547551155,0.11783821135759354,-0.14593739807605743,-0.1460028439760208,-0.039147499948740005,0.08316163718700409,-0.05208935961127281,0.02977363020181656,-0.0198388509452343,-0.14932385087013245,-0.059953127056360245,-0.11780598014593124,0.018587755039334297,0.11497803032398224,0.011218407191336155,0.22200116515159607,0.09039603918790817,0.06598727405071259,0.12776128947734833,-0.1272527575492859,0.0642627626657486,0.03165968507528305,0.026700235903263092,-0.0722208172082901,0.03498145937919617,-0.056772444397211075,-0.1374226063489914,0.19005416333675385,0.039284996688365936,0.2002379596233368,0.22145651280879974,0.006665774621069431,-0.165192648768425,-0.016048690304160118,-0.17761963605880737,0.09220075607299805,-0.162846177816391,-0.1161745935678482,-0.09527437388896942,-0.10417111963033676,-0.03500457480549812,-0.11308886110782623,-0.04564210772514343,0.11911007761955261,-0.1159234568476677,-0.09390323609113693,0.0590621754527092,0.05126020684838295,-0.09970537573099136,0.0186761487275362,-0.033436138182878494,0.1483364999294281,0.12267448753118515,-0.15447604656219482,0.07911419123411179,-0.0565917007625103,0.04400520399212837,-0.11614865064620972,-0.18097572028636932,-0.25930365920066833,0.0680900514125824,0.15057571232318878,0.08214912563562393,-0.2485360950231552,-0.09865283221006393,-0.11885547637939453,0.1211671233177185,-0.009280196391046047,-0.01951782777905464,-0.11510688066482544,0.1285048872232437,-0.07754223793745041,-0.029103025794029236,0.03885609656572342,-0.02053980901837349,-0.01689586602151394,-0.010053661651909351,0.27805256843566895,-0.08517671376466751,0.007253311574459076,-0.060426536947488785,0.02802075818181038,0.061315037310123444,-0.1411847472190857,0.013161408714950085,-0.05901060998439789,-0.12370236963033676,-0.010465112514793873,0.2277715653181076,0.2128187119960785,-0.25419074296951294,0.05031390115618706,0.004786577541381121,-0.06813264638185501,-0.15018512308597565,0.18364237248897552,-0.0930493175983429,0.18558019399642944,0.15143710374832153,-0.11832962185144424,-0.06029961258172989,0.20735807716846466,0.03504030779004097,-0.05040346831083298,-0.04283538833260536,0.4222416281700134,-0.07620289921760559,-0.23688769340515137,-0.05642026290297508,0.10016173869371414,0.23350317776203156,0.0909423828125,-0.1630714386701584,-0.20680826902389526,-0.17303971946239471,-0.26821693778038025,-0.14457948505878448,-0.019546499475836754,0.05564306676387787,0.20196911692619324,0.1651584506034851,0.1361621767282486,-0.015442879870533943,0.08379099518060684,-0.2573111355304718,0.03900677338242531,-0.13351725041866302,0.041435349732637405,-0.023841101676225662,0.001179283019155264,-0.12489667534828186,-0.0634540468454361,-0.11157995462417603,0.1803768128156662,-0.06992904096841812,0.1270250529050827,-0.14343805611133575,-0.16336186230182648,-0.2606962323188782,0.09156553447246552,0.3361225426197052,0.008158373646438122,-0.12511569261550903,0.19198594987392426,-0.1354312151670456,-0.1285557746887207,-0.03369608148932457,-0.22935174405574799,-0.1240733191370964,0.060479890555143356,-0.01729082129895687,-0.018190985545516014,-0.058892037719488144,0.1461554616689682,0.16017115116119385,0.055424030870199203,-0.036470573395490646,-0.005485765170305967,0.22780713438987732,0.09648214280605316,0.1862502098083496,0.08651488274335861,-0.30233895778656006,-0.14478176832199097,-0.15944188833236694,-0.16309545934200287,-0.056346308439970016,-0.08551021665334702,-0.16649694740772247,-0.04035082459449768,0.21452820301055908,-0.10373511910438538,-0.012552402913570404,-0.03198374807834625,-0.2328040450811386,-0.11944982409477234,0.1235877126455307,-0.025416187942028046,0.02041628398001194,-0.24792765080928802,0.06642863899469376,0.07326780259609222,0.1552141308784485,0.055640809237957,-0.10986393690109253,0.2073349952697754,0.045425817370414734,-0.08553311973810196,-0.06560031324625015,0.046753786504268646,0.04548316448926926,-0.14984695613384247,0.03159701079130173,-0.012155004777014256,0.011587699875235558,0.026495201513171196,0.016073409467935562,-0.022453244775533676,-0.03694780915975571,0.238277405500412,0.21037374436855316,-0.09655456990003586,-0.00251115788705647,0.19330139458179474,0.1383107751607895,-0.014946697279810905,-0.06812050938606262,0.01895144023001194,-0.018894927576184273,0.18364964425563812,0.23695194721221924,-0.0803128108382225,0.04836282134056091,0.15616469085216522,-0.052860941737890244,0.08869676291942596,0.012943730689585209,0.013497921638190746,0.028684012591838837,-0.23887412250041962,0.13658250868320465,0.02969120256602764,0.08760150521993637,0.08951999247074127,0.13134437799453735,-0.019196081906557083,0.024027889594435692,-0.07465529441833496,0.04955238476395607,-0.14017952978610992,-0.039934366941452026,-0.040478456765413284,0.00045987157500348985,-0.01377268135547638,0.10356198251247406,-0.1078498438000679,-0.038376130163669586,0.16823239624500275,-0.12517645955085754,0.06884617358446121,-0.028396621346473694,-0.03867662325501442,0.11034491658210754,-0.01510596089065075,0.05916379392147064,-0.09831719845533371,-0.009512198157608509,-0.10244748741388321,-0.08425351232290268,-0.06504363566637039,0.03960413113236427,-0.00704955542460084,0.05935161933302879,0.012516435235738754,0.03586341440677643,0.010889300145208836,-0.0496431328356266,-0.046917613595724106,0.005432223901152611,0.006327053066343069,-0.0012848483165726066,0.020081279799342155,-0.08633501827716827,0.003094905521720648,0.003421488916501403,0.010400284081697464,-0.3614369332790375,-0.575762152671814,1.1094107627868652,0.5531574487686157,-0.7173649668693542,-0.020072152838110924,-0.12147414684295654,-0.2223830223083496,0.4472227990627289,-1.1475093364715576,1.2822418212890625,0.932644248008728,0.07639322429895401,-0.22624094784259796,0.4173782467842102,-0.9928873777389526,0.1315169334411621,-0.38274455070495605,-0.11565864086151123,-0.587882399559021,0.24722234904766083,0.0918065756559372,0.2739466726779938,0.02723109908401966,0.07470542937517166,0.09048639237880707,-0.06091776490211487,0.11669670045375824,-0.28155094385147095,0.0843777284026146,-0.09206477552652359,0.039421260356903076,0.17858293652534485,-0.13625755906105042,-0.061023395508527756,0.1987764686346054,0.0748186782002449,0.22800467908382416,0.08635284006595612,-0.1601550281047821,-0.3584868907928467,-0.3115836977958679,0.052818406373262405,-0.25690600275993347,0.22514590620994568,0.06685011833906174,0.09439726173877716,-0.15714532136917114,0.05114246532320976,0.0028032108675688505,0.2322143316268921,-0.16485008597373962,0.07847245782613754,-0.5146157145500183,0.3198312819004059,-0.36664626002311707,-0.28496602177619934,-0.18974213302135468,-0.06741135567426682,0.12543781101703644,0.2584073841571808,-0.08248730003833771,-0.14888180792331696,-0.18965859711170197,0.3260835111141205,0.06494895368814468,0.1143125370144844,-0.1283143013715744,0.03143875673413277,0.23292578756809235,-0.11023975908756256,0.1326531022787094,0.2948049008846283,0.3002806305885315,-0.0709487572312355,0.1978396475315094,0.181112140417099,0.19858025014400482,0.31712356209754944,0.019129667431116104,0.04397263750433922,-0.0014306824887171388,0.2958543598651886,-0.06662259995937347,0.1122303381562233,-0.24873121082782745,-0.06944930553436279,0.03790568560361862,0.1971070021390915,-0.13633809983730316,-0.01914696954190731,0.13035190105438232,-0.13797368109226227,-0.2767796516418457,0.16174963116645813,-0.22467496991157532,-0.16920782625675201,-0.03022916242480278,0.032755184918642044,-0.11922059953212738,-0.1184258759021759,-0.09858919680118561,0.0252127293497324,0.12333559989929199,0.036656878888607025,-0.149344339966774,-0.005630800500512123,-0.03859676420688629,0.022132758051156998,0.021820373833179474,0.19414103031158447,0.04463004693388939,0.10354677587747574,0.21365031599998474,-0.1723158359527588,0.09280262887477875,0.11996805667877197,0.035885460674762726,0.20972061157226562,-0.2741895914077759,-0.27438119053840637,0.1613561362028122,0.1269112527370453,-0.22014664113521576,0.1593010276556015,0.1981768012046814,0.03287479281425476,0.1518286019563675,0.22547662258148193,-0.09756362438201904,-0.21829788386821747,-0.09593169391155243,0.09429391473531723,-0.28332287073135376,0.12592503428459167,0.01584736816585064,0.23426373302936554,-0.20479023456573486,0.0996566191315651,0.15191370248794556,-0.05332517251372337,-0.007787223905324936,0.2579337954521179,-0.12218624353408813,-0.09484219551086426,0.23335161805152893,-0.05916209891438484,-0.0036987122148275375,0.32892367243766785,0.1730147898197174,-0.08965812623500824,-0.06883164495229721,-0.2685997784137726,0.1980627030134201,-0.11812913417816162,0.19738008081912994,-0.2789822816848755,0.07806514203548431,0.12743638455867767,0.05582655966281891,0.2333115041255951,-0.20132021605968475,-0.11173953115940094,0.29073566198349,-0.004034720361232758,-0.034192755818367004,-0.005999352782964706,-0.10557340085506439,0.07388924807310104,-0.041354283690452576,0.1819584220647812,-0.14605849981307983,0.01843268983066082,-0.13121336698532104,0.2743876278400421,-0.14778003096580505,0.3224967420101166,-0.06048061326146126,-0.23027309775352478,-0.11115328222513199,0.11291009932756424,-0.08107958734035492,0.24007360637187958,-0.12618888914585114,0.11171422898769379,0.06225934252142906,-0.3269027769565582,-0.12441888451576233,0.06400614231824875,-0.13877253234386444,0.08449370414018631,0.28758907318115234,0.02798456698656082,0.15898126363754272,-0.09387418627738953,0.07826701551675797,-0.27014124393463135,0.13151706755161285,0.30268338322639465,-0.08013133704662323,-0.291450560092926,-0.2481285184621811,-0.1652723252773285,0.21620188653469086,-0.12791329622268677,-0.1502370685338974,0.08679676800966263,0.06453385204076767,-0.34803682565689087,-0.18986964225769043,-0.05157039314508438,-0.03214593976736069,0.0641901046037674,0.01919315569102764,-0.269218385219574,-0.15705226361751556,0.003391661448404193,0.24720215797424316,-0.1569608449935913,0.11767590790987015,0.14591343700885773,0.29728010296821594,-0.10216251015663147,-0.09098684042692184,-0.1732088327407837,0.19631382822990417,-0.16182027757167816,-0.04610423743724823,0.0492655374109745,-0.03979390487074852,0.26742756366729736,-0.2577565610408783,-0.06951119750738144,0.18262313306331635,0.03200783208012581,-0.24509967863559723,0.028323667123913765,0.29310542345046997,-0.2529659867286682,0.08250149339437485,-0.08419458568096161,0.1886454075574875,0.10289295762777328,0.270037978887558,-0.21461182832717896,-0.10164173692464828,-0.12134373188018799,-0.16908805072307587,0.24393828213214874,0.18183065950870514,0.17840373516082764,0.1852875053882599,-0.0566033199429512,-0.0025629799347370863,0.26132941246032715,-0.29656875133514404,-0.13555903732776642,-0.17164750397205353,-0.142279714345932,-0.4284575581550598,-0.017903197556734085,-0.05689173564314842,-0.1837073564529419,-0.015518007799983025,0.10039745271205902,-0.0470680370926857,0.14391793310642242,0.18574035167694092,-0.32851728796958923,-0.1455250084400177,0.1662304699420929,0.16180817782878876,0.01457962952554226,0.009172276593744755,0.015268722549080849,-0.0028133289888501167,-0.03247036039829254,0.023472115397453308,0.03235836699604988,0.003627622267231345,-0.06884454935789108,-0.04404565691947937,0.04573864862322807,0.0322885625064373,0.011882171966135502,0.03567257151007652,0.016299160197377205,-0.01870991475880146,0.054822731763124466,0.07031828165054321,-0.029190294444561005,-0.0841282531619072,-0.0404466949403286,0.008950188755989075,0.01247342862188816,-0.04852502420544624,-0.018851393833756447,-0.004131099674850702,0.027891095727682114,-0.05966010317206383,0.024587491527199745,-0.15855200588703156,-0.06687939167022705,0.1782710701227188,-0.05512663349509239,0.36428263783454895,0.11253882944583893,-0.03197157755494118,-0.12031488120555878,-0.15060237050056458,-0.04488701373338699,0.21432258188724518,0.05720679461956024,-0.1629723161458969,-0.05614710599184036,-0.015622450970113277,0.08149396628141403,0.042206812649965286,-0.09106923639774323,-0.09744063019752502,0.13778693974018097,-0.045618582516908646,0.052034199237823486,-0.13670147955417633,-0.13772808015346527,0.06482648104429245,-0.2890692949295044,0.020617784932255745,-0.04408463090658188,-0.24509131908416748,-0.1195651963353157,-0.16309404373168945,-0.1544717401266098,-0.0012791043845936656,-0.02809728868305683,0.14333876967430115,0.2155473232269287,0.2362769991159439,0.07471451908349991,0.23277994990348816,-0.277767539024353,-0.3627651631832123,0.07804886251688004,-0.3977801501750946,-0.04863603040575981,-0.24850094318389893,0.481309175491333,0.21579016745090485,0.037290237843990326,0.06412585079669952,0.16774602234363556,0.11226581782102585,-0.082408107817173,-0.19788916409015656,-0.10558826476335526,0.08846890181303024,-0.12002124637365341,0.02612510696053505,-0.1937669813632965,-0.08717009425163269,-0.078568235039711,0.2209489345550537,-0.20444431900978088,-0.013494503684341908,0.06097233295440674,0.00862676277756691,0.015412217937409878,0.227513387799263,-0.11371414363384247,0.2669605314731598,-0.02921471558511257,-0.3529304265975952,-0.14460910856723785,0.03821956366300583,0.06534001231193542,-0.14578388631343842,0.1267717480659485,-0.2072203904390335,-0.008374719880521297,0.11137675493955612,0.09069572389125824,-0.25857478380203247,0.03331541270017624,-0.002256070962175727,-0.12874355912208557,-0.12849073112010956,0.02165800705552101,0.06290968507528305,0.01796298660337925,-0.08808241784572601,-0.20382758975028992,-0.2146550416946411,0.008842939510941505,-0.12333574891090393,-0.007468630559742451,-0.06543832272291183,0.08645563572645187,-0.07486294209957123,0.08436468988656998,-0.0405195914208889,-0.254863977432251,0.17004071176052094,0.07134323567152023,0.006087976042181253,-0.1549537181854248,-0.026990700513124466,-0.1689235121011734,0.1853032112121582,0.019777927547693253,0.05842301622033119,-0.05627979710698128,0.11857762187719345,-0.12022548168897629,0.12778107821941376,-0.0020201518200337887,-0.03968606889247894,-0.10686548799276352,0.06383772939443588,-0.05054127424955368,0.06804905831813812,-0.06304865330457687,0.08635473996400833,-0.05222220718860626,-0.05015115812420845,-0.08960819244384766,-0.11105634272098541,0.015224327333271503,-0.08582549542188644,-0.13806967437267303,-0.08391834050416946,0.011179708875715733,0.1348164826631546,-0.14826521277427673,0.26002436876296997,0.37144753336906433,0.042164240032434464,0.15714764595031738,0.15413494408130646,0.15204456448554993,0.2589246928691864,0.21910351514816284,0.36988013982772827,0.07009942084550858,-0.0035254149697721004,0.1506052017211914,0.10544350743293762,-0.05537724494934082,-0.10588536411523819,-0.24878284335136414,0.17939814925193787,0.046288177371025085,-0.03607064485549927,0.10480799525976181,-0.08770390599966049,-0.0893326923251152,0.3562743365764618,0.3009023666381836,-0.22250518202781677,-0.23317468166351318,-0.07027208805084229,0.16104698181152344,0.0730900689959526,-0.14007987082004547,0.0478815883398056,-0.01572297140955925,0.04735757037997246,0.24206162989139557,-0.24097788333892822,0.30624160170555115,0.3751051723957062,-0.3790721595287323,0.04728492721915245,0.17623287439346313,-0.17791558802127838,0.03853406757116318,0.10006830096244812,-0.05163529887795448,-0.2123120278120041,-0.3305445909500122,0.3370399475097656,-0.022215289995074272,0.054261185228824615,0.11705485731363297,0.09420809894800186,0.11745432019233704,-0.16351383924484253,0.10132918506860733,0.3775116503238678,-0.02699183113873005,0.02075852081179619,0.03835156187415123,0.24282453954219818,0.029833633452653885,-0.12074275314807892,-0.2559213638305664,-0.22182027995586395,0.11073973774909973,-0.02858617901802063,-0.06432896852493286,0.004456831607967615,0.10087494552135468,0.021838130429387093,0.032496966421604156,-0.17158745229244232,-0.17096538841724396,-0.009586125612258911,0.15202534198760986,0.007688651792705059,0.015538716688752174,-0.07976067066192627,0.082236647605896,0.06402803212404251,0.02078206092119217,-0.07729227095842361,-0.1448603719472885,-0.0987083911895752,-0.07256320863962173,-0.05941998213529587,0.15926410257816315,-0.004680291749536991,-0.008858796209096909,-0.03436530381441116,0.12728548049926758,-0.01287063304334879,0.22040875256061554,-0.1432422399520874,0.027959389612078667,-0.03756212070584297,0.05227968469262123,-0.012757545337080956,-0.14659428596496582,-0.35634884238243103,0.004106465727090836,0.03442962467670441,-0.0461362786591053,0.04286378622055054,0.21725283563137054,-0.019962532445788383,-0.1596716046333313,-0.2448481172323227,0.17912393808364868,-0.11697874218225479,-0.17246794700622559,-0.07835730910301208,-0.16666832566261292,-0.12113547325134277,-0.11314405500888824,-0.0675569474697113,0.05798262357711792,0.05578414723277092,0.0980483740568161,-0.11271095275878906,0.005318299867212772,0.07440459728240967,-0.03991842642426491,-0.1114625483751297,0.02682587131857872,-0.13939394056797028,-0.1351364105939865,-0.2296287715435028,0.17953220009803772,-0.15111464262008667,-0.07477705925703049,0.13325367867946625,0.08512057363986969,-0.05659257620573044,-0.20563487708568573,-0.09575564414262772,-0.14862701296806335,0.20221306383609772,0.007270697504281998,0.07555019855499268,-0.23226715624332428,0.2255306988954544,0.19729286432266235,0.14675429463386536,0.144608736038208,0.32582831382751465,0.038186751306056976,0.04879806563258171,-0.19680005311965942,-0.21317218244075775,0.020924841985106468,0.08525113761425018,0.18417367339134216,-0.018206389620900154,0.2783777117729187,-0.14804863929748535,-0.1615685522556305,0.06305311620235443,0.14548076689243317,-0.26537957787513733,-0.2613779604434967,0.29481229186058044,-0.014299378730356693,-0.0940980538725853,-0.15671302378177643,-0.03449983894824982,-0.18992850184440613,0.09350379556417465,0.09582677483558655,0.21444006264209747,0.017252955585718155,-0.0648103654384613,-0.02534390054643154,0.10847604274749756,0.24101394414901733,0.07191075384616852,-0.08394958823919296,-0.021792061626911163,-0.0664595365524292,-0.06803162395954132,0.1754305362701416,-0.035255420953035355,-0.0653274729847908,0.03580981120467186,0.08109461516141891,-0.20428144931793213,-0.13293029367923737,0.10760832577943802,0.13301871716976166,-0.0668688639998436,-0.10251851379871368,-0.1388220191001892,0.03739903122186661,0.0027933544479310513,0.020014479756355286,-0.12137656658887863,0.17266571521759033,0.20675702393054962,-0.13216692209243774,0.3437158167362213,0.06658665090799332,0.11595207452774048,-0.20040632784366608,-0.1271771490573883,-0.05443844199180603,0.14604665338993073,-0.014539284631609917,-0.10187993943691254,-0.19247108697891235,0.12377341091632843,0.055918678641319275,-0.07639090716838837,0.12162932008504868,-0.07410666346549988,-0.016520043835043907,-0.10398219525814056,0.24137158691883087,-0.14655615389347076,0.13756400346755981,-0.03300020471215248,-0.03002067469060421,0.09524212777614594,-0.05243407562375069,-0.06584570556879044,0.013299629092216492,-0.01174162421375513,0.02639668621122837,0.3059072494506836,0.17162080109119415,0.0087669612839818,0.14544694125652313,0.16165100038051605,-0.03504081815481186,0.029869651421904564,0.041568465530872345,-0.12933418154716492,-0.06731551885604858,0.008348624221980572,-0.34781011939048767,0.03491948917508125,-0.07381539791822433,0.04829871281981468,-0.08711172640323639,0.0035961682442575693,0.06361303478479385,0.030893918126821518,-0.08854149281978607,-0.12597408890724182,-0.1737670600414276,-0.00364499818533659,-0.1039426326751709,0.032516803592443466,0.028933178633451462,-0.060995470732450485,-0.03147174417972565,-0.05568339675664902,0.06508412957191467,-0.06743503361940384,-0.14229726791381836,-0.0359824113547802,-0.14334364235401154,-0.03679291531443596,-0.18693313002586365,-0.09858275204896927,-0.06470295786857605,-0.05344289541244507,-0.17935971915721893,0.15026234090328217,0.14371241629123688,0.0008524400764144957,-0.04746226593852043,0.03857915475964546,-0.03595629706978798,0.0927373468875885,0.14526619017124176,-0.14756372570991516,0.16677992045879364,-0.030572570860385895,-0.19543534517288208,-0.21944591403007507,0.12383043020963669,-0.05473944917321205,0.14281323552131653,0.010758365504443645,-0.13333232700824738,0.1382746696472168,-0.03437434881925583,0.1658497303724289,-0.12111946940422058,0.11015365272760391,-0.10714928060770035,-0.03944865241646767,-0.006715651135891676,-0.09771867841482162,0.018012573942542076,-0.016049541532993317,-0.06653926521539688,0.31135275959968567,0.16738194227218628,0.034855715930461884,-0.006029043346643448,0.02334723249077797,0.09462183713912964,-0.04077516496181488,-0.056111134588718414,-0.14242200553417206,0.03954271599650383,-0.08275488764047623,0.04711787775158882,-0.15144605934619904,-0.06677749007940292,0.07954778522253036,0.1691422015428543,-0.032092250883579254,0.008748115971684456,-0.016205934807658195,0.1472572684288025,-0.03910936042666435,-0.04030231013894081,0.0941539779305458,-0.07937640696763992,-0.03519972041249275,-0.09598726779222488,-0.33992326259613037,0.06685000658035278,0.034686364233493805,-0.16113923490047455,0.006140005774796009,0.09390857070684433,-0.05812910571694374,0.00009058975410880521,0.08400414884090424,-0.12626531720161438,0.007287244312465191,-0.3219558000564575,0.23728099465370178,0.09033238887786865,-0.03583480045199394,-0.09425151348114014,0.4020477533340454,-0.24536558985710144,0.09339307248592377,-0.06619750708341599,-0.23128102719783783,0.26969990134239197,-0.030223365873098373,0.29944029450416565,-0.3289908468723297,-0.1963394731283188,-0.12136007845401764,0.039631057530641556,-0.007936871610581875,-0.004529676865786314,0.34349194169044495,0.2016117423772812,0.1481628119945526,-0.13857638835906982,-0.04710746183991432,-0.07204709202051163,0.19063836336135864,-0.036965254694223404,0.02738361805677414,-0.011334871873259544,-0.026757124811410904,0.04869324713945389,0.015139290131628513,0.23096175491809845,0.2159632444381714,-0.45421871542930603,0.15819191932678223,0.11785124987363815,-0.49278658628463745,0.008556588552892208,0.0022506590466946363,0.12054039537906647,0.14009451866149902,0.02096119523048401,-0.11278331279754639,-0.06805441528558731,0.043978650122880936,0.26231759786605835,-0.07857118546962738,0.14477503299713135,0.06271953880786896,-0.05920816957950592,0.041638005524873734,-0.12633219361305237,0.21420028805732727,0.13132035732269287,-0.17776992917060852,0.16355246305465698,-0.05120474100112915,0.11904880404472351,-0.14083489775657654,0.10786336660385132,-0.14896626770496368,-0.18398138880729675,-0.058318864554166794,0.21168406307697296,-0.11736106127500534,-0.07237214595079422,-0.040027376264333725,0.15066948533058167,-0.04553568735718727,-0.21789710223674774,-0.035497672855854034,-0.07075329124927521,0.18548595905303955,-0.149277001619339,0.03795939311385155,-0.0010897204047068954,-0.07310445606708527,0.12939660251140594,0.20674651861190796,0.2017846554517746,-0.1172386109828949,-0.066373310983181,0.20510320365428925,-0.02007783018052578,-0.019037198275327682,-0.0148524334654212,0.03145020455121994,-0.141293466091156,0.2762872874736786,-0.09369728714227676,-0.038611382246017456,-0.17968428134918213,-0.09171439707279205,-0.007244478911161423,-0.18354393541812897,-0.07630295306444168,0.06749648600816727,-0.0307236909866333,-0.14698639512062073,-0.07220832258462906,0.0018077768618240952,0.1433258354663849,-0.03150264918804169,-0.08410423994064331,-0.257534921169281,-0.2716166377067566,-0.061023883521556854,-0.2476913034915924,-0.4044964611530304,0.019051654264330864,0.17299123108386993,-0.10360836237668991,0.2939195930957794,0.026880944147706032,-0.03142012655735016,-0.21302242577075958,-0.1663416177034378,-0.19217362999916077,0.08427535742521286,-0.035752665251493454,0.02350766211748123,-0.15627583861351013,-0.016812846064567566,-0.1673840880393982,-0.021452639251947403,0.05131999030709267,-0.15671028196811676,-0.1760108917951584,-0.2753523290157318,-0.07201170921325684,-0.07453687489032745,0.11859084665775299,0.2597132921218872,0.05512441322207451,0.2202727347612381,0.0740114077925682,0.0967617854475975,-0.22202003002166748,0.0894189402461052,-0.039118219166994095,0.109107606112957,-0.0626426711678505,0.056456439197063446,-0.04049303010106087,0.26878273487091064,0.05392652004957199,-0.04794309288263321,-0.14683493971824646,0.12441083043813705,-0.07392165809869766,0.2345929890871048,-0.0881970226764679,-0.2723989188671112,0.05657641217112541,-0.022998206317424774,-0.022116390988230705,-0.06227336823940277,0.045078303664922714,-0.07528945058584213,0.3036159574985504,-0.007050595246255398,0.0474870540201664,0.16311809420585632,-0.09703514724969864,0.05392156168818474,0.06890305876731873,-0.12813310325145721,0.0033444599248468876,-0.010159006342291832,-0.08412851393222809,0.07974675297737122,-0.21595527231693268,0.019671117886900902,-0.09456527233123779,0.20404750108718872,0.20351746678352356,-0.017554087564349174,-0.12413739413022995,0.12182687968015671,0.0007661700947210193,-0.1461380422115326,-0.0585184209048748,0.025253750383853912,-0.04924987256526947,-0.016196925193071365,-0.04782894253730774,0.012376074679195881,-0.18934640288352966,-0.12675470113754272,0.25275516510009766,0.01268465630710125,0.14272648096084595,0.09256275743246078,-0.09508907794952393,-0.17939738929271698,0.06107491999864578,-0.028188828378915787,0.14657819271087646,0.33129873871803284,-0.05846086144447327,0.15004238486289978,-0.02361767180263996,-0.1351698338985443,-0.20223435759544373,-0.12245160341262817,-0.05635317042469978,0.010040699504315853,-0.1399572193622589,0.11583902686834335,0.012779482640326023,0.03673351928591728,0.08318202942609787,-0.09391805529594421,0.18195362389087677,-0.01196574792265892,0.11443501710891724,-0.07212411612272263,-0.08829619735479355,0.14575032889842987,0.3241415023803711,-0.12868045270442963,0.02562864124774933,-0.052066635340452194,-0.08597017824649811,-0.1183604821562767,0.1166999340057373,0.09599915891885757,-0.11245951056480408,0.1755855828523636,-0.17831125855445862,-0.2039330154657364,0.004092557355761528,-0.11489357054233551,0.003905612276867032,-0.07380767166614532,-0.02597339078783989,0.009398497641086578,-0.024881510064005852,-0.07140877842903137,0.17388364672660828,-0.2923204004764557,0.02820482663810253,0.18502916395664215,0.08292732387781143,-0.3711298406124115,0.08034735918045044,0.20950841903686523,-0.20118530094623566,0.029210060834884644,-0.3022163212299347,0.3862178921699524,0.004645566921681166,0.1184486597776413,0.04078659787774086,0.11681763082742691,0.0197981558740139,-0.13512304425239563,-0.1643652617931366,0.04485931247472763,-0.01575089618563652,0.004660222213715315,-0.035893965512514114,-0.03195633366703987,0.16877619922161102,-0.11850306391716003,0.08025778084993362,-0.21006211638450623,-0.1406286209821701,-0.09764134883880615,-0.0005380795337259769,0.19238199293613434,-0.14824992418289185,0.0519900768995285,0.04815853759646416,0.04079050198197365,-0.12590140104293823,0.19430597126483917,-0.032104313373565674,-0.08280755579471588,0.06119273975491524,-0.1641695499420166,0.014746250584721565,0.09371110796928406,0.1306953877210617,0.08129670470952988,-0.04984751343727112,0.00343173835426569,-0.05651049688458443,0.14316098392009735,0.03774525970220566,-0.046238210052251816,0.08319059759378433,-0.01393111702054739,0.12920954823493958,0.05098642036318779,-0.04141999036073685,-0.1258239895105362,0.0004240534035488963,0.08987849950790405,0.03923824802041054,-0.02460200898349285,0.11947302520275116,0.05591800808906555,-0.014006262645125389,0.08125384896993637,1.3123642206192017,0.37643399834632874,0.8666597604751587,-1.1153966188430786,-0.8429840803146362,-0.15899157524108887,0.5542628169059753,0.17261138558387756,0.9001526832580566,0.5822660326957703,-1.1183322668075562,0.787268340587616,-0.01870332472026348,-1.239258050918579,-0.08618956059217453,-0.11205094307661057,-0.33674684166908264,-0.37865862250328064,0.1287684589624405,-0.2567242980003357,0.15261797606945038,0.37211114168167114,-0.1905379593372345,-0.18241126835346222,-0.45897892117500305,0.0939890667796135,-0.0761820524930954,-0.0014491627225652337,0.12628215551376343,0.07443398237228394,0.18435190618038177,0.007797979284077883,0.09862945228815079,-0.31372857093811035,-0.01295746024698019,-0.1929818093776703,0.0004381509206723422,0.07268533110618591,0.16458185017108917,-0.05148119479417801,0.15495571494102478,-0.03303254768252373,-0.4221622943878174,0.23930522799491882,-0.18525302410125732,-0.09047512710094452,0.055416882038116455,0.29569971561431885,-0.14507253468036652,0.4542676508426666,-0.08273708075284958,-0.0026848388370126486,-0.1548326015472412,-0.32729434967041016,-0.2294657826423645,-0.01641472801566124,0.10256942361593246,-0.14323076605796814,-0.1509581059217453,-0.5496739745140076,0.04539141431450844,0.13749279081821442,-0.06431236863136292,0.14258745312690735,-0.11712943762540817,-0.009336445480585098,-0.07206346094608307,0.30076029896736145,0.1625555157661438,0.3468806743621826,0.2656787931919098,-0.028351837769150734,-0.15681591629981995,-0.11137222498655319,0.11088164150714874,-0.022742483764886856,0.3289240598678589,0.23273330926895142,0.11480609327554703,-0.17558753490447998,0.27782338857650757,-0.0418720506131649,-0.14083518087863922,-0.12906011939048767,-0.07140109688043594,-0.0399785116314888,0.06416890025138855,-0.31020358204841614,0.38849976658821106,0.2175304889678955,-0.0034177445340901613,0.07825176417827606,-0.34816160798072815,-0.33425214886665344,-0.12662529945373535,-0.1492806077003479,-0.13013502955436707,0.09933001548051834,0.014994067139923573,-0.0004984380793757737,-0.13715392351150513,0.30284568667411804,-0.0042264717631042,-0.010712487623095512,0.19752199947834015,0.1682272106409073,-0.4303078055381775,0.14212587475776672,-0.038100648671388626,-0.09639274328947067,-0.18451166152954102,0.1315382868051529,-0.24690735340118408,-0.11926142126321793,-0.07992574572563171,0.054781682789325714,-0.05026344954967499,0.012255161069333553,0.16205351054668427,0.21131783723831177,-0.11316192895174026,0.08773056417703629,0.0620158389210701,-0.029456187039613724,0.19606246054172516,-0.06368321925401688,-0.11988133937120438,0.0029229065403342247,-0.03663960099220276,0.06137540936470032,-0.22706915438175201,-0.11762890219688416,0.1488378942012787,-0.19201233983039856,-0.17906449735164642,0.27696534991264343,0.15070652961730957,-0.03358030319213867,-0.26091334223747253,0.015155982226133347,-0.18986628949642181,-0.1710387021303177,0.29917576909065247,0.11487303674221039,-0.43047499656677246,0.04525738209486008,-0.04611584171652794,0.10705927759408951,0.24825184047222137,0.2608010768890381,-0.08175886422395706,-0.19670140743255615,-0.1339089274406433,0.047177381813526154,0.13393178582191467,-0.32645151019096375,0.3521066904067993,0.35994040966033936,-0.155177041888237,0.12334395945072174,0.08192618936300278,0.36831173300743103,0.008362156338989735,-0.023494405671954155,-0.1995411515235901,0.03589080274105072,-0.09314631670713425,0.10539866983890533,0.02490372210741043,-0.2180713415145874,0.07439707219600677,-0.20939822494983673,0.008320622146129608,-0.25116387009620667,0.3734663128852844,0.13557159900665283,-0.2323814332485199,0.1402951329946518,-0.19484935700893402,-0.022825628519058228,-0.11219171434640884,0.010731262154877186,-0.03974146768450737,-0.12065911293029785,0.06084952503442764,-0.021054135635495186,0.06925906985998154,-0.034982744604349136,-0.09143863618373871,0.12231482565402985,0.057081013917922974,-0.07225373387336731,0.017030326649546623,0.07836607098579407,-0.20034481585025787,-0.010970392264425755,0.00879397988319397,-0.40299904346466064,0.1932031214237213,0.05809582769870758,-0.07005331665277481,0.07267122715711594,0.504421055316925,0.373163104057312,-0.203204944729805,0.26304712891578674,-0.23024484515190125,-0.18592512607574463,0.1303499937057495,0.04894348233938217,0.29662394523620605,0.22328494489192963,-0.2136567085981369,0.38639891147613525,-0.2905890643596649,0.006917973048985004,0.2739218771457672,0.22088006138801575,-0.44288620352745056,-0.2951582968235016,-0.06934777647256851,-0.08107428252696991,-0.09993819892406464,-0.10110707581043243,-0.15977907180786133,0.04465862363576889,0.12632521986961365,0.3749944865703583,0.14119118452072144,0.06871169805526733,-0.06017623469233513,-0.056667014956474304,-0.07522419840097427,0.34089264273643494,0.3121526539325714,-0.0981186032295227,-0.018369341269135475,-0.07371323555707932,-0.17957408726215363,0.04879458248615265,0.4785597026348114,-0.027617603540420532,0.12448042631149292,-0.05985509976744652,-0.24335740506649017,-0.018788781017065048,0.07297510653734207,0.13317406177520752,0.1561267226934433,0.03591083362698555,-0.45543310046195984,0.017899371683597565,0.036419887095689774,-0.08977818489074707,-0.0207908246666193,0.13325832784175873,-0.04603732377290726,0.0160177294164896,-0.3290692865848541,-0.18074984848499298,-0.02453826367855072,-0.16555018723011017,0.06901494413614273,-0.04512137547135353,-0.28764185309410095,-0.049127403646707535,-0.30838003754615784,0.10364093631505966,-0.008824136108160019,-0.22123123705387115,0.4195997714996338,0.054604288190603256,-0.1227063313126564,0.01451805979013443,0.02930903621017933,-0.05534577742218971,0.031759679317474365,0.016795706003904343,-0.00490083172917366,0.07356612384319305,-0.14228734374046326,0.0905899778008461,0.06860119849443436,0.029641546308994293,-0.007802565582096577,-0.09710641950368881,-0.02142385207116604,0.06355650722980499,0.16177891194820404,0.19362056255340576,0.08638113737106323,0.11011264473199844,0.10855026543140411,0.0505395233631134,0.03910323232412338,0.00742074241861701,-0.17476212978363037,-0.10984914749860764,-0.004673106595873833,-0.021536942571401596,-0.00962494220584631,-0.0011138938134536147,-0.1562708020210266,0.13567793369293213,-0.10720270127058029,0.09725970774888992,-0.08580562472343445,-0.036329109221696854,0.015540994703769684,-0.021587876603007317,0.0964730754494667,-0.04772312194108963,0.08284980058670044,-0.06916285306215286,-0.010898766107857227,0.2001185119152069,0.042461127042770386,0.2864118218421936,0.13665170967578888,0.06087970361113548,-0.09456781297922134,0.10217124968767166,-0.02123011089861393,-0.15625393390655518,0.18279995024204254,0.23540906608104706,0.09584470838308334,0.07503823935985565,0.013596818782389164,0.10581927746534348,0.07192038744688034,-0.12240804731845856,-0.09348519891500473,-0.22763478755950928,-0.09349945932626724,-0.08405611664056778,-0.0657605454325676,0.04923369735479355,-0.004765992984175682,0.2870450019836426,-0.05512084811925888,0.031711529940366745,-0.10963080823421478,0.08957885950803757,-0.07930203527212143,-0.1516854614019394,0.009167288430035114,-0.04927022010087967,0.19920186698436737,0.012861496768891811,0.07528359442949295,0.0614742785692215,-0.07093844562768936,-0.1931491643190384,-0.19302073121070862,0.09879781305789948,0.08880175650119781,0.02932772971689701,-0.09381110966205597,-0.2302110493183136,-0.07410754263401031,0.08988868445158005,0.06593774259090424,0.0980757549405098,0.18887315690517426,0.058151308447122574,0.05501039698719978,-0.04843906685709953,-0.012768054381012917,-0.1833702027797699,-0.13945458829402924,-0.02042589895427227,-0.1267266571521759,-0.1518588811159134,0.028547411784529686,-0.007729100529104471,-0.0070576053112745285,0.056595951318740845,0.1269475370645523,-0.10379292815923691,0.015183978714048862,-0.1122221052646637,-0.06865616887807846,-0.09266816079616547,-0.18135519325733185,0.2963315546512604,-0.08720315247774124,0.03323931619524956,0.07109709084033966,0.135489359498024,-0.03723166510462761,-0.018190795555710793,0.32039329409599304,-0.32261955738067627,0.22106130421161652,-0.2216486632823944,0.18590952455997467,-0.3158912658691406,0.05260640010237694,0.18983621895313263,-0.06999967247247696,-0.02126011997461319,-0.09552652388811111,-0.027865035459399223,-0.1348283737897873,0.106003038585186,0.11053011566400528,0.10856594890356064,-0.013892624527215958,0.12423469126224518,-0.3000408113002777,-0.11165840923786163,-0.023196499794721603,0.15193060040473938,-0.1522580087184906,0.29150626063346863,-0.05229039862751961,-0.041748326271772385,-0.184270977973938,0.04378736391663551,-0.053925104439258575,0.16338983178138733,0.06339868903160095,-0.16745103895664215,0.24428124725818634,0.14357057213783264,0.1522427499294281,-0.06326810270547867,0.15232466161251068,-0.12285074591636658,0.10340650379657745,-0.049056198447942734,-0.09862266480922699,-0.08059690147638321,0.045929793268442154,-0.10035211592912674,0.10873953998088837,-0.15770970284938812,0.1831294149160385,0.13313764333724976,0.14552588760852814,-0.16277334094047546,-0.05659268796443939,-0.09062273800373077,0.05249188840389252,0.1116514503955841,-0.001706606475636363,0.0004826062067877501,-0.02921607345342636,0.22544756531715393,0.07853738963603973,-0.08160712569952011,-0.050060078501701355,0.21237492561340332,0.18437612056732178,-0.2398504912853241,-0.1351182609796524,-0.08297640830278397,0.045797381550073624,-0.1362045407295227,0.16023917496204376,0.22276724874973297,-0.04677296802401543,0.08919383585453033,0.050710804760456085,0.1220138818025589,0.05804361402988434,0.07100934535264969,0.16778971254825592,0.09695110470056534,0.03445535898208618,-0.06254154443740845,0.18164940178394318,-0.019540414214134216,0.019484154880046844,-0.024782894179224968,0.05693623423576355,0.1741323173046112,-0.1491301953792572,0.07324723154306412,-0.11590536683797836,0.07264281064271927,0.1467054933309555,0.0280747190117836,0.14399012923240662,0.22935372591018677,0.018807508051395416,0.07092329114675522,0.4390629529953003,-0.0852985754609108,0.20148470997810364,-0.1687626838684082,0.06066093593835831,0.06723950058221817,0.04644427448511124,0.12082083523273468,-0.04352147504687309,-0.09524831920862198,0.10768426209688187,-0.04525122418999672,-0.202901691198349,0.04792214184999466,0.014413751661777496,0.3566587567329407,-0.013018197380006313,0.17726142704486847,0.2459840029478073,-0.11728107929229736,0.13313809037208557,0.31952333450317383,0.009569046087563038,0.03787574544548988,-0.08838850259780884,0.2923266291618347,-0.05060211941599846,-0.18836817145347595,-0.21889007091522217,0.09319059550762177,0.05218491703271866,0.08211083710193634,0.05528874322772026,-0.051341462880373,-0.13663366436958313,-0.07372882962226868,-0.07687340676784515,0.07962621748447418,0.024894941598176956,0.174568772315979,-0.06979204714298248,-0.05495510622859001,-0.09727637469768524,-0.09671894460916519,-0.025615142658352852,0.21169069409370422,0.09595202654600143,-0.009945200756192207,-0.07437972724437714,-0.05424943566322327,-0.12789401412010193,-0.049023352563381195,-0.09866748005151749,-0.03510570898652077,-0.07273408025503159,0.059445131570100784,-0.14156022667884827,-0.1789151132106781,0.030916335061192513,-0.05558478459715843,-0.023854002356529236,-0.08817893266677856,0.12847916781902313,0.13476455211639404,0.03126595541834831,-0.22037918865680695,-0.03529549017548561,0.13332350552082062,-0.132605642080307,-0.2772130072116852,-0.030435604974627495,-0.023090001195669174,0.10952203720808029,-0.3974248170852661,0.20816874504089355,0.2288735955953598,0.1620858758687973,-0.10178693383932114,-0.1822088658809662,-0.2239990383386612,-0.03591302037239075,0.0333583801984787,0.21384316682815552,0.21001119911670685,-0.18562711775302887,0.04028165712952614,0.1584339588880539,0.026042615994811058,0.10463088750839233,-0.050803933292627335,0.04210895672440529,-0.0766114816069603,-0.10734754055738449,-0.29581594467163086,-0.20312310755252838,-0.08927274495363235,0.07027893513441086,0.0829412192106247,-0.07297127693891525,0.17765456438064575,0.11703097820281982,0.13328242301940918,-0.09997362643480301,0.05619931221008301,0.11239951103925705,0.03649042174220085,0.10860716551542282,0.021969731897115707,0.01523143332451582,0.008230778388679028,0.00843899417668581,-0.07821933925151825,-0.20666511356830597,-0.06966733932495117,0.08060267567634583,0.11196468025445938,0.1756414920091629,-0.034391626715660095,0.001852929824963212,0.18613527715206146,-0.006173920352011919,0.011779415421187878,-0.11755489557981491,-0.13004712760448456,-0.34491342306137085,-0.07528290897607803,0.12412027269601822,-0.08097876608371735,0.15976770222187042,-0.036064617335796356,-0.10040021687746048,-0.17121155560016632,0.08292882144451141,0.2942568361759186,0.1489998996257782,-0.021826568990945816,-0.021477868780493736,-0.03390728309750557,0.3181439936161041,-0.12427332252264023,0.1623021811246872,0.16834671795368195,0.10045556724071503,-0.10844443738460541,0.07474185526371002,0.005302646663039923,-0.014648954384028912,0.21610605716705322,0.04512301832437515,0.04564608260989189,-0.0804823711514473,0.04370523989200592,-0.05656397342681885,-0.16934578120708466,-0.15941981971263885,0.0858510285615921,0.06864859908819199,-0.021341538056731224,-0.054414357990026474,-0.052984680980443954,-0.0012608118122443557,-0.11246974021196365,0.16918370127677917,0.0820966362953186,0.0931192934513092,-0.07605411857366562,-0.2655469477176666,-0.10846156626939774,0.23314929008483887,-0.16087545454502106,0.079210564494133,0.4393734335899353,0.1504291146993637,-0.04226378723978996,-0.051926590502262115,-0.09780162572860718,-0.07132880389690399,-0.003992654848843813,0.15566980838775635,-0.013558472506701946,-0.20313234627246857,-0.1331079602241516,-0.1674681305885315,0.05598396807909012,0.15554706752300262,0.10137864947319031,-0.14894314110279083,0.045326121151447296,0.034529950469732285,0.1492932140827179,-0.0550280325114727,-0.2807326316833496,-0.09835636615753174,-0.03281610459089279,0.09088553488254547,-0.2254110425710678,0.10356049239635468,-0.0790499672293663,0.12225831300020218,0.14558640122413635,-0.16149476170539856,0.08607492595911026,-0.1216999739408493,-0.07298503071069717,-0.07514577358961105,0.02179047465324402,-0.13183236122131348,-0.019064825028181076,0.22348439693450928,-0.11430702358484268,-0.04161844030022621,-0.020129553973674774,-0.1566087305545807,0.19894357025623322,-0.1815016120672226,-0.11984380334615707,0.16284118592739105,-0.13554668426513672,0.19851341843605042,0.10734781622886658,0.18189120292663574,0.09294266998767853,-0.11108909547328949,-0.04247083142399788,0.01225927285850048,0.15426547825336456,0.006906690541654825,0.05491471663117409,-0.225111722946167,-0.09293819218873978,0.02089693956077099,0.25040915608406067,-0.11734242737293243,-0.07436420768499374,-0.1274864822626114,0.147163987159729,0.14840538799762726,-0.22363720834255219,0.029369696974754333,0.33915719389915466,-0.038991887122392654,0.005930289160460234,-0.12059981375932693,-0.051185961812734604,-0.08231218159198761,-0.07686508446931839,0.025439515709877014,-0.0013818644220009446,0.21974293887615204,0.06751849502325058,0.04549092799425125,0.027898617088794708,-0.11224377900362015,0.15029387176036835,0.11230137944221497,-0.052513375878334045,-0.014457467012107372,0.10841317474842072,0.09295731037855148,-0.21383550763130188,0.24809178709983826,-0.07035291194915771,0.1617598533630371,0.12262671440839767,-0.2256077080965042,0.12183625996112823,-0.08125001192092896,-0.24997557699680328,-0.059941623359918594,0.06900376826524734,0.014893950894474983,-0.015026557259261608,-0.01404545083642006,0.015105786733329296,0.0023219857830554247,-0.04028419405221939,0.09533781558275223,0.021003171801567078,-0.09324593842029572,-0.09649937599897385,-0.017152294516563416,0.04061314836144447,-0.26383936405181885,0.15220023691654205,0.2064114809036255,0.6791081428527832,0.2372581660747528,0.04546814784407616,-0.12816376984119415,0.0006534098647534847,-0.018750082701444626,-0.39672333002090454,-0.15149636566638947,0.07045075297355652,0.5749914646148682,-0.08198098093271255,0.1134646013379097,0.13684049248695374,0.19415950775146484,-0.09500259160995483,-0.3078291416168213,-0.09220393002033234,-0.01659855619072914,0.2775202989578247,0.29249855875968933,-0.01713835634291172,-0.6455417275428772,-0.019633980467915535,0.3022814691066742,0.2746547758579254,0.21174411475658417,0.024266952648758888,-0.2477443814277649,-0.031013531610369682,-0.11415376514196396,-0.17978379130363464,-0.014008738100528717,0.277469277381897,-0.10026147961616516,0.014054243452847004,-0.17103217542171478,-0.43149712681770325,-0.021474158391356468,0.002812691731378436,0.06614314019680023,0.01824047788977623,-0.09430906921625137,0.027039868757128716,0.07452738285064697,-0.10289712250232697,0.04461955651640892,0.09919430315494537,-0.11783787608146667,-0.160896897315979,0.04848696291446686,0.24270854890346527,0.08824225515127182,-0.04525067284703255,-0.07197852432727814,0.09530384838581085,-0.1865435540676117,-0.027157947421073914,0.12698127329349518,-0.15747395157814026,-0.042885713279247284,-0.017568614333868027,0.07243122160434723,0.16657672822475433,-0.016932806000113487,0.0469302199780941,0.07941622287034988,0.04699495807290077,-0.16638295352458954,0.12518684566020966,0.0007833232521079481,