{"version":"0.5.4","metadata":{"date":{"year":2025,"month":12,"day":3,"hour":3,"minute":22,"second":50},"loudness":-12.964630126953125,"gain":0.6143866570477425,"name":"pk5 drive 14","modeled_by":"tone3000","gear_type":"amp","gear_make":"tz-make","gear_model":"tz-model","tone_type":"overdrive","input_level_dbu":null,"output_level_dbu":null,"training":{"settings":{"ignore_checks":false},"data":{"latency":{"manual":null,"calibration":{"algorithm_version":1,"delays":[-68],"safety_factor":1,"recommended":-69,"warnings":{"matches_lookahead":false,"disagreement_too_high":false}}},"checks":{"version":3,"passed":true}},"validation_esr":0.001770586395460061}},"architecture":"WaveNet","config":{"layers":[{"input_size":1,"condition_size":1,"head_size":8,"channels":16,"kernel_size":3,"dilations":[1,2,4,8,16,32,64,128,256,512],"activation":"Tanh","gated":false,"head_bias":false},{"input_size":16,"condition_size":1,"head_size":1,"channels":8,"kernel_size":3,"dilations":[1,2,4,8,16,32,64,128,256,512],"activation":"Tanh","gated":false,"head_bias":true}],"head":null,"head_scale":0.02},"weights":[0.004627150949090719,0.564227283000946,-0.7710734605789185,-0.776337742805481,-0.3138527274131775,0.30390623211860657,-0.0889178141951561,0.772591233253479,-0.06348857283592224,0.25507795810699463,-0.3683704435825348,-0.16785869002342224,-0.8914719223976135,-0.6997445821762085,-0.44401487708091736,-0.002088443376123905,0.2009848654270172,0.29315459728240967,0.045145727694034576,-0.006046345457434654,-0.06367983669042587,0.07580073177814484,-0.09043700993061066,0.21311867237091064,0.012201506644487381,-0.04634150117635727,0.2372494786977768,-0.09789218753576279,-0.15134136378765106,0.07023497670888901,-0.017677366733551025,0.18751473724842072,-0.19618654251098633,-0.0967729464173317,-0.12185196578502655,0.003728698706254363,0.005335364956408739,0.18542850017547607,-0.0410006158053875,0.03498389571905136,-0.051946815103292465,0.02409016154706478,0.06430090218782425,-0.06709650158882141,-0.20114082098007202,-0.10391399264335632,0.025275927037000656,0.1849696785211563,-0.03479718044400215,-0.03911502659320831,0.23292139172554016,0.21113654971122742,-0.003149881027638912,0.12703360617160797,0.1338563710451126,-0.14701509475708008,0.13288730382919312,-0.07637135684490204,-0.16341747343540192,0.029308343306183815,0.09803232550621033,0.08358234167098999,-0.013414500281214714,0.04889075085520744,0.03273111209273338,-0.027412893250584602,0.009685819037258625,-0.10652534663677216,0.10234034806489944,0.1997956782579422,0.029499301686882973,-0.06410954892635345,-0.003999732434749603,0.2592930793762207,0.11247462034225464,0.06441380083560944,0.16693086922168732,-0.1390003114938736,-0.048649683594703674,-0.22469393908977509,-0.11951887607574463,0.19204548001289368,0.2307039350271225,-0.1678583174943924,-0.029227305203676224,-0.16487978398799896,-0.01161270309239626,-0.003965404350310564,0.1785084456205368,-0.10057389736175537,-0.0016055383021011949,-0.06852715462446213,0.11168854683637619,0.10902296751737595,-0.007290690205991268,-0.10980990529060364,0.004419216886162758,0.17068716883659363,-0.12476246803998947,-0.13829931616783142,0.2766072452068329,0.08503681421279907,-0.12386797368526459,0.10372242331504822,-0.15023624897003174,-0.06545143574476242,0.027956349775195122,-0.12619535624980927,-0.07329978793859482,-0.04471854493021965,-0.12242958694696426,0.045245956629514694,-0.10009998083114624,0.08764069527387619,0.0473795123398304,-0.09218786656856537,0.01443028636276722,-0.14674310386180878,-0.006162413861602545,-0.014800368808209896,0.20875680446624756,-0.01882803998887539,-0.11924640089273453,0.22282691299915314,-0.16123059391975403,-0.12882684171199799,0.12221729755401611,-0.04750552773475647,-0.00278539233841002,-0.2698569893836975,-0.03285149484872818,-0.009583092294633389,0.05106529965996742,0.01996629685163498,0.15263104438781738,-0.1678186058998108,0.0037172758020460606,-0.03732044994831085,0.1894119679927826,0.11277692764997482,0.18089301884174347,-0.061370886862277985,0.11740022152662277,-0.05303070694208145,0.0314626507461071,-0.10217123478651047,0.041058674454689026,0.1376328319311142,-0.09990666061639786,-0.1599467396736145,0.017087368294596672,-0.14865164458751678,-0.07747163623571396,0.23461490869522095,0.05574258044362068,-0.18389922380447388,0.2482876181602478,-0.015155171044170856,0.0077151404693722725,-0.05358022078871727,-0.06046682968735695,-0.03238338977098465,-0.08761805295944214,-0.08948024362325668,-0.017998185008764267,0.04025501757860184,-0.09472943842411041,0.051594436168670654,-0.16795331239700317,-0.0407770611345768,0.12349667400121689,-0.09799960255622864,0.09505195915699005,0.045641228556632996,-0.17268133163452148,0.11797705292701721,-0.015106449835002422,-0.02746834233403206,0.03760788217186928,-0.1627286821603775,-0.07400070130825043,-0.00000847729552333476,0.10654588788747787,0.07919500768184662,0.031929995864629745,0.04045688733458519,-0.0828903391957283,0.00700440164655447,-0.10815636813640594,0.12389873713254929,0.08106397837400436,0.09090663492679596,-0.1458258330821991,-0.03802041709423065,-0.11124490946531296,-0.11958379298448563,-0.114430733025074,0.04655373468995094,-0.12413069605827332,-0.034145839512348175,0.002399138640612364,0.05360189452767372,-0.14105716347694397,-0.10462426394224167,-0.12497754395008087,0.06835296005010605,-0.06462936848402023,0.14324162900447845,-0.09838416427373886,-0.16537292301654816,-0.14704659581184387,0.08229152113199234,0.048690326511859894,-0.1423158347606659,-0.10498765110969543,-0.00797300785779953,-0.0030526379123330116,-0.180864617228508,0.09012044221162796,-0.005511182360351086,-0.11105063557624817,0.12128546833992004,0.16704051196575165,0.10530823469161987,-0.09892164915800095,-0.03627881035208702,-0.1670091152191162,-0.03440035879611969,0.06426463276147842,0.08334788680076599,0.028299536556005478,0.008894541300833225,-0.0659901574254036,0.11872265487909317,0.19633729755878448,0.011815755628049374,0.09066207706928253,-0.20764823257923126,-0.1572428196668625,0.023477081209421158,0.16640126705169678,-0.011059977114200592,-0.08659429848194122,0.09199213236570358,-0.031627703458070755,-0.1665804088115692,0.21381793916225433,-0.22353149950504303,-0.023415422067046165,0.08829593658447266,-0.17576177418231964,-0.003124559996649623,0.2344188392162323,-0.027453742921352386,-0.07677406817674637,-0.07161411643028259,-0.1445198357105255,0.08616501837968826,-0.10473688691854477,-0.04947202280163765,-0.19230401515960693,0.042749278247356415,0.025273486971855164,0.21510323882102966,0.08796747773885727,-0.09693819284439087,0.06728599220514297,0.08154204487800598,0.07006245851516724,0.1439090371131897,-0.02878180332481861,-0.022912390530109406,-0.24838629364967346,-0.00766590004786849,-0.046611931174993515,0.05308398976922035,0.2569548487663269,-0.04332542419433594,-0.12215213477611542,0.004858686123043299,-0.021966993808746338,0.021120641380548477,-0.054632242769002914,0.15638458728790283,-0.08859549462795258,0.07590203732252121,-0.09697528928518295,0.1522277146577835,0.005526585504412651,-0.037841297686100006,0.03185659646987915,0.10248477756977081,-0.004589195363223553,0.10167428106069565,0.0038475291803479195,-0.1390015333890915,0.20643937587738037,-0.06977175921201706,0.009434206411242485,0.05889575555920601,-0.032498497515916824,0.017439041286706924,-0.05650251358747482,0.0007578410441055894,0.07706119865179062,-0.12163189798593521,0.07667814940214157,-0.029465477913618088,0.12538155913352966,-0.15552324056625366,-0.02568833902478218,-0.08882991969585419,0.18485525250434875,0.04150332883000374,-0.01081131212413311,0.23367668688297272,0.01539691723883152,-0.062235619872808456,0.19568806886672974,-0.09067749977111816,0.07327621430158615,-0.12042421847581863,-0.06299502402544022,-0.0727125033736229,0.19708268344402313,0.035872504115104675,0.1505444496870041,-0.1174616888165474,0.17581960558891296,-0.09572327136993408,0.03708621487021446,-0.2266892045736313,0.1976887434720993,-0.05259489640593529,-0.002066296059638262,-0.008173976093530655,0.24686725437641144,0.21546050906181335,0.048327963799238205,0.23447240889072418,0.05976535752415657,-0.11625475436449051,0.25477322936058044,0.17525047063827515,-0.15261763334274292,0.2672894299030304,0.1662134826183319,0.013714923523366451,0.047076765447854996,0.09371596574783325,-0.08260615915060043,0.15899258852005005,-0.016306696459650993,0.06316300481557846,-0.018014617264270782,0.17536282539367676,-0.016890792176127434,0.0440853051841259,-0.21606440842151642,-0.0023363952059298754,-0.0738534927368164,-0.25791946053504944,-0.15029215812683105,0.13930779695510864,-0.03162608668208122,0.10625763982534409,0.14599457383155823,-0.014026893302798271,-0.0626458153128624,-0.04416182264685631,-0.17351561784744263,0.08790295571088791,-0.07366077601909637,0.04517941176891327,-0.10453464835882187,-0.10612802952528,0.027027562260627747,0.10005559027194977,0.1359287053346634,0.2228022664785385,0.1605284959077835,-0.06071951240301132,-0.04595756158232689,0.1001354306936264,0.07942458987236023,0.03705815225839615,0.04648482799530029,0.1125769093632698,-0.16655893623828888,0.034101128578186035,0.04003900662064552,-0.1498173475265503,-0.11539977043867111,-0.05498870089650154,-0.22300271689891815,0.06589773297309875,0.1312180906534195,0.06247470900416374,0.00002039847822743468,0.10950249433517456,0.0611090213060379,-0.06021185964345932,-0.14540357887744904,0.19352757930755615,0.15136563777923584,-0.2081366628408432,0.08120846748352051,0.01806114800274372,0.0440380834043026,0.02346755936741829,-0.17319096624851227,0.0766351968050003,0.06885619461536407,-0.07963813841342926,0.0010175894713029265,-0.0022837284486740828,0.0455978587269783,-0.12870429456233978,-0.003797427285462618,0.06552964448928833,0.1063799038529396,-0.03244663029909134,0.09873298555612564,-0.028806094080209732,0.053646523505449295,-0.1868787258863449,0.08832740038633347,-0.06112251803278923,0.020573779940605164,-0.049659423530101776,-0.15308137238025665,-0.03288933262228966,0.2266407608985901,-0.053399138152599335,-0.19077055156230927,0.03708511218428612,-0.027084682136774063,-0.20207062363624573,0.16828961670398712,-0.18819297850131989,-0.22957926988601685,-0.04033757373690605,-0.0800056904554367,0.01124819740653038,-0.03252484276890755,0.22582578659057617,-0.014271195977926254,0.0546368807554245,-0.09043435752391815,0.047164760529994965,0.04801507666707039,0.19941982626914978,-0.125018909573555,0.10437428951263428,-0.2177988439798355,0.3694751262664795,-0.030148522928357124,-0.053405724465847015,0.13893480598926544,-0.07754822075366974,-0.26163771748542786,0.19254519045352936,-0.00432750815525651,0.0054105836898088455,-0.21041087806224823,0.11247041076421738,0.07329366356134415,0.2528960406780243,0.013255142606794834,0.07776602357625961,-0.18634577095508575,0.18058519065380096,-0.0056761628948152065,0.22526361048221588,0.040259093046188354,-0.031247977167367935,-0.3725668787956238,0.09755557030439377,-0.2062840312719345,0.31976959109306335,-0.14150916039943695,-0.15886417031288147,0.17660950124263763,0.07804427295923233,-0.13674721121788025,0.362644761800766,0.05166037753224373,-0.04353717342019081,0.2571996748447418,-0.08256658166646957,-0.15586048364639282,0.26951807737350464,0.03192878141999245,-0.1806178092956543,0.31604260206222534,-0.06096285209059715,-0.05949863791465759,0.01388473343104124,0.12102938443422318,0.1525968313217163,-0.23756003379821777,0.19911259412765503,0.03891962394118309,0.18209290504455566,0.025956518948078156,-0.10885022580623627,0.14382971823215485,-0.0381334163248539,-0.06987784057855606,0.14615927636623383,-0.13637365400791168,0.13425973057746887,-0.13065405189990997,0.04636725038290024,0.042250026017427444,0.17719896137714386,-0.10650593042373657,0.04548797011375427,-0.014149228110909462,0.0820593610405922,-0.0003558985481504351,0.037176813930273056,-0.04807887598872185,-0.07072238624095917,-0.18074624240398407,0.019839797168970108,0.098242849111557,0.06035959720611572,-0.09523801505565643,-0.07322514057159424,0.25794610381126404,0.05639952793717384,-0.13948555290699005,-0.019367119297385216,-0.2057361602783203,-0.03292117267847061,0.0607689768075943,-0.19242066144943237,-0.08751489967107773,0.12375293672084808,-0.1733558475971222,0.10422016680240631,0.09591180086135864,-0.040725886821746826,0.055150147527456284,0.18977385759353638,-0.06398771703243256,0.0015456503024324775,-0.1707446277141571,0.2642594873905182,-0.1374058872461319,-0.02549702860414982,0.01808997429907322,-0.09102025628089905,0.14140059053897858,-0.13835403323173523,-0.03175133466720581,0.07650977373123169,-0.035718291997909546,0.012229427695274353,-0.2522423267364502,0.040049247443675995,-0.052473749965429306,0.18149657547473907,-0.20675721764564514,0.13691474497318268,-0.14554248750209808,0.09929719567298889,0.09725821763277054,0.1589435636997223,-0.010808967053890228,0.08864513039588928,-0.15140029788017273,0.02995510771870613,-0.018743405118584633,0.22798295319080353,-0.18059192597866058,-0.11075757443904877,0.19396580755710602,0.043967872858047485,-0.04057233780622482,-0.006314204540103674,-0.25502246618270874,0.03518496826291084,0.10179153829813004,-0.20012687146663666,0.0239053163677454,0.16471807658672333,-0.014916040934622288,0.027344606816768646,-0.05476370453834534,-0.20585791766643524,-0.0020126793533563614,0.1934899389743805,0.05836303159594536,-0.0014581012073904276,-0.1913350373506546,0.2207912802696228,0.1955961287021637,0.19598917663097382,-0.20570175349712372,0.0058345128782093525,-0.033551886677742004,0.050977885723114014,-0.00717822415754199,-0.00649338448420167,-0.0147146787494421,-0.12274253368377686,-0.1355760246515274,0.07000195980072021,-0.03325141221284866,-0.11216454207897186,-0.01105528138577938,-0.1234135776758194,-0.0153340520337224,0.20899735391139984,0.10520680993795395,0.060830749571323395,0.025287451222538948,-0.03946319594979286,-0.13366858661174774,0.21548984944820404,0.08992480486631393,-0.07781393826007843,-0.12859633564949036,-0.03360970318317413,0.19616322219371796,-0.09927336871623993,-0.07126007974147797,0.05714443698525429,0.00698904087767005,0.09719908982515335,0.11084216088056564,-0.07292433083057404,0.10900205373764038,0.02625286765396595,-0.14576086401939392,-0.19958992302417755,-0.20571903884410858,-0.10991282016038895,-0.0876392126083374,0.03292485326528549,0.10109084099531174,-0.04907285049557686,-0.09935159981250763,0.22572380304336548,-0.023240981623530388,0.12725478410720825,-0.19978176057338715,0.02585279569029808,0.08618716895580292,-0.14591588079929352,0.17575883865356445,-0.09757336974143982,-0.2137742042541504,-0.12167613953351974,0.017314406111836433,0.21786104142665863,-0.04691924899816513,0.03624166548252106,-0.13422070443630219,-0.09203401207923889,0.0977870374917984,-0.026215991005301476,0.04611702635884285,0.12034324556589127,-0.11984597891569138,0.05833110585808754,-0.047406889498233795,0.20379500091075897,-0.08485811948776245,-0.018647722899913788,-0.11817969381809235,0.09661145508289337,0.055468495935201645,0.023017043247818947,0.04015350714325905,0.0032489318400621414,0.01432584598660469,0.021473605185747147,0.13405023515224457,-0.1834794133901596,0.04012468457221985,-0.004679494071751833,-0.02679518610239029,0.010435275733470917,-0.09061124175786972,-0.12385767698287964,-0.08008649945259094,-0.0204531941562891,-0.01893153041601181,0.10690280795097351,0.0483863428235054,-0.005478677339851856,-0.17663873732089996,-0.09082163125276566,0.23904266953468323,-0.2988872528076172,0.07767453789710999,0.16164302825927734,-0.25250253081321716,0.10074559599161148,0.017582038417458534,0.21730366349220276,-0.1373305469751358,-0.1498667448759079,-0.12869863212108612,0.18909166753292084,0.07197459042072296,0.282798707485199,-0.062476661056280136,-0.20708774030208588,-0.28148797154426575,-0.06859938055276871,0.28520452976226807,0.1470954865217209,-0.04034927487373352,-0.09770562499761581,-0.08485196530818939,0.17465412616729736,0.2629126012325287,-0.2983696460723877,0.022571416571736336,0.04909200966358185,-0.27441638708114624,0.07780376076698303,0.273586243391037,-0.30682098865509033,0.13257914781570435,0.06675972044467926,-0.21290625631809235,0.1644420176744461,0.1113559901714325,-0.059913888573646545,-0.07216256111860275,0.07269079983234406,0.0952000692486763,0.037776585668325424,0.16617833077907562,-0.18251632153987885,-0.2540467083454132,0.10628686100244522,0.1887747049331665,0.09344863891601562,-0.033174268901348114,0.19939468801021576,0.2308814376592636,-0.1776854693889618,0.054258089512586594,0.08304198831319809,-0.22258436679840088,-0.07250677794218063,-0.026364201679825783,0.22062815725803375,0.06384173780679703,0.1555839627981186,-0.15535975992679596,0.03414592891931534,-0.19516821205615997,0.0009014190873131156,0.07312855124473572,0.1966349184513092,-0.23924586176872253,0.059543777257204056,-0.07978451251983643,-0.0016318937996402383,0.034860316663980484,0.25262176990509033,-0.22099001705646515,0.04484517127275467,0.1969456523656845,-0.20413772761821747,0.15497218072414398,0.21023255586624146,-0.0108302878215909,-0.0176924429833889,0.2779044508934021,-0.18886150419712067,0.2138812094926834,-0.007997596636414528,-0.2348388284444809,0.0664190798997879,0.05981457233428955,0.06350862234830856,-0.04479832947254181,-0.09837355464696884,-0.08232129365205765,-0.12197666615247726,0.04219256713986397,0.055685319006443024,-0.0151968440040946,-0.011916463263332844,0.09577498584985733,0.10389949381351471,-0.08673384040594101,-0.020070305094122887,-0.11543890833854675,-0.036152586340904236,0.007684381678700447,-0.0643383264541626,0.40692418813705444,-0.3677807152271271,0.6482552289962769,-0.6661481857299805,-0.10343506187200546,0.8632242679595947,0.858087956905365,-0.5993258357048035,0.08471900224685669,0.15590640902519226,-0.37089112401008606,-0.22309234738349915,0.35242515802383423,-0.6147552132606506,0.03062981367111206,0.5291972756385803,-0.03876747190952301,0.192737877368927,-0.03816704452037811,0.05681991949677467,0.25330767035484314,-0.0580708347260952,-0.015585553832352161,-0.08936497569084167,-0.042674608528614044,-0.053435247391462326,0.03255242481827736,0.04754820093512535,0.1040678322315216,0.0470627099275589,0.2844502031803131,-0.2569871246814728,0.25440940260887146,-0.13474953174591064,-0.23497112095355988,0.13617418706417084,0.016453564167022705,0.06361555308103561,-0.19662241637706757,0.13163135945796967,-0.1300533562898636,0.557923436164856,0.16056427359580994,0.17621047794818878,0.07730348408222198,-0.035126280039548874,0.14694437384605408,0.4249586760997772,-0.0411551408469677,0.06391932815313339,0.08301305770874023,0.11343644559383392,-0.08302008360624313,-0.07557845860719681,0.09039280563592911,-0.13503336906433105,0.04744839295744896,-0.1416683942079544,0.25347721576690674,-0.3027927279472351,0.12909990549087524,0.16578184068202972,0.06255171447992325,-0.03863663226366043,0.13218586146831512,-0.1007828563451767,-0.04291008785367012,-0.23857136070728302,-0.09034356474876404,0.1956186592578888,-0.02744905836880207,-0.0075520421378314495,-0.1885053515434265,0.22355768084526062,0.07765315473079681,0.05946732684969902,0.12458585202693939,0.16660790145397186,-0.2490571141242981,0.07952967286109924,-0.10436732321977615,-0.29957881569862366,-0.13957536220550537,0.08412840962409973,0.19320064783096313,0.22089485824108124,-0.04172993823885918,-0.10648372024297714,0.14608263969421387,0.2824637293815613,-0.10422282665967941,0.12930597364902496,0.01538491528481245,0.017434628680348396,-0.09003941714763641,0.09642810374498367,-0.11580165475606918,-0.023909060284495354,0.03154844790697098,0.025363864377141,0.1884107142686844,0.26443010568618774,0.11053440719842911,0.08663319051265717,0.1315564215183258,0.06697054207324982,-0.13759106397628784,-0.00920342281460762,0.022726139053702354,-0.08636277914047241,0.05742291361093521,0.13972757756710052,-0.21974176168441772,0.22665369510650635,0.23666898906230927,0.13839471340179443,-0.3417140245437622,-0.3997785747051239,0.2464487999677658,-0.16801834106445312,0.07970510423183441,-0.5049515962600708,-0.19342416524887085,0.0108939278870821,0.13907848298549652,-0.1422308087348938,-0.3193722665309906,-0.13441111147403717,0.11509019881486893,0.1339649111032486,0.2211776077747345,-0.11628635972738266,-0.27071091532707214,-0.021530112251639366,0.10765696316957474,0.00172483641654253,0.05622971057891846,-0.3873312175273895,0.13331079483032227,-0.2081194519996643,0.13878363370895386,-0.04762272164225578,-0.20883238315582275,0.07694151252508163,0.1829281449317932,-0.029617512598633766,-0.24497133493423462,-0.20485112071037292,0.09062714129686356,0.09790937602519989,-0.14897921681404114,-0.031134020537137985,-0.24822156131267548,0.033587709069252014,0.27304741740226746,0.29373297095298767,0.10149834305047989,-0.1406862884759903,0.1084781214594841,0.15363454818725586,-0.25739866495132446,0.02907293662428856,0.21536153554916382,-0.2702520787715912,-0.3351593315601349,0.0430506132543087,0.021004118025302887,-0.2275911271572113,0.058116115629673004,0.065251924097538,0.05147547274827957,-0.043551377952098846,0.29370346665382385,0.122752346098423,-0.4182397425174713,0.26926082372665405,0.08732794225215912,0.2647131383419037,-0.26459529995918274,0.09466154128313065,-0.134200319647789,-0.19339430332183838,0.022608939558267593,-0.11588527262210846,0.0010659204563125968,-0.06667177379131317,-0.03601274639368057,-0.015693185850977898,-0.08958536386489868,0.14455944299697876,-0.012545691803097725,0.29715219140052795,-0.18497885763645172,-0.04017077758908272,0.18883393704891205,-0.0586562417447567,0.08121763169765472,-0.16874442994594574,-0.06613689661026001,-0.04043085500597954,0.0466291718184948,-0.358342707157135,-0.054746758192777634,-0.15484435856342316,-0.07967720925807953,0.10622937232255936,-0.2440457046031952,-0.3910534977912903,0.06885620206594467,-0.11949225515127182,0.24249115586280823,0.01232209987938404,0.30466896295547485,0.013778643682599068,-0.17649585008621216,0.24698442220687866,0.2618674039840698,0.04175260290503502,0.10870563238859177,0.1980654001235962,0.2555446922779083,-0.2693890631198883,0.22040292620658875,-0.1042703315615654,-0.008232558146119118,-0.2164999097585678,-0.12343736737966537,0.07447421550750732,-0.11918345093727112,0.19158731400966644,0.04597480595111847,0.02473735436797142,-0.01194490771740675,-0.03000613860785961,0.02761959657073021,0.03138842433691025,-0.17514552175998688,-0.09741485118865967,-0.2639939785003662,0.28181999921798706,-0.11129818856716156,0.28322428464889526,-0.10183300822973251,-0.13078629970550537,-0.025985470041632652,0.05494232475757599,0.11042298376560211,-0.007967224344611168,-0.26746925711631775,0.22845454514026642,-0.1443617343902588,-0.11934655159711838,0.14370007812976837,0.1809200793504715,-0.3615780174732208,0.20495715737342834,0.17726264894008636,0.013406346552073956,0.19329534471035004,-0.09171696752309799,-0.11385378986597061,0.20433619618415833,-0.08406431972980499,0.24758875370025635,-0.04455499351024628,-0.18162311613559723,0.023520948365330696,-0.14790815114974976,0.02731039747595787,0.16086527705192566,0.17004747688770294,-0.15394990146160126,0.11696004122495651,-0.11666412651538849,0.19127820432186127,-0.10514091700315475,-0.13692952692508698,0.0024228848051279783,0.10818272083997726,-0.05028337985277176,0.06881621479988098,-0.14775894582271576,0.12380708754062653,-0.027999883517622948,0.04227082431316376,0.16574645042419434,0.1326989233493805,0.010191583074629307,0.2279774248600006,0.17747393250465393,-0.2279828041791916,-0.2048676609992981,-0.36326444149017334,0.0683254525065422,0.1606537252664566,0.2408413290977478,0.2427089661359787,-0.21804408729076385,-0.056089602410793304,-0.020429808646440506,-0.19186365604400635,-0.19099746644496918,0.003946349490433931,0.07443150877952576,-0.1820947378873825,-0.013933290727436543,-0.003281031269580126,-0.05200088396668434,0.4840201437473297,-0.27020782232284546,-0.4686022400856018,-0.23014067113399506,0.03749273717403412,0.14347593486309052,0.23910869657993317,-0.4100891351699829,-0.2569185495376587,-0.07629590481519699,0.017809471115469933,0.16348755359649658,0.27464157342910767,-0.05885034054517746,-0.0436396449804306,-0.8452227115631104,0.3842897117137909,0.6569700241088867,-0.21400219202041626,0.0937962755560875,0.27615514397621155,0.21381963789463043,0.01860281266272068,0.2665947377681732,0.4405326843261719,0.004788124468177557,-0.23407600820064545,-0.5499032735824585,0.003090415382757783,0.04048428311944008,0.10240372270345688,-0.31742164492607117,-0.09772811084985733,0.004920746199786663,0.012556659057736397,0.00727098248898983,0.10107260942459106,-0.10802481323480606,0.05897063389420509,-0.0803777277469635,0.0601346381008625,-0.14035947620868683,0.09717396646738052,-0.17759795486927032,-0.1598745882511139,-0.057342927902936935,0.2936980724334717,-0.07028163969516754,0.010408047586679459,0.07319194078445435,-0.12282292544841766,0.005144412629306316,-0.1356033831834793,0.05718480795621872,-0.17200490832328796,0.13127723336219788,0.05390304699540138,-0.09121231734752655,0.09202171862125397,0.05862857401371002,0.019528208300471306,0.1452237218618393,0.2695981562137604,0.059084806591272354,0.1259225308895111,0.2353009730577469,0.10588423907756805,0.046170223504304886,0.054077908396720886,0.002268356503918767,-0.014513540081679821,-0.042739447206258774,-0.0003290785534773022,-0.061904411762952805,0.09524310380220413,-0.1513647884130478,-0.14042702317237854,-0.2530710697174072,0.08681776374578476,0.09838986396789551,0.17287001013755798,-0.18389354646205902,0.09151384979486465,0.06230071187019348,0.11413521319627762,0.1559814214706421,-0.001874010544270277,-0.0930866077542305,0.1630418747663498,0.01313567440956831,0.10534129291772842,-0.06790034472942352,0.15938693284988403,0.17057551443576813,0.16228368878364563,-0.09833765029907227,-0.07362227886915207,-0.11009923368692398,0.07013898342847824,0.058744870126247406,0.09152533859014511,-0.045721385627985,-0.10660392045974731,-0.03701816499233246,0.1764683872461319,-0.20659205317497253,-0.011280693113803864,-0.14900624752044678,0.07029785960912704,0.19200170040130615,-0.2300407439470291,0.34811538457870483,0.16119040548801422,-0.0967138260602951,0.16339078545570374,0.09494829922914505,0.037401970475912094,0.10855992138385773,0.02082212269306183,0.13364635407924652,0.042927853763103485,-0.17779287695884705,0.03995954990386963,0.1582547426223755,-0.08529990166425705,-0.06316579133272171,0.04671446606516838,-0.09964644908905029,0.13933934271335602,0.12249279767274857,0.07228091359138489,-0.17606866359710693,-0.1842544823884964,0.10095073282718658,0.1002717837691307,-0.12155536562204361,-0.02771134488284588,-0.04200884327292442,-0.08053235709667206,-0.06976495683193207,0.11689601838588715,0.06612824648618698,0.09526795148849487,-0.048456691205501556,0.14359626173973083,-0.15354646742343903,-0.0032340337056666613,0.10247524827718735,0.0844128355383873,-0.14773067831993103,0.13253167271614075,0.1514994502067566,-0.19369450211524963,0.0591529943048954,0.13538490235805511,-0.10035446286201477,-0.017861351370811462,0.15827615559101105,-0.346788227558136,0.29128727316856384,0.08424661308526993,0.0803351029753685,-0.16607211530208588,0.1003473773598671,-0.14265216886997223,-0.1256226897239685,-0.031210165470838547,-0.06770221889019012,0.07990603148937225,0.024111077189445496,0.1547268182039261,0.08842696994543076,-0.060822129249572754,-0.09153364598751068,-0.03644664213061333,0.06642737239599228,0.32363590598106384,-0.08027002960443497,-0.10741376131772995,0.08655792474746704,0.03475690260529518,-0.13421280682086945,0.136483833193779,0.12579131126403809,-0.05468398332595825,0.049638472497463226,-0.0878867581486702,-0.09751706570386887,0.016286266967654228,-0.12334762513637543,0.05781695246696472,-0.3339630663394928,0.14317059516906738,0.012891821563243866,0.018558213487267494,0.12472733855247498,0.038307372480630875,0.11579546332359314,0.03085833601653576,-0.17821674048900604,-0.1307840794324875,0.056932490319013596,0.0924704521894455,0.001548277330584824,0.07875030487775803,-0.06508637964725494,-0.45380890369415283,0.2567073404788971,-0.14889241755008698,-0.2691996693611145,-0.005559022072702646,-0.017027966678142548,0.023964254185557365,0.08114545047283173,-0.07577670365571976,-0.05622725561261177,-0.058519694954156876,0.21698825061321259,-0.00481100007891655,-0.09557250142097473,-0.13963152468204498,-0.050983820110559464,0.04062585160136223,-0.04915047064423561,0.10142336040735245,-0.009626681916415691,-0.03253551945090294,-0.08280767500400543,-0.006158021744340658,0.015499475412070751,0.027028245851397514,-0.014862039126455784,0.00553033035248518,0.04838338866829872,-0.015738479793071747,0.10019692033529282,0.04379458352923393,0.10824084281921387,-0.009456479921936989,-0.19287562370300293,0.05837385356426239,0.11594328284263611,0.028949234634637833,0.23710066080093384,0.24757742881774902,0.18122924864292145,-0.1367812305688858,0.18268613517284393,-0.05883089080452919,-0.038965336978435516,0.12495157122612,-0.04917271062731743,-0.06785005331039429,0.04410292208194733,0.08753121644258499,0.4227887690067291,0.06839343160390854,0.1405716985464096,0.10367710888385773,-0.012055746279656887,-0.14336442947387695,0.053215645253658295,0.0061322408728301525,0.05635949969291687,-0.26158657670021057,-0.107916459441185,0.028179075568914413,0.027453040704131126,0.01549745723605156,0.01626604236662388,-0.08000126481056213,0.10371040552854538,0.18423353135585785,-0.04539136216044426,-0.0034128190018236637,-0.03196912258863449,0.12869861721992493,0.16622626781463623,0.04693217948079109,-0.015005746856331825,-0.0305972620844841,0.12329808622598648,0.031061919406056404,0.15447597205638885,0.09509986639022827,0.17572128772735596,0.011908135376870632,-0.07232092320919037,0.1858053356409073,-0.10827891528606415,0.11243143677711487,0.03856099769473076,-0.02272183448076248,-0.05719627067446709,-0.15636806190013885,-0.014079507440328598,0.031240371987223625,0.08426341414451599,0.0722309947013855,-0.05261756852269173,0.06049305945634842,-0.37354910373687744,-0.09654705226421356,0.08861479163169861,0.18549790978431702,0.14523465931415558,0.0808657631278038,-0.012749746441841125,0.070807084441185,-0.1636771708726883,-0.15746214985847473,0.007717403117567301,-0.05497965216636658,-0.04719556123018265,0.011067372746765614,-0.059966132044792175,-0.10681238770484924,0.0007639115792699158,-0.049184225499629974,0.17474916577339172,0.046669743955135345,-0.02709597907960415,-0.19276738166809082,-0.05009731277823448,0.10479111224412918,-0.09765713661909103,-0.057864535599946976,-0.01979745738208294,-0.042368389666080475,-0.09833601117134094,-0.11445746570825577,0.2034468650817871,-0.04985028877854347,-0.06110505014657974,-0.07629499584436417,-0.29464420676231384,0.13464617729187012,0.050792742520570755,-0.08207311481237411,-0.017623979598283768,-0.03359043225646019,-0.15803541243076324,0.18936093151569366,0.11677883565425873,0.0703585222363472,0.08876416087150574,0.04469185322523117,-0.1576499342918396,0.035485681146383286,-0.009873616509139538,-0.28512099385261536,0.011343090794980526,-0.16623929142951965,-0.03831137716770172,-0.23414002358913422,-0.20772485435009003,-0.052097368985414505,-0.11642280220985413,0.027979306876659393,0.045757267624139786,0.18824367225170135,-0.02567891590297222,0.07172170281410217,-0.04791444540023804,0.09089469164609909,0.23146431148052216,-0.04482711851596832,-0.24725449085235596,-0.22942882776260376,-0.0721675306558609,0.19190527498722076,0.1320551335811615,0.15217086672782898,0.16436773538589478,0.041873641312122345,-0.08150730282068253,0.1243617907166481,0.08639296889305115,0.027205144986510277,-0.17495007812976837,0.0002000246022362262,-0.014735238626599312,0.0519588403403759,-0.0629347711801529,-0.08360179513692856,-0.1491726040840149,-0.20733439922332764,0.08547091484069824,0.04025177285075188,-0.09912940859794617,0.13765358924865723,0.014318443834781647,-0.04370938614010811,-0.1543000340461731,0.11723349243402481,0.021893959492444992,-0.04603516310453415,-0.1132374033331871,0.049984343349933624,0.10669783502817154,0.1186581626534462,0.3403371572494507,0.15574578940868378,0.02790720760822296,-0.05588163435459137,-0.13220807909965515,0.006014556158334017,-0.1179201751947403,-0.023440217599272728,-0.0022571205627173185,-0.006244572810828686,-0.06958139687776566,0.13584265112876892,0.2231285125017166,-0.10117287933826447,-0.19875746965408325,-0.07466085255146027,0.09108248353004456,-0.15886034071445465,0.056941140443086624,-0.03937920182943344,-0.028026171028614044,0.17695735394954681,0.017369110137224197,0.08832613378763199,-0.030850308015942574,-0.01743968389928341,-0.08993733674287796,-0.18232545256614685,-0.005007223691791296,-0.003013862296938896,-0.1070333868265152,0.2324076145887375,-0.10689423978328705,-0.16991013288497925,0.156528040766716,-0.06325722485780716,0.16216957569122314,-0.011728927493095398,-0.1393735557794571,-0.19772568345069885,0.14888690412044525,-0.11887001246213913,0.111786849796772,0.16633008420467377,0.18607653677463531,0.3551954925060272,0.02078675664961338,0.13969920575618744,0.2752876579761505,-0.18551763892173767,-0.17606154084205627,-0.008967875503003597,-0.02081638015806675,-0.13515856862068176,-0.15532943606376648,0.08964449167251587,0.07324443757534027,0.11180967092514038,-0.07901184260845184,0.015182812698185444,0.12954604625701904,-0.12917177379131317,0.008430431596934795,0.04469842463731766,-0.0854821503162384,-0.12799707055091858,-0.09578729420900345,0.0975128561258316,-0.21884143352508545,-0.11112187802791595,0.02312626875936985,-0.063411183655262,-0.040171582251787186,-0.11207972466945648,0.18987126648426056,0.1669902801513672,-0.009996581822633743,-0.01632283255457878,0.1969882696866989,0.1340581178665161,0.07425247132778168,0.18588167428970337,0.043395306915044785,-0.09756578505039215,-0.049715034663677216,0.13973264396190643,-0.06884093582630157,-0.14101038873195648,-0.09965119510889053,-0.0246370118111372,-0.1294470727443695,-0.07624532282352448,0.08697379380464554,0.19626636803150177,-0.30525562167167664,-0.1276737004518509,-0.05592040345072746,0.067215695977211,-0.003245428903028369,-0.09614591300487518,0.09906016290187836,-0.021595926955342293,0.0033242853824049234,0.0023450320586562157,-0.01795121468603611,-0.1786821186542511,-0.06021357700228691,0.10557021200656891,0.04809170588850975,-0.033930737525224686,-0.04303758591413498,-0.07555374503135681,-0.11948012560606003,-0.04925907403230667,0.13997243344783783,0.05136973783373833,0.10537228733301163,0.081166110932827,0.010547379031777382,0.05621401220560074,0.054734718054533005,-0.08873935788869858,-0.028836019337177277,0.16412541270256042,0.14046163856983185,-0.06910095363855362,-0.11803578585386276,0.05738622322678566,0.057039644569158554,0.14030721783638,0.09746774286031723,0.08995722234249115,-0.09199005365371704,-0.1671929955482483,-0.1938709169626236,0.04483628273010254,-0.062479548156261444,-0.029803849756717682,0.008295801468193531,-0.18805445730686188,-0.1770499050617218,0.24195700883865356,0.11828551441431046,-0.005475667770951986,0.04437641054391861,0.1409267783164978,0.1588926464319229,0.010847066529095173,-0.09913651645183563,0.0881727859377861,-0.02324560657143593,-0.2645048499107361,-0.14076197147369385,0.04141933470964432,0.0684889703989029,-0.03605838865041733,-0.01108473539352417,-0.05155966803431511,0.10986761003732681,0.11790643632411957,0.05813892185688019,0.12594588100910187,0.08172453939914703,-0.1040840595960617,0.03762996569275856,0.07385406643152237,-0.01668887585401535,0.17698878049850464,-0.007799718528985977,-0.09595946222543716,-0.07205664366483688,-0.10384725779294968,0.1936727911233902,-0.06935758143663406,-0.1988588273525238,-0.16074629127979279,-0.1621648073196411,-0.047683726996183395,0.07777190953493118,-0.11660351604223251,0.1674920618534088,0.10082042962312698,-0.020110132172703743,0.12404728680849075,-0.1133410707116127,0.1551504135131836,0.1509137898683548,-0.011756199412047863,0.1585719883441925,-0.08805783092975616,0.01670936681330204,0.17384397983551025,-0.04673711583018303,0.16875700652599335,-0.009996344335377216,-0.015088438056409359,-0.12144393473863602,0.09359020739793777,-0.05782189220190048,-0.084823377430439,0.08809839934110641,0.12258985638618469,0.10237379372119904,-0.04637245088815689,-0.17106784880161285,0.09968972206115723,-0.060571279376745224,0.1430942267179489,0.09619244933128357,0.15060511231422424,-0.12672409415245056,0.04194267466664314,0.00006227241101441905,-0.004775675013661385,-0.01527491956949234,0.011795321479439735,0.04636931046843529,0.13518325984477997,-0.14803020656108856,0.03735073655843735,-0.03183625265955925,0.02374805137515068,0.23121440410614014,0.0770433247089386,0.061291616410017014,0.1226184293627739,0.0603584386408329,-0.0010256442474201322,-0.06471175700426102,0.02796979434788227,0.01874912530183792,-0.003989162389189005,0.12263135612010956,0.025109734386205673,0.003048529615625739,-0.12435092777013779,0.16635699570178986,0.11544410139322281,0.09049051254987717,0.02512788400053978,-0.14713886380195618,-0.03900662809610367,0.11833146214485168,0.0906294509768486,-0.14839927852153778,-0.023261619731783867,-0.05654141306877136,-0.18535102903842926,-0.03568202629685402,-0.12242801487445831,0.05390818417072296,-0.07594136893749237,0.20864397287368774,-0.12875428795814514,-0.10216554254293442,-0.12411294132471085,-0.1346137970685959,-0.030382608994841576,0.22245408594608307,0.06866821646690369,-0.050144895911216736,-0.06387048214673996,-0.0023806924000382423,-0.05264981463551521,0.014120983891189098,-0.020915253087878227,0.10610976815223694,-0.18336404860019684,-0.10020927339792252,-0.0269534420222044,0.14072583615779877,0.08838623762130737,0.022341672331094742,-0.21095013618469238,-0.08240484446287155,0.03832516446709633,-0.19047491252422333,-0.032423391938209534,-0.1700221300125122,-0.34163033962249756,0.08696738630533218,-0.03671882674098015,0.13070091605186462,0.12888725101947784,-0.029962295666337013,0.4759575128555298,-0.03690789267420769,0.1600714772939682,0.4718755781650543,0.09977787733078003,-0.01410133857280016,0.010969537310302258,0.019941842183470726,-0.14057910442352295,-0.01866241730749607,-0.06733289361000061,0.14222687482833862,0.07883690297603607,0.009805173613131046,-0.06029234454035759,0.23742152750492096,-0.06562460958957672,0.050101958215236664,-0.018457062542438507,0.15485958755016327,0.004180421121418476,0.08018893748521805,0.04163110628724098,0.04263853654265404,0.05297752842307091,-0.11496839672327042,-0.0432429313659668,-0.0005174264078959823,0.027595505118370056,-0.016690045595169067,-0.13806000351905823,0.035905420780181885,-0.030900757759809494,0.001776258577592671,-0.3491554260253906,0.10909532755613327,-0.2265365868806839,-0.09890484809875488,-0.1061885803937912,-0.03969835862517357,-0.017651664093136787,-0.10352592915296555,0.004808549769222736,0.12274733930826187,-0.06641433387994766,0.081388920545578,-0.15939155220985413,-0.009237057529389858,0.3182325065135956,-0.035797931253910065,-0.07015936821699142,0.12215704470872879,0.09544627368450165,0.010356748476624489,0.10166069120168686,-0.10623453557491302,-0.006724442820996046,-0.12792569398880005,0.007144470699131489,0.07123331725597382,0.24257439374923706,0.1667785346508026,0.2960493266582489,0.05146319791674614,0.007860354147851467,0.10622242838144302,-0.08578722923994064,0.10726457834243774,0.10053613036870956,0.12483882904052734,-0.09833401441574097,-0.12266596406698227,0.11824971437454224,0.05734656751155853,0.05675365775823593,0.007891284301877022,0.09997229278087616,-0.06008313223719597,-0.48874419927597046,0.21211232244968414,0.18510015308856964,-0.522994339466095,0.07156895101070404,-0.6557928323745728,-0.3119059205055237,-0.4208690822124481,0.8406240344047546,-0.879105806350708,-0.5623134970664978,-0.8352603316307068,0.26795879006385803,-0.6841042041778564,0.30923086404800415,-0.6062737703323364,-0.046648863703012466,-0.0733703151345253,0.02319023385643959,0.13160352408885956,0.08804410696029663,-0.14467069506645203,-0.1749049723148346,-0.1392795741558075,0.07747973501682281,-0.04005834832787514,0.04637140780687332,0.1263107806444168,0.21146713197231293,0.043475303798913956,-0.06958670169115067,-0.007382656913250685,0.045457612723112106,-0.16255685687065125,-0.1378416270017624,-0.10621719062328339,-0.31198716163635254,0.06270105391740799,-0.16128651797771454,-0.17619505524635315,0.13267898559570312,-0.15227247774600983,0.1379171460866928,0.16858141124248505,-0.016006842255592346,0.031554535031318665,0.08846185356378555,0.22563593089580536,-0.09997911006212234,-0.17512275278568268,-0.01724930666387081,0.24767471849918365,0.16950386762619019,0.13583628833293915,-0.07278357446193695,0.11171569675207138,-0.07333871722221375,-0.02401171624660492,-0.09554477781057358,-0.29497939348220825,-0.17261867225170135,0.011280350387096405,0.23281073570251465,-0.08321482688188553,0.02872762456536293,0.029485873878002167,-0.12354451417922974,-0.025980329141020775,-0.14924709498882294,0.04950135573744774,-0.09706717729568481,-0.05628080293536186,-0.059291668236255646,0.044336218386888504,0.14184854924678802,0.237482950091362,0.08585144579410553,-0.19861038029193878,0.06940750777721405,0.028853993862867355,0.3396252393722534,-0.05557996407151222,-0.23681537806987762,-0.07077675312757492,0.22815147042274475,-0.02679757960140705,-0.16868248581886292,0.1965600848197937,0.24715611338615417,-0.10338114947080612,-0.10945851355791092,0.02155597135424614,-0.10286330431699753,-0.2600129544734955,-0.08886255323886871,-0.2210431545972824,-0.19499839842319489,-0.03980492055416107,-0.2862357497215271,-0.11637706309556961,0.025638213381171227,-0.03532334789633751,-0.046171948313713074,-0.05674882233142853,0.18026134371757507,0.3613722324371338,0.006696738302707672,-0.1479199230670929,-0.14696155488491058,-0.04513293132185936,0.1261763721704483,0.08778639137744904,-0.05063582584261894,-0.05883307009935379,0.09914597868919373,-0.09267232567071915,0.02579515613615513,0.04957723617553711,-0.23500415682792664,-0.2462662160396576,0.2549191415309906,-0.02985522523522377,-0.20371785759925842,0.11751733720302582,-0.023714477196335793,0.027131011709570885,-0.08209958672523499,0.16170667111873627,0.160817489027977,0.0019280657870694995,-0.17821680009365082,0.11214405298233032,0.11861644685268402,-0.04615126550197601,-0.0975593701004982,0.05844870209693909,-0.1050334945321083,0.39517924189567566,-0.1693747490644455,0.0064424495212733746,-0.2952491044998169,0.0677698478102684,0.16191840171813965,0.12840010225772858,-0.05649469792842865,-0.012105345726013184,-0.08750523626804352,-0.01858268491923809,-0.022915316745638847,-0.20729786157608032,-0.1278635561466217,-0.009558552876114845,-0.21755999326705933,0.016087636351585388,0.277725487947464,-0.26529452204704285,-0.15698227286338806,0.03871588036417961,-0.14620238542556763,0.25136974453926086,-0.010623102076351643,-0.035457026213407516,-0.09277068823575974,0.10168132185935974,0.17532452940940857,-0.03383978083729744,0.15581883490085602,0.04510821774601936,-0.17205651104450226,-0.002762334421277046,0.21216130256652832,0.10643527656793594,0.10137896984815598,-0.010725528001785278,0.1936774104833603,-0.09696781635284424,-0.21978910267353058,-0.05822869390249252,-0.05520497262477875,0.05397967994213104,-0.0029045287519693375,-0.08439075946807861,-0.07522833347320557,-0.052356377243995667,0.12803009152412415,0.18100084364414215,-0.21135537326335907,0.10845135897397995,0.1427364945411682,0.06699549406766891,-0.0984029471874237,0.07958687096834183,0.06606950610876083,0.1828792840242386,-0.29592445492744446,-0.10762687027454376,-0.19323982298374176,-0.18492117524147034,0.10633820295333862,0.09221915155649185,-0.049204885959625244,0.24110080301761627,0.2049618363380432,-0.15110541880130768,-0.014839518815279007,-0.12861032783985138,0.15457803010940552,-0.09151352196931839,-0.17509965598583221,-0.15191076695919037,-0.21276336908340454,0.06097743287682533,0.04468648508191109,-0.13567842543125153,-0.2599489688873291,0.2184969186782837,-0.10786188393831253,-0.10055921226739883,-0.20355689525604248,-0.39164668321609497,0.19325153529644012,-0.28341490030288696,-0.08361461758613586,-0.13040436804294586,0.04432481527328491,0.06130107119679451,-0.10158564150333405,0.2059842348098755,-0.20221252739429474,0.07893802225589752,-0.10944009572267532,-0.04464820399880409,0.11137205362319946,0.13874801993370056,0.04878954216837883,-0.12029948085546494,0.1449611485004425,0.08054964989423752,0.028896085917949677,-0.09768706560134888,0.050450850278139114,0.1854393184185028,0.12867826223373413,0.030214611440896988,-0.13177616894245148,-0.06487422436475754,0.20949164032936096,-0.05462106689810753,-0.13708609342575073,0.033545807003974915,-0.1791103184223175,0.019486185163259506,-0.007320962846279144,0.12919652462005615,0.1848425418138504,0.16379573941230774,0.2661548852920532,-0.17694061994552612,-0.1435192972421646,0.19153442978858948,-0.08989380300045013,0.12803244590759277,-0.13677625358104706,-0.016819750890135765,0.25217750668525696,-0.05766615271568298,0.15376026928424835,0.0380149744451046,-0.04300016164779663,0.3025141656398773,-0.19473117589950562,-0.14950424432754517,-0.10576705634593964,0.01295931451022625,0.03542859107255936,-0.001233982271514833,-0.18017242848873138,0.021693063899874687,0.144105464220047,0.10772515833377838,0.13134905695915222,0.04743519052863121,0.1261254847049713,-0.18780656158924103,0.08442498743534088,-0.22898025810718536,-0.10149886459112167,-0.10631418973207474,0.21531543135643005,-0.07824959605932236,-0.10480058938264847,-0.35896480083465576,-0.3920596241950989,0.016977308318018913,0.20529863238334656,0.22534941136837006,0.10682208836078644,0.02990180440247059,-0.055542364716529846,-0.0783388689160347,0.06632522493600845,-0.103555828332901,-0.04159189760684967,-0.05296861752867699,0.05539030581712723,-0.042417801916599274,-0.013592099770903587,-0.022791463881731033,0.058067429810762405,-0.12847749888896942,-0.14098937809467316,-0.07027674466371536,-0.2401321977376938,0.3080880045890808,0.1928904801607132,-0.10648977756500244,-0.013598380610346794,-0.045308299362659454,-0.01862221024930477,0.12585602700710297,-0.016633789986371994,-0.3581464886665344,0.18073418736457825,-0.10797499865293503,0.16512641310691833,-0.05114513635635376,0.10074027627706528,-0.05251085013151169,0.2497963011264801,-0.017295438796281815,0.07255283743143082,0.11153721809387207,-0.1231428012251854,0.21632227301597595,-0.39192673563957214,-0.09974794089794159,-0.1371760219335556,-0.14323343336582184,0.08969484269618988,0.08393468707799911,-0.009783424437046051,-0.05036124214529991,0.14893430471420288,0.163992241024971,0.15179969370365143,0.002363241044804454,-0.07280772179365158,-0.14798754453659058,0.18172934651374817,-0.05576556175947189,-0.025160998106002808,-0.13958770036697388,-0.021509241312742233,0.01759413257241249,0.2583286464214325,-0.10489953309297562,0.1441827267408371,-0.059100039303302765,-0.0034044513013213873,0.07866407185792923,0.01886759139597416,-0.03495942801237106,-0.16506940126419067,-0.008254323154687881,0.13546937704086304,0.09352954477071762,0.2169225513935089,0.01694026030600071,-0.1253722459077835,-0.12428655475378036,0.009879674762487411,0.03342398256063461,-0.05196443200111389,0.062378231436014175,0.03114202618598938,0.05843617394566536,-0.0007562966784462333,-0.20691414177417755,0.07785614579916,0.11171383410692215,-0.008958317339420319,0.19696712493896484,0.0003568869724404067,-0.01268245279788971,0.16906453669071198,-0.10331904143095016,-0.2880259156227112,0.08091193437576294,-0.037051957100629807,-0.2823600471019745,-0.03548588976264,0.2471638321876526,0.3504793643951416,-0.16630057990550995,0.015402195043861866,0.24381040036678314,0.02043774165213108,0.09379629790782928,0.23288801312446594,-0.018736790865659714,-0.14596691727638245,-0.034143779426813126,0.13296110928058624,-0.09313099831342697,-0.10204846411943436,-0.10022325813770294,-0.051756683737039566,0.07960386574268341,-0.14826057851314545,-0.02769184671342373,0.058501169085502625,0.22481071949005127,0.10935650020837784,0.005931335501372814,-0.14678406715393066,0.05956072360277176,0.1192183792591095,-0.273032546043396,-0.19663971662521362,0.17627601325511932,0.10145250707864761,0.19272330403327942,-0.0814734399318695,-0.08705928176641464,0.04692460224032402,0.30761852860450745,0.04292340576648712,-0.10205631703138351,0.14908021688461304,-0.3190121352672577,0.26641520857810974,0.11450807005167007,-0.11135204136371613,-0.10687839984893799,0.15669748187065125,-0.20854614675045013,0.00010427249799249694,-0.022569285705685616,0.14067567884922028,0.21205373108386993,-0.05089147388935089,0.17031152546405792,0.07139353454113007,-0.10595269501209259,0.036271460354328156,-0.07283693552017212,-0.034452296793460846,-0.14571771025657654,-0.14639683067798615,0.18835020065307617,0.370174765586853,-0.01971864141523838,-0.07558257132768631,-0.031188784167170525,0.04827053099870682,0.14551126956939697,-0.1818055659532547,0.13416285812854767,-0.050816502422094345,-0.18889223039150238,-0.0482870414853096,-0.2541080415248871,0.11029736697673798,0.06944708526134491,-0.07111799716949463,0.18799898028373718,-0.08837287127971649,0.06446383148431778,-0.02735806442797184,-0.010317422449588776,0.03248770162463188,0.20588204264640808,0.00620296923443675,0.06062721461057663,0.1380024254322052,-0.04731132835149765,0.04799583926796913,-0.04726957902312279,-0.16798143088817596,0.12541140615940094,-0.0678972527384758,-0.038978543132543564,0.04335630685091019,-0.011601914651691914,-0.05585981905460358,-0.02806304208934307,0.06061796471476555,0.13394154608249664,-0.19167593121528625,0.08978946506977081,0.1013874039053917,-0.12587662041187286,-0.08238613605499268,0.11048466712236404,-0.02132132463157177,-0.05586647614836693,0.11393540352582932,0.15267063677310944,-0.09827781468629837,-0.2164527177810669,0.2031971514225006,-0.008169741369783878,0.02242150716483593,0.29136762022972107,0.06984308362007141,-0.056510113179683685,-0.08131609857082367,0.22264960408210754,0.16855160892009735,0.19000829756259918,0.13155387341976166,-0.056092098355293274,-0.03547915071249008,-0.001084295567125082,-0.13694581389427185,0.055006708949804306,-0.14202415943145752,0.14169935882091522,-0.15974709391593933,0.09303480386734009,-0.1795174479484558,-0.026934321969747543,0.16005277633666992,-0.1636357605457306,0.07563036680221558,-0.07866893708705902,-0.19353021681308746,-0.06040488928556442,0.27451565861701965,-0.12791629135608673,-0.1724892258644104,0.5067840218544006,-0.04065924510359764,-0.0012400844134390354,-0.38342323899269104,-0.026051877066493034,-0.014615166932344437,-0.14506176114082336,-0.11528650671243668,0.11184705793857574,-0.029117291793227196,-0.0357077531516552,0.02235911600291729,0.009117732755839825,-0.04877280071377754,-0.010142588056623936,-0.23925276100635529,0.05227252095937729,0.04650324955582619,-0.09817656129598618,-0.14812059700489044,0.0397920124232769,0.30514270067214966,0.05347003787755966,-0.15279969573020935,-0.2358131855726242,0.09126272052526474,-0.018126949667930603,-0.12796927988529205,0.04858856275677681,0.07164517045021057,-0.19880890846252441,0.03100264072418213,-0.17308717966079712,0.22788603603839874,0.06320754438638687,0.04700469970703125,-0.17796690762043,0.04260212928056717,0.13324691355228424,-0.205059215426445,-0.0724436417222023,-0.05309903249144554,0.4054684638977051,-0.13517586886882782,0.012026553973555565,-0.02463690936565399,-0.15193603932857513,-0.06341557949781418,-0.023242397233843803,0.059743985533714294,-0.020897744223475456,0.09550006687641144,-0.12697680294513702,-0.1038479134440422,-0.08402422815561295,0.15035392343997955,0.015444387681782246,-0.00568711943924427,-0.13041841983795166,0.08827181160449982,-0.03568540886044502,0.14952503144741058,-0.009741303510963917,0.002981913276016712,0.08440303802490234,-0.04179311543703079,0.15344730019569397,-0.061545826494693756,-0.06524980068206787,-0.13083089888095856,0.1084858849644661,0.12367536872625351,-0.07743474096059799,0.09811951965093613,-0.02247762680053711,-0.2164425104856491,0.07627025991678238,-0.07290269434452057,-0.1474299430847168,0.0480344183743,-0.15134692192077637,-0.09440803527832031,-0.1300332248210907,0.09046308696269989,-0.06366775929927826,-0.050073251128196716,0.03545929118990898,-0.22947536408901215,0.041115228086709976,0.08225297927856445,0.149468794465065,-0.10144153237342834,-0.009661492891609669,0.20169207453727722,-0.0515107624232769,-0.20412814617156982,0.2802903354167938,-0.05923237279057503,0.044263627380132675,-0.196658656001091,0.287509948015213,0.14444436132907867,-0.1893138289451599,0.04906090348958969,0.0745108425617218,-0.14571091532707214,-0.005024808458983898,-0.05383137986063957,-0.006513004656881094,0.07915907353162766,-0.016485590487718582,-0.10458239912986755,0.03565342351794243,0.1347784548997879,-0.17759719491004944,-0.13184195756912231,0.027710331603884697,0.0953470915555954,0.21867871284484863,-0.04614698886871338,-0.273210346698761,0.0860571563243866,-0.1486606001853943,0.012967728078365326,-0.03201155364513397,0.06772480905056,-0.3392743170261383,0.07275748997926712,-0.33979594707489014,0.1339695304632187,0.1218496784567833,0.19803877174854279,-0.18017226457595825,0.00863640010356903,0.11677053570747375,-0.08488122373819351,-0.01627250574529171,-0.0578622967004776,0.11227395385503769,-0.28432780504226685,-0.0343669056892395,-0.10029485076665878,-0.05066653713583946,0.13772833347320557,-0.0006071442039683461,0.11351328343153,-0.023655544966459274,-0.008550507016479969,0.0003375119704287499,-0.07329634577035904,0.03821290656924248,0.13012894988059998,0.06942196935415268,-0.09428557753562927,-0.048637501895427704,-0.06026183441281319,-0.1832960546016693,-0.07579798251390457,-0.053117573261260986,0.22995245456695557,0.05116838961839676,0.030589908361434937,-0.0008419944788329303,-0.12018474191427231,-0.047673195600509644,-0.28206050395965576,-0.06254304945468903,-0.11562731117010117,-0.05754008889198303,-0.024588050320744514,0.08896538615226746,0.08360309153795242,0.02231498435139656,-0.11049440503120422,0.13985750079154968,0.40928155183792114,0.18813398480415344,-0.2599305212497711,0.003728653537109494,0.019409386441111565,0.13908639550209045,0.006423656363040209,0.08423022925853729,0.21862690150737762,0.10735815763473511,-0.051652710884809494,0.2562021315097809,0.2646316885948181,-0.019323822110891342,-0.10184210538864136,-0.05543631687760353,0.03304784372448921,0.3069932460784912,0.1444762647151947,0.26119980216026306,0.025444239377975464,0.13065776228904724,0.08766206353902817,-0.004742614924907684,-0.025807389989495277,-0.19282110035419464,0.07378502935171127,0.1412581354379654,0.05454603210091591,-0.2711680233478546,-0.046051423996686935,0.057405274361371994,-0.03668610379099846,-0.1599048227071762,-0.23528526723384857,-0.14180272817611694,-0.18072625994682312,-0.04386650770902634,-0.1423873007297516,-0.19200100004673004,-0.0036884828004986048,0.05100762099027634,0.003487724345177412,0.024812372401356697,0.2163582444190979,0.03223735839128494,-0.16364642977714539,-0.32736268639564514,0.08557722717523575,0.001420948887243867,0.04010317474603653,0.08128396421670914,0.08611170947551727,0.046705424785614014,-0.12371201813220978,-0.1485099494457245,0.09020113945007324,0.09535494446754456,-0.2291773557662964,0.14681926369667053,-0.023632463067770004,-0.07197365164756775,0.19785481691360474,0.15365318953990936,0.2566281259059906,-0.056254345923662186,-0.121431365609169,-0.14812816679477692,-0.16772496700286865,-0.002418529475107789,-0.010656698606908321,-0.028938911855220795,-0.0013599441153928638,-0.04279238358139992,0.15376825630664825,-0.11063242703676224,0.04171501100063324,0.21047483384609222,0.1769607663154602,0.25637200474739075,0.019671665504574776,-0.020433062687516212,-0.3315594792366028,0.1398436576128006,-0.01430986262857914,-0.003502082545310259,-0.19873572885990143,0.23965513706207275,-0.14844156801700592,0.07740934193134308,0.1455371230840683,0.0405568927526474,0.025972191244363785,-0.033150479197502136,-0.04932086542248726,-0.084781214594841,0.08823555707931519,0.2907555103302002,0.24542759358882904,0.195530503988266,0.25296327471733093,-0.05165311321616173,-0.2728111743927002,-0.25415557622909546,-0.17148984968662262,0.013424178585410118,-0.318278968334198,-0.1790386289358139,-0.3843785226345062,-0.07071271538734436,0.07581043988466263,-0.15289391577243805,0.038383848965168,-0.20865701138973236,0.027542147785425186,0.09316018968820572,0.04481019079685211,0.02181222289800644,0.1764630675315857,-0.22280921041965485,0.05532437190413475,0.08660073578357697,0.05481833964586258,0.028639502823352814,0.005539551377296448,0.015586853958666325,-0.11308006942272186,-0.16129499673843384,0.13581891357898712,0.16080763936042786,0.17710235714912415,0.28478753566741943,-0.021355120465159416,-0.172210693359375,-0.2666580080986023,0.12217388302087784,-0.06976357847452164,-0.11046651750802994,-0.05637263506650925,-0.15495115518569946,-0.2494868040084839,-0.12789882719516754,-0.001169823226518929,0.3157130777835846,0.051156964153051376,-0.04884162172675133,-0.0645170509815216,-0.07980412989854813,-0.08387488126754761,-0.2306929975748062,-0.08306824415922165,0.20517399907112122,-0.23517438769340515,-0.1441938281059265,0.20413954555988312,0.18910282850265503,-0.02338091842830181,-0.09863174706697464,-0.20094849169254303,0.03594282269477844,0.2289021760225296,0.3562343418598175,0.016474762931466103,-0.1573081910610199,0.1457601636648178,-0.18961285054683685,0.05373556539416313,0.2284611612558365,0.07180389016866684,0.024881862103939056,0.2264135777950287,0.047214534133672714,0.18319299817085266,-0.1648584008216858,0.03461986780166626,0.10737786442041397,-0.4169349670410156,0.10572102665901184,-0.22363673150539398,-0.25396421551704407,-0.18384018540382385,-0.023295577615499496,0.36157283186912537,-0.19824053347110748,0.07183532416820526,-0.13803015649318695,0.04626438766717911,0.12176105380058289,0.3602921664714813,0.2700866460800171,0.029162202030420303,-0.08980291336774826,-0.16257481276988983,0.09935784339904785,-0.04317314922809601,0.0855235680937767,0.0023814504966139793,0.3128195106983185,0.11909586191177368,0.04442685469985008,0.2790326476097107,0.11965354532003403,-0.13505364954471588,0.0006906904745846987,-0.07393159717321396,0.14937637746334076,-0.08094408363103867,0.07562372833490372,0.06448186188936234,0.06675862520933151,-0.06304420530796051,-0.04612041264772415,0.10439511388540268,-0.045411646366119385,-0.16903893649578094,-0.03562088683247566,-0.11214838922023773,0.09412199258804321,-0.13157212734222412,0.11338896304368973,0.1446639597415924,-0.07600677013397217,-0.04121436923742294,0.0767604261636734,0.05036863312125206,-0.06305262446403503,-0.04923080652952194,-0.004519402515143156,0.1695372313261032,-0.03230401873588562,0.008787005208432674,-0.004540539812296629,-0.014134026132524014,0.09008198976516724,0.059095658361911774,0.12858635187149048,0.11619030684232712,-0.03745264187455177,-0.21963872015476227,0.13824217021465302,-0.1265387088060379,0.19898051023483276,-0.18094120919704437,0.0857333317399025,0.029113559052348137,0.13328933715820312,0.047496989369392395,-0.20449276268482208,0.061737850308418274,-0.06774336099624634,-0.117890365421772,-0.1404685229063034,-0.17239047586917877,0.08163711428642273,0.024067826569080353,0.09815037250518799,0.024308154359459877,-0.017387498170137405,0.09794961661100388,0.06637925654649734,0.004059282597154379,-0.04339940473437309,0.05421985685825348,-0.16306225955486298,-0.09945415705442429,0.07407825440168381,-0.09898533672094345,-0.07365085184574127,-0.13021080195903778,0.2086428850889206,-0.015265162102878094,-0.21317361295223236,-0.13268524408340454,0.048889171332120895,-0.13588745892047882,0.12120578438043594,0.02502542920410633,-0.11376121640205383,0.1343069225549698,-0.12596406042575836,0.14620110392570496,0.22327286005020142,-0.01291383896023035,0.06761714816093445,-0.133839949965477,0.06345274299383163,0.16161371767520905,0.041719917207956314,0.0006924031767994165,-0.4050235450267792,-0.07082454860210419,-0.12499073147773743,-0.15027093887329102,-0.1253506988286972,-0.09755502641201019,0.15284600853919983,-0.09493131190538406,-0.06935548037290573,0.12783336639404297,-0.15508544445037842,0.0979231745004654,-0.1814383566379547,0.0030458250548690557,0.24479755759239197,0.3301856815814972,0.011387183330953121,-0.0158632081001997,0.35924699902534485,-0.14384569227695465,-0.05492967739701271,-0.08294748514890671,-0.03252587467432022,0.014943673275411129,0.0453675203025341,-0.04634317383170128,0.016227884218096733,-0.15562079846858978,0.07780984044075012,0.07172974944114685,0.11058065295219421,0.1446460336446762,0.025208845734596252,0.09462474286556244,0.008129600435495377,0.13152410089969635,0.052550580352544785,0.024468975141644478,-0.06271222978830338,0.252667635679245,-0.11823282390832901,-0.022667670622467995,-0.12679636478424072,0.09078171104192734,-0.1684708446264267,-0.013268716633319855,0.020286282524466515,0.08636554330587387,0.26164260506629944,-0.2271227091550827,0.15863370895385742,-0.07941917330026627,0.0183556005358696,-0.05169544368982315,-0.23486457765102386,0.23875389993190765,-0.13313806056976318,-0.1404951959848404,0.03995278477668762,-0.02915113978087902,0.058335449546575546,0.14951899647712708,0.09084273874759674,-0.022197213023900986,-0.08715192973613739,0.06425495445728302,0.0016171584138646722,-0.036615755409002304,-0.041766367852687836,0.08150646090507507,0.04128053039312363,-0.01637551560997963,0.08270476013422012,-0.3013317883014679,0.010563349351286888,0.018102606758475304,0.011728500947356224,-0.3499678373336792,-0.3780943751335144,0.5625665187835693,0.37872251868247986,-0.24862496554851532,0.040523990988731384,-0.2246553748846054,-0.14115498960018158,0.40298163890838623,-0.6641002297401428,1.0477491617202759,0.5794193148612976,0.031805526465177536,-0.26368248462677,0.116173654794693,-0.5091279745101929,0.1205952987074852,-0.15255525708198547,0.1069730594754219,-0.30595725774765015,0.2047794759273529,0.27176591753959656,0.22447985410690308,0.06067908555269241,0.075376957654953,0.05905367434024811,0.23338785767555237,0.24421732127666473,-0.29720771312713623,0.018304046243429184,-0.07273100316524506,-0.22208230197429657,0.10131417214870453,-0.0546727292239666,0.4133615493774414,-0.03607046604156494,0.19459693133831024,0.11019814759492874,-0.18725284934043884,-0.1081545278429985,-0.2063141167163849,-0.08485529571771622,0.05863353982567787,-0.20414935052394867,0.12668375670909882,0.3461277484893799,0.2854677438735962,-0.36849066615104675,-0.24071724712848663,-0.29231828451156616,0.10705123096704483,-0.24876736104488373,-0.00015359828830696642,-0.15259425342082977,-0.06483883410692215,-0.08724226802587509,-0.11692766100168228,-0.12553778290748596,-0.057210322469472885,0.11528905481100082,0.2306182086467743,-0.11509472876787186,0.08472248911857605,0.24172335863113403,0.18559175729751587,-0.0991804450750351,0.0885922908782959,-0.1173941120505333,-0.15984231233596802,0.20633910596370697,-0.003020753152668476,0.1590196043252945,0.1725778430700302,-0.02459620125591755,0.10334902256727219,0.2910470962524414,-0.09124390780925751,0.010572263039648533,0.1869627833366394,-0.1318817287683487,-0.1298454850912094,-0.179486945271492,0.1546817570924759,-0.21083134412765503,0.01976487971842289,0.08957847207784653,0.03762616217136383,-0.1486717015504837,0.21442721784114838,0.06528151780366898,-0.15853998064994812,0.1825162172317505,-0.2553795278072357,-0.24038316309452057,0.06774820387363434,0.21537694334983826,-0.22762836515903473,-0.15275728702545166,-0.1257667988538742,-0.13712723553180695,-0.22588010132312775,-0.07200784236192703,0.24110707640647888,-0.05775022506713867,-0.11591693013906479,-0.23769044876098633,-0.03584820404648781,0.2161928117275238,-0.024539755657315254,0.02461373060941696,0.2906932830810547,0.045767758041620255,0.1919706165790558,0.10981176793575287,-0.16365398466587067,0.1057891994714737,0.08899758011102676,-0.17855346202850342,0.01482551172375679,0.06736700981855392,-0.15328900516033173,0.14968328177928925,0.17967942357063293,-0.27155861258506775,0.2453000247478485,0.07887138426303864,0.17070066928863525,0.04683544859290123,0.0865134745836258,0.14420098066329956,-0.5109928846359253,-0.09946037083864212,-0.04390600696206093,-0.23401759564876556,0.07846798747777939,-0.21497903764247894,0.042392510920763016,0.23294053971767426,-0.09424847364425659,0.08181958645582199,0.07221333682537079,0.14661161601543427,0.09014002978801727,0.21919195353984833,-0.2733801305294037,0.31658023595809937,0.15174537897109985,0.10967090725898743,0.017019806429743767,0.2200802117586136,-0.2329806536436081,-0.22759421169757843,-0.07590889930725098,0.203401118516922,-0.145962193608284,0.1644822359085083,-0.3021416664123535,-0.11208495497703552,-0.3037670850753784,-0.15004956722259521,0.29896122217178345,0.014127753674983978,-0.428207129240036,0.2562626898288727,-0.04712742194533348,0.11762649565935135,0.029592346400022507,-0.007095602340996265,-0.07245049625635147,0.06726470589637756,-0.08740504831075668,-0.0469028539955616,-0.16661131381988525,0.0614168643951416,-0.06050671637058258,0.06264197826385498,0.2080720216035843,-0.12794522941112518,-0.11449283361434937,-0.10017334669828415,0.24941055476665497,-0.16035279631614685,0.08431383967399597,-0.028785016387701035,0.21056455373764038,0.00315834186039865,-0.1239452064037323,-0.08782234787940979,0.12283005565404892,-0.16556362807750702,-0.007586024701595306,0.19496311247348785,0.12328094244003296,-0.05953660234808922,-0.09743162989616394,-0.10365407913923264,-0.08419070392847061,0.36235150694847107,0.35941603779792786,0.3084823191165924,-0.1938123255968094,-0.2300020307302475,-0.14978966116905212,0.4128522276878357,-0.3200286030769348,-0.3677862882614136,0.12426883727312088,-0.07593495398759842,-0.36959901452064514,-0.3422878384590149,-0.01800297386944294,-0.09907487779855728,0.25113245844841003,-0.13833507895469666,-0.27581602334976196,-0.43220916390419006,0.11204470694065094,-0.11670917272567749,-0.129115492105484,0.004227371886372566,0.058602672070264816,0.13242538273334503,0.19724299013614655,-0.21832223236560822,-0.29653286933898926,0.03380298614501953,-0.28139740228652954,-0.01780758425593376,-0.07278919965028763,-0.2624925673007965,0.13215497136116028,-0.2798457741737366,0.1721419394016266,0.00787497777491808,0.1810741126537323,-0.3319797217845917,0.028523007407784462,0.13120484352111816,-0.1332588791847229,0.16072247922420502,-0.0035290683154016733,0.18396341800689697,-0.07343392074108124,-0.027607321739196777,-0.1876114010810852,0.10625116527080536,0.16381949186325073,-0.01784098893404007,0.1418597400188446,0.12396872043609619,0.1809404045343399,0.18012313544750214,-0.12600064277648926,-0.002350963419303298,-0.0010538684437051415,-0.18638615310192108,-0.19363722205162048,-0.14226101338863373,-0.06596653163433075,-0.43127548694610596,-0.08244577050209045,0.04811650142073631,-0.033390384167432785,-0.17725563049316406,-0.08065241575241089,0.12658526003360748,0.14804738759994507,0.3149113059043884,-0.295626699924469,-0.1094965934753418,0.07122515887022018,-0.006709858775138855,0.04693015292286873,0.1457151621580124,0.08963970839977264,0.13764680922031403,-0.10051126033067703,0.16133858263492584,0.25677141547203064,-0.013499964028596878,-0.2300018072128296,-0.20552772283554077,0.07922673970460892,0.10432404279708862,0.15760867297649384,0.16232608258724213,0.039039257913827896,0.042474254965782166,0.20480948686599731,-0.0947144627571106,-0.01497387234121561,-0.27847811579704285,-0.0483015701174736,0.2933897376060486,-0.0665016770362854,-0.06614790111780167,-0.02945990115404129,-0.041335154324769974,-0.009123839437961578,0.23396459221839905,0.09627777338027954,-0.2081429362297058,-0.11735653877258301,0.10653552412986755,-0.19265872240066528,-0.04558918625116348,0.03891540318727493,-0.018668558448553085,-0.03026086650788784,-0.12324780225753784,0.0080782575532794,0.05613243952393532,0.181454598903656,-0.15922339260578156,-0.15241099894046783,-0.00391134200617671,0.027915092185139656,-0.05908984690904617,-0.11856230348348618,-0.06371665745973587,0.1860624998807907,0.14472366869449615,-0.21169626712799072,-0.1178630143404007,-0.12322869151830673,-0.04630386829376221,-0.1294655203819275,-0.06177552044391632,-0.034388452768325806,-0.053786955773830414,-0.1708720326423645,-0.18529698252677917,-0.03001127392053604,0.09406525641679764,-0.09730803221464157,-0.032930247485637665,0.06787315011024475,0.09542123973369598,-0.09152932465076447,0.23027236759662628,-0.20125222206115723,-0.19061972200870514,-0.0967322289943695,-0.15086348354816437,-0.26971906423568726,-0.1940677911043167,0.06321235001087189,0.14153550565242767,0.04736665263772011,0.06560620665550232,0.07012570649385452,0.13592983782291412,-0.02505394257605076,-0.15382172167301178,-0.11186539381742477,0.05673519894480705,-0.02309633418917656,0.05512472614645958,-0.02271912805736065,-0.2923809289932251,-0.16123448312282562,0.2698662579059601,-0.2575199007987976,0.021504471078515053,0.13490255177021027,0.008594052866101265,-0.08048714697360992,0.06806352734565735,0.05436564236879349,0.13114376366138458,0.04502293840050697,-0.130141943693161,-0.1759200096130371,0.1036468893289566,-0.20084309577941895,-0.21654728055000305,0.14599984884262085,-0.1950225681066513,0.020013874396681786,0.0643659308552742,-0.016046646982431412,-0.009372737258672714,0.17115949094295502,-0.019570402801036835,0.009984607808291912,-0.09434640407562256,0.1906426101922989,-0.4726274907588959,0.02227802388370037,-0.10382839292287827,-0.02729760855436325,-0.4344654977321625,-0.22007296979427338,0.09675091505050659,-0.09408446401357651,-0.19912545382976532,0.41008952260017395,-0.14219294488430023,0.04072039946913719,-0.15471528470516205,-0.37314659357070923,0.08998376876115799,-0.10407934337854385,0.17880427837371826,-0.03801135718822479,-0.00032934610499069095,0.044580504298210144,0.3168278932571411,0.26687970757484436,-0.18489764630794525,0.22715327143669128,0.05500533804297447,0.0001316257257713005,0.0665518268942833,0.09564405679702759,0.036225225776433945,-0.45945149660110474,0.11435650289058685,-0.2384023517370224,-0.04089302942156792,-0.1970185786485672,0.0061359950341284275,-0.0746435895562172,-0.2315678894519806,-0.1290125846862793,-0.2113199234008789,0.15607218444347382,-0.2126898318529129,-0.2961081862449646,0.015268916264176369,-0.005327475257217884,0.2709791958332062,-0.02131018228828907,0.11214788258075714,-0.02580990269780159,0.18996240198612213,0.136452779173851,0.07805462181568146,0.19976802170276642,0.10827120393514633,-0.17760701477527618,0.023837974295020103,0.2888965904712677,-0.18497689068317413,0.1666693538427353,0.25741443037986755,-0.0440901480615139,0.04777977243065834,-0.045452311635017395,0.09519172459840775,0.1014888733625412,-0.048277683556079865,-0.0016629932215437293,0.09053244441747665,0.027567800134420395,0.12405800074338913,0.09532944113016129,-0.07623323798179626,-0.17809897661209106,-0.13112753629684448,0.050557177513837814,0.08172660320997238,-0.018719401210546494,0.2469020038843155,-0.12988346815109253,0.046690262854099274,0.27884674072265625,0.08240976929664612,-0.05645225569605827,0.051706790924072266,-0.1203092411160469,0.09007740020751953,0.08771751821041107,-0.28716930747032166,-0.13808032870292664,0.2452312558889389,-0.11275026947259903,-0.031483568251132965,0.01881321892142296,-0.05376100540161133,0.11554375290870667,0.0030094441026449203,-0.025067036971449852,0.03428078815340996,0.12003331631422043,0.1366967409849167,0.17857030034065247,-0.019943883642554283,0.06663672626018524,0.23757320642471313,0.14937444031238556,0.09776727110147476,0.24843424558639526,-0.04403983801603317,-0.06592556089162827,-0.2300533652305603,0.0010367396753281355,0.21207109093666077,-0.19699029624462128,-0.0020830449648201466,0.1755334436893463,-0.07703989744186401,0.022680101916193962,-0.08277248591184616,-0.04158153757452965,0.24203644692897797,-0.12971319258213043,-0.33430466055870056,0.005362923257052898,0.16978207230567932,0.0453437864780426,0.19896148145198822,-0.03318844363093376,-0.0910007432103157,-0.0227996613830328,-0.06922437250614166,-0.027456331998109818,-0.14577414095401764,-0.02756422385573387,0.06037699058651924,0.07149452716112137,-0.05402074381709099,0.10895073413848877,0.19291415810585022,0.14999441802501678,0.15338531136512756,-0.11229629069566727,-0.045722492039203644,-0.22475069761276245,-0.07313349843025208,-0.038080886006355286,0.17319948971271515,0.07069960981607437,-0.1490025818347931,0.07810479402542114,0.22624728083610535,0.1740725040435791,-0.145444855093956,0.1373177021741867,-0.2245592623949051,-0.0033054726663976908,-0.019481875002384186,-0.1211148053407669,-0.268690288066864,-0.1206669807434082,0.10351857542991638,0.0447164811193943,0.03150203078985214,0.027328243479132652,-0.012707304209470749,-0.10935131460428238,0.10240042209625244,-0.06840996444225311,0.16292423009872437,0.0852927640080452,-0.06914183497428894,0.11136674880981445,0.016750240698456764,0.034159332513809204,-0.06490232050418854,-0.11183004081249237,-0.0915662869811058,0.027778353542089462,0.09161747992038727,-0.06582470238208771,-0.07782573997974396,-0.26680099964141846,0.04120771959424019,-0.19884838163852692,-0.04917478188872337,-0.006749880500137806,0.1202879324555397,-0.04864121600985527,-0.1293865293264389,0.053453851491212845,0.00667979521676898,-0.24840803444385529,0.002192489802837372,-0.10915706306695938,-0.0542471706867218,-0.11781582236289978,-0.12748722732067108,-0.023980412632226944,0.16031010448932648,0.1720149666070938,-0.24280153214931488,-0.2521149814128876,-0.2066243588924408,-0.12780672311782837,-0.024708840996026993,0.09497486054897308,-0.34062761068344116,0.001042147632688284,0.17026960849761963,-0.1438256800174713,-0.23498988151550293,-0.2583369314670563,0.06215383857488632,-0.15407370030879974,-0.14263735711574554,0.131308913230896,0.15443266928195953,0.05323241651058197,0.19965791702270508,0.17753802239894867,0.19372613728046417,0.24089999496936798,-0.07570946216583252,0.040597833693027496,-0.4765424430370331,-0.33644354343414307,-0.12689600884914398,0.061499807983636856,-0.23853574693202972,-0.06358493864536285,0.07503670454025269,0.00969786662608385,-0.06886164844036102,-0.09094597399234772,-0.07002215832471848,-0.07108478248119354,-0.38986992835998535,-0.042759209871292114,-0.12826146185398102,-0.07203125953674316,-0.10392037779092789,-0.03419147804379463,0.44308099150657654,0.02859726920723915,0.44375932216644287,0.08164538443088531,-0.20171339809894562,0.019152838736772537,-0.09082942456007004,0.09864284098148346,0.05198003724217415,-0.14340128004550934,-0.04712841659784317,-0.3475768566131592,0.008821374736726284,-0.12100356072187424,-0.09793958812952042,0.15087316930294037,-0.009749231860041618,-0.005431285127997398,-0.06771290302276611,0.0472610741853714,-0.20980249345302582,-0.642977774143219,0.3872835338115692,0.4380165636539459,-0.05763653293251991,-0.14419180154800415,-0.05909634754061699,-0.04199735075235367,-0.03533916175365448,-0.02722223848104477,0.02636786177754402,-0.023820003494620323,0.1673198938369751,-0.039538756012916565,0.1040588915348053,0.15714818239212036,-0.0759505182504654,-0.28599050641059875,-0.012205999344587326,-0.021840602159500122,-0.14312373101711273,0.01940419338643551,-0.08529908955097198,-0.14808374643325806,-0.0628923699259758,-0.07129155844449997,0.02644493617117405,-0.0025749208871275187,0.24306610226631165,-0.08296798169612885,0.05639944225549698,0.045940373092889786,-0.1512036919593811,-0.03378009796142578,-0.15522944927215576,0.07818259298801422,-0.027600234374403954,-0.03303620219230652,0.1233939602971077,-0.033792100846767426,0.11570169776678085,0.10571245849132538,-0.08811185508966446,-0.07732769101858139,-0.13798370957374573,-0.05598685145378113,0.05212758481502533,-0.07025019079446793,-0.1440025269985199,0.053073082119226456,0.13803298771381378,-0.098161980509758,0.08769436925649643,0.1611180305480957,-0.08697835355997086,0.020624464377760887,0.005896842107176781,0.005683444440364838,0.1918526291847229,0.0650034174323082,-0.1745099127292633,0.2676904797554016,-0.09494277834892273,-0.30106478929519653,-0.08610228449106216,0.17537902295589447,0.037866756319999695,0.005299138370901346,0.17915016412734985,-0.017363470047712326,0.13084380328655243,-0.11397510021924973,0.07082757353782654,0.04152487963438034,0.036741454154253006,-0.08364390581846237,0.003565215738490224,-0.16583041846752167,0.23517291247844696,-0.05379265546798706,-0.08866141736507416,-0.04925089702010155,-0.011890553869307041,0.004759859759360552,0.07299366593360901,0.13590480387210846,0.10361669957637787,0.145821675658226,0.017079029232263565,0.011203288100659847,-0.18093644082546234,-0.204975888133049,-0.24469324946403503,0.08946506679058075,-0.03978484496474266,0.016866410151124,0.018547555431723595,0.17956756055355072,-0.06345982849597931,-0.05475790426135063,-0.04307285323739052,0.06992903351783752,-0.09856179356575012,-0.13607871532440186,0.16483059525489807,-0.025749513879418373,0.06060107424855232,-0.10851816833019257,-0.19579482078552246,0.08842736482620239,-0.19221258163452148,-0.15307117998600006,-0.3544279634952545,0.1109810471534729,0.032553426921367645,-0.043966393917798996,0.07993699610233307,-0.18778875470161438,0.13570375740528107,-0.00784257985651493,0.13494636118412018,0.16768600046634674,-0.1399228274822235,0.12660007178783417,-0.1863039880990982,-0.07237095385789871,0.024622736498713493,0.016566202044487,0.018471043556928635,0.020382311195135117,0.16895967721939087,-0.018632667139172554,-0.23362885415554047,-0.15247179567813873,-0.05144822970032692,0.03417041897773743,0.1644229143857956,-0.005993701983243227,0.05190243571996689,0.0758165493607521,0.1816309094429016,-0.15490105748176575,-0.11974546313285828,0.024023156613111496,-0.07176525890827179,0.18967273831367493,-0.2748132646083832,0.015051704831421375,0.13125886023044586,0.025512466207146645,0.027055639773607254,0.05069528892636299,0.18053868412971497,-0.07595500349998474,0.07512281090021133,-0.04766429588198662,-0.1208086684346199,-0.028301116079092026,-0.11576298624277115,0.2578335404396057,0.06794245541095734,0.10140257328748703,-0.05743904784321785,0.01966601423919201,0.12571091949939728,-0.044584646821022034,0.11281637847423553,0.0167095810174942,0.049594901502132416,-0.009291883558034897,0.036813654005527496,0.06544695794582367,-0.011723487637937069,0.0031524007208645344,-0.20356078445911407,-0.08049245923757553,-0.08912254124879837,0.16424411535263062,-0.030058765783905983,-0.27938467264175415,0.05575571581721306,-0.20939163863658905,-0.4479793310165405,-0.021948382258415222,-0.037134915590286255,-0.2043377012014389,-0.029921667650341988,-0.016936419531702995,0.047573912888765335,-0.08574116230010986,0.050504088401794434,0.05420805886387825,0.15121378004550934,-0.16895101964473724,-0.281748503446579,0.025859443470835686,-0.10701058059930801,0.09379306435585022,0.10941348224878311,0.16119378805160522,-0.19564931094646454,0.08111806958913803,0.14187933504581451,-0.20949503779411316,0.031208058819174767,0.05295569449663162,0.14083299040794373,-0.09267272800207138,-0.0043289558961987495,-0.1518426388502121,0.23535512387752533,-0.08214988559484482,-0.32394957542419434,-0.1003701388835907,0.0522838793694973,-0.1135646402835846,0.10689371824264526,-0.12867724895477295,0.11679846048355103,0.013073009438812733,0.04018754884600639,-0.19836367666721344,-0.11834228783845901,0.18503007292747498,-0.04417164623737335,0.03789600357413292,-0.017747772857546806,-0.06129581853747368,-0.19655612111091614,0.07685543596744537,0.05908455699682236,0.002564870985224843,-0.08203214406967163,-0.05075680837035179,-0.10804302990436554,-0.02845848724246025,0.1413343995809555,-0.18811166286468506,-0.0076050362549722195,-0.11391758173704147,0.05193963274359703,0.021339114755392075,0.24072209000587463,-0.13344426453113556,-0.1419181227684021,0.07329965382814407,-0.011821473948657513,0.05695084482431412,-0.00748859578743577,-0.027682917192578316,-0.19693604111671448,-0.0344344824552536,0.1724209487438202,-0.14255774021148682,0.12646789848804474,0.01688210852444172,0.19515728950500488,-0.053900331258773804,-0.003235377138480544,0.15640276670455933,0.04680280387401581,0.0758281946182251,-0.06258588284254074,0.0710131898522377,-0.0264421533793211,0.21823745965957642,-0.04810187965631485,0.01656254567205906,-0.2925511598587036,-0.09564366936683655,0.08646608889102936,-0.2171621471643448,0.08440228551626205,0.002828800119459629,0.0978996604681015,-0.08359774202108383,-0.01967034488916397,0.12784473598003387,-0.053637199103832245,0.24229758977890015,0.10750813782215118,0.028473086655139923,-0.03387710452079773,-0.18464131653308868,0.03549288958311081,0.09419658035039902,-0.1456606090068817,-0.05125563219189644,-0.18012908101081848,-0.061619240790605545,0.04585528001189232,0.07584666460752487,0.013524670153856277,-0.12161339074373245,0.11629464477300644,-0.0516793355345726,0.00032210344215855,0.17382679879665375,0.20527897775173187,-0.11235933750867844,-0.1254107654094696,-0.15292994678020477,-0.020915301516652107,-0.06208503246307373,-0.18272612988948822,-0.001022726995870471,0.09381045401096344,-0.20075175166130066,-0.21240749955177307,0.014842778444290161,0.16446980834007263,0.14128009974956512,0.10776816308498383,-0.11313674598932266,0.12032634019851685,0.20610564947128296,0.1562212109565735,0.03573324903845787,0.024998655542731285,0.04940532147884369,-0.0702546089887619,0.17591825127601624,0.027965493500232697,0.11097796261310577,0.15178713202476501,-0.09626851975917816,-0.07522806525230408,0.006279305089265108,-0.013903053477406502,-0.1314792037010193,0.019731739535927773,0.19848620891571045,-0.054453957825899124,0.13200412690639496,-0.13726763427257538,-0.057997554540634155,0.07314925640821457,-0.1584903597831726,0.018561219796538353,0.08473694324493408,-0.1414710283279419,0.04956279695034027,0.013594355434179306,0.029465897008776665,-0.09219208359718323,0.042518459260463715,-0.060095179826021194,-0.09367505460977554,-0.041400279849767685,-0.052025265991687775,-0.12258238345384598,-0.003244721330702305,0.16490325331687927,0.15563204884529114,-0.03260546177625656,0.04404541850090027,0.13075391948223114,0.010742869228124619,-0.07462883740663528,0.07497934997081757,0.046162042766809464,-0.04340524598956108,0.15470483899116516,0.21791230142116547,-0.09363649785518646,0.20189207792282104,0.016187692061066628,-0.13929146528244019,0.08041904866695404,-0.0821806937456131,0.20902438461780548,0.15851165354251862,0.0319911427795887,-0.11475121229887009,0.20300187170505524,0.21900422871112823,-0.17614209651947021,-0.14452405273914337,0.11948246508836746,0.08863246440887451,0.018918614834547043,-0.10664109885692596,-0.15065030753612518,0.04659559950232506,-0.11060382425785065,0.41907888650894165,-0.23867234587669373,-0.1859906166791916,0.03377986699342728,-0.07204927504062653,0.16454482078552246,-0.09907904267311096,0.14558576047420502,-0.19006940722465515,0.021393055096268654,-0.1820235699415207,-0.04054925963282585,-0.26983383297920227,-0.15129782259464264,0.11531250923871994,0.010592631995677948,0.21068830788135529,-0.01541556790471077,0.16692733764648438,0.1491813063621521,-0.033733516931533813,0.008643411099910736,0.015558351762592793,0.23554562032222748,0.07658340781927109,-0.041824351996183395,0.06600071489810944,-0.11682749539613724,0.18676067888736725,0.06892415881156921,-0.2789492905139923,-0.06758340448141098,0.11227956414222717,0.11532296240329742,-0.011914144270122051,-0.04643990471959114,0.05560482665896416,0.016151128336787224,0.02078731171786785,0.028678087517619133,0.4156500995159149,0.20186305046081543,0.8593951463699341,-0.6089301109313965,-0.44812148809432983,0.19290833175182343,0.11566734313964844,-0.13492661714553833,0.35068243741989136,0.23381756246089935,-0.8451089262962341,0.20927248895168304,-0.07056820392608643,-0.7711458206176758,-0.003977683372795582,-0.2713474929332733,-0.018759746104478836,-0.14894795417785645,0.2296648472547531,-0.09575174003839493,0.06928762048482895,0.15416289865970612,-0.09400448203086853,-0.07139071822166443,-0.08381357789039612,0.12112326174974442,-0.15094086527824402,0.012474029324948788,0.00026196229737251997,-0.09048233926296234,0.11298348009586334,-0.01129851397126913,-0.30108895897865295,-0.18852557241916656,0.22160601615905762,-0.2829740643501282,0.12538719177246094,0.11693896353244781,0.15289495885372162,-0.37909793853759766,-0.1103871613740921,-0.14864932000637054,-0.09832534939050674,0.26524436473846436,0.0414651595056057,-0.027986755594611168,0.21466487646102905,0.16847005486488342,0.18866848945617676,0.16367973387241364,-0.08990252763032913,-0.40809550881385803,-0.0430636927485466,-0.3041527569293976,-0.24820487201213837,-0.11993424594402313,0.22217115759849548,-0.13613957166671753,0.06329991668462753,-0.030652375891804695,0.07897073030471802,0.23294667899608612,-0.08166247606277466,0.00009573888382874429,-0.14434781670570374,-0.015074900351464748,-0.187937393784523,0.23803941905498505,0.19744467735290527,0.20329241454601288,0.24617022275924683,0.22139640152454376,-0.4060569107532501,-0.3105538487434387,0.0656236931681633,-0.12972652912139893,0.24062980711460114,0.19217558205127716,-0.06704214960336685,-0.28069594502449036,0.2105693370103836,-0.03821162134408951,-0.01771434210240841,-0.011684362776577473,0.028709692880511284,0.08873971551656723,0.07707291096448898,-0.055104076862335205,0.3067369759082794,0.2694341540336609,0.024173755198717117,0.15516850352287292,-0.14240601658821106,-0.1941477656364441,-0.24957157671451569,-0.21087947487831116,-0.16113023459911346,0.2223622053861618,0.03468480706214905,0.23057302832603455,-0.24903348088264465,0.21018147468566895,0.015310115180909634,-0.11743318289518356,0.24137189984321594,0.12074391543865204,-0.25406020879745483,0.1843830645084381,-0.07857224345207214,0.006463601719588041,-0.23096956312656403,-0.30222439765930176,0.05270056426525116,-0.1127062737941742,-0.004856755957007408,-0.009991305880248547,-0.0793110802769661,-0.20918411016464233,0.15702717006206512,0.10174253582954407,-0.1841660887002945,0.14289967715740204,0.1648051142692566,0.09947685897350311,0.030115865170955658,-0.0008536131936125457,0.027228306978940964,-0.19752010703086853,-0.036747612059116364,0.3651922941207886,-0.3092783987522125,0.27796629071235657,0.22727030515670776,-0.4306117594242096,-0.31325697898864746,0.03208988532423973,0.20996376872062683,0.19947347044944763,0.05392998084425926,-0.10766777396202087,-0.16699810326099396,0.21549765765666962,0.05422550067305565,-0.11156860738992691,-0.3308815658092499,0.1612814962863922,-0.13458503782749176,-0.06524284183979034,0.062410853803157806,0.028626907616853714,-0.28724655508995056,-0.4860515594482422,-0.1404017210006714,0.012880651280283928,-0.22178015112876892,-0.15129096806049347,0.39306098222732544,0.08229297399520874,0.0021048402413725853,0.19838757812976837,-0.084523506462574,0.28159064054489136,0.0812198594212532,0.17941877245903015,-0.1588408648967743,0.09185793995857239,-0.1775406002998352,0.10171341896057129,-0.3524561822414398,-0.006044969893991947,0.05943605303764343,-0.22735798358917236,0.2567234933376312,-0.10438364744186401,0.17448453605175018,0.295235812664032,-0.07435917854309082,0.20702537894248962,-0.1232721358537674,-0.09173456579446793,-0.10007935017347336,-0.03034263290464878,0.0669945701956749,-0.12168378382921219,0.1512000560760498,0.005764959845691919,-0.029000453650951385,0.029205717146396637,-0.21157386898994446,0.22541800141334534,0.022903049364686012,0.005158409476280212,0.23718824982643127,0.30298325419425964,-0.08948797732591629,-0.16387194395065308,-0.05086417496204376,-0.24242182075977325,-0.014359066262841225,-0.022087110206484795,-0.06690198928117752,0.159060999751091,0.22213128209114075,0.24980071187019348,-0.2636961340904236,0.36098718643188477,-0.2198418229818344,-0.1387566328048706,0.14922098815441132,0.24490168690681458,0.19524091482162476,0.3889866769313812,-0.25225093960762024,0.07209611684083939,-0.2318601757287979,-0.07889866828918457,0.31710371375083923,0.2639918625354767,-0.3678266406059265,-0.18824245035648346,-0.24700301885604858,0.1586972177028656,-0.16128061711788177,-0.35174551606178284,-0.20048846304416656,0.07135602086782455,0.13181185722351074,0.16921059787273407,-0.08746910840272903,0.07371882349252701,-0.126474529504776,-0.06170569360256195,-0.025546105578541756,0.22001396119594574,0.07956595718860626,-0.10976988077163696,-0.16736817359924316,-0.20039692521095276,-0.14688755571842194,0.01968424767255783,0.24668347835540771,0.09915247559547424,0.10576090216636658,-0.010997245088219643,-0.1449209749698639,-0.16038881242275238,0.10596869885921478,0.13390640914440155,-0.10804159939289093,0.0046001821756362915,-0.2043345421552658,0.05156832933425903,0.02899003028869629,0.19802285730838776,0.026389257982373238,0.1781640201807022,-0.28985339403152466,-0.13758663833141327,-0.3049061596393585,-0.16884875297546387,-0.14054043591022491,0.04190247505903244,0.25980883836746216,0.228507861495018,-0.274101197719574,-0.30216678977012634,-0.20929425954818726,-0.03974994644522667,0.3054502010345459,-0.40311723947525024,0.32821783423423767,-0.12888269126415253,-0.21220146119594574,0.10777199268341064,0.06306541711091995,-0.016089681535959244,0.040629349648952484,-0.0838845744729042,0.12171842157840729,0.04053279384970665,-0.276713490486145,0.01330791600048542,0.16915272176265717,0.03404903784394264,-0.01695396937429905,-0.15610787272453308,-0.05339141935110092,0.05375659093260765,0.09586271643638611,-0.005940075032413006,-0.1301230788230896,-0.016420625150203705,0.1958315223455429,-0.16698332130908966,0.0048458268865942955,0.1307293325662613,-0.08975669741630554,0.04619218409061432,-0.2785547375679016,0.10332603007555008,0.007950040511786938,-0.013303608633577824,-0.14612703025341034,0.1722237765789032,0.029146989807486534,-0.007192261982709169,-0.007840447127819061,0.006747925188392401,0.12511864304542542,0.16586947441101074,0.18055811524391174,-0.07448875159025192,0.011250268667936325,-0.17181527614593506,0.09086281061172485,0.19060677289962769,-0.08485455811023712,0.12203866243362427,0.021023249253630638,-0.011570170521736145,0.02989603579044342,0.07732408493757248,-0.059263359755277634,-0.15034209191799164,0.06144053861498833,0.06493663787841797,0.03631218895316124,-0.17588524520397186,-0.15678638219833374,0.015889430418610573,0.0235285684466362,-0.27658143639564514,0.0725962221622467,0.12515680491924286,0.11322887986898422,-0.23578093945980072,-0.1405525505542755,-0.08020032942295074,0.5659348964691162,0.12995684146881104,-0.17663493752479553,0.4351083040237427,-0.20186631381511688,-0.20650312304496765,-0.22171011567115784,-0.032172661274671555,0.3630110025405884,-0.9258881211280823,0.13033556938171387,0.019686071202158928,0.11144260317087173,0.062201354652643204,-0.038764555007219315,0.20015902817249298,-0.2163209468126297,0.043512508273124695,0.10113382339477539,-0.2729748487472534,-0.21261166036128998,-0.30681759119033813,0.13403953611850739,0.21486510336399078,0.08463022112846375,0.2015504091978073,-0.04016263410449028,0.5042555928230286,0.019517870619893074,-0.1024210974574089,-0.5013031959533691,-0.16915129125118256,-0.26167532801628113,-0.27587154507637024,-0.3175951838493347,-0.3596818149089813,0.252392053604126,-0.0016207213047891855,0.031084785237908363,0.10494184494018555,0.2635384500026703,0.25353169441223145,-0.5623850226402283,-0.13576216995716095,-0.03121069073677063,-0.07377248257398605,-0.09142284840345383,-0.32912594079971313,0.015413440763950348,-0.1384659856557846,0.15399348735809326,0.04333467781543732,0.008028912357985973,-0.11446034908294678,0.04653814062476158,-0.1574079990386963,0.11980530619621277,0.022979920729994774,-0.022054947912693024,-0.27200719714164734,0.03056778945028782,0.21402931213378906,0.00515326764434576,0.18862733244895935,-0.05668652802705765,0.08569855988025665,-0.14628176391124725,-0.10684777796268463,-0.042682401835918427,-0.0539238266646862,-0.19382783770561218,-0.25285542011260986,-0.050289902836084366,-0.10548072308301926,-0.16223014891147614,0.24645143747329712,0.0697561576962471,0.20689870417118073,0.11429683119058609,0.11107262223958969,-0.15664395689964294,0.038279030472040176,0.11230385303497314,-0.011536086909472942,0.03351402282714844,0.02008693292737007,0.2698005735874176,0.10320054739713669,-0.0905662551522255,-0.042254164814949036,0.07659038156270981,-0.017581481486558914,-0.20079195499420166,-0.1818511188030243,-0.08854912966489792,-0.36542052030563354,0.02814944088459015,-0.10713595151901245,0.026066675782203674,-0.15554754436016083,0.13765296339988708,0.1082652285695076,0.07489508390426636,0.056145526468753815,-0.0536506287753582,-0.07565634697675705,0.12815998494625092,0.11180900037288666,0.23943690955638885,0.0925712138414383,-0.12404647469520569,0.19597938656806946,0.04587202146649361,-0.06925196200609207,-0.0024979552254080772,0.18418775498867035,0.01547581609338522,-0.05002790316939354,-0.034267544746398926,-0.016562996432185173,0.11247415840625763,-0.17496483027935028,-0.0069124517031013966,0.11828089505434036,0.016376586630940437,0.18297581374645233,0.02530481293797493,-0.004019974730908871,-0.2662535607814789,0.02317277155816555,0.10330517590045929,0.022692332044243813,0.01943577267229557,-0.0856676995754242,0.34338733553886414,-0.13411010801792145,0.08195921033620834,-0.006879385095089674,0.07890767604112625,0.17855408787727356,-0.05660010874271393,-0.17110565304756165,0.0065986113622784615,0.31496694684028625,-0.031214313581585884,-0.05356504023075104,0.03792976960539818,0.19790567457675934,-0.06412171572446823,0.15384796261787415,0.11422733962535858,-0.03352703899145126,-0.011170251294970512,0.17414551973342896,0.22490324079990387,0.048867855221033096,-0.09561997652053833,0.21391741931438446,0.12468761950731277,-0.2935270667076111,0.03748932108283043,-0.06824047863483429,-0.009082932956516743,0.07046151906251907,0.1490384340286255,-0.04646328091621399,-0.01637302339076996,-0.002202341565862298,0.1879456788301468,-0.02894933894276619,0.052855443209409714,0.20585812628269196,-0.17557594180107117,-0.0014004789991304278,0.010301296599209309,0.06772997975349426,0.09331963956356049,-0.2738375961780548,-0.12015821039676666,0.11164243519306183,-0.22815655171871185,-0.12154570966959,-0.22918081283569336,0.08066605031490326,-0.08155186474323273,-0.2735394835472107,0.18686871230602264,0.02333163097500801,0.15975700318813324,0.1282578408718109,-0.08289310336112976,0.3041408658027649,-0.17454665899276733,0.08099812269210815,0.058891355991363525,-0.017984922975301743,0.0839095339179039,0.0424790196120739,-0.01794736459851265,-0.0278075709939003,-0.055970773100852966,0.053190357983112335,-0.10969499498605728,0.003609132021665573,-0.0667463168501854,-0.16527411341667175,0.06965512037277222,0.023686256259679794,0.1468915492296219,-0.09002603590488434,-0.12558616697788239,-0.09549954533576965,0.026358211413025856,0.007815062068402767,0.04821516573429108,-0.12952552735805511,0.02085055224597454,0.005126176401972771,-0.008642871864140034,-0.014811028726398945,0.10470457375049591,-0.09405975788831711,0.06848084926605225,-0.1632545441389084,0.3235936462879181,-0.0041346317157149315,0.03969186916947365,-0.006973634473979473,-0.139204740524292,-0.07200057804584503,-0.22590115666389465,-0.010656287893652916,0.0664871335029602,0.08637527376413345,-0.01669871248304844,0.09855200350284576,0.2868882119655609,0.08861887454986572,-0.2542531192302704,0.33376991748809814,0.15026670694351196,-0.11067327111959457,0.04631335660815239,-0.26962530612945557,-0.17159275710582733,-0.33796700835227966,0.0023348345421254635,0.22662200033664703,-0.30423951148986816,0.1431484967470169,0.10255800187587738,0.20680928230285645,0.010679492726922035,0.022400563582777977,0.25042834877967834,0.27310487627983093,-0.005407020449638367,0.138132244348526,-0.28504678606987,-0.2190549224615097,-0.2575511634349823,-0.09596580266952515,-0.004872766323387623,-0.27834761142730713,0.3789362609386444,0.052940428256988525,0.2646176517009735,0.18344838917255402,0.014939515851438046,-0.14244115352630615,-0.12155178189277649,-0.12456005066633224,-0.057920899242162704,0.012383807450532913,-0.3194892704486847,0.10610757768154144,0.15041567385196686,0.18429705500602722,-0.014995929785072803,0.08333547413349152,0.07340338081121445,-0.2284579575061798,0.1123017892241478,-0.018100636079907417,-0.03679170832037926,0.3968382775783539,0.22424262762069702,-0.21370920538902283,0.07190226018428802,-0.12674064934253693,0.06452525407075882,-0.04575914517045021,0.01008815411478281,-0.011185958050191402,0.09566337615251541,0.04957973212003708,0.10324018448591232,0.015930229797959328,0.0738554298877716,-0.13452380895614624,-0.029176754876971245,0.05204763263463974,-0.19466087222099304,-0.10280555486679077,-0.14799728989601135,0.060248762369155884,-0.03487333282828331,0.1333819180727005,-0.04718003049492836,-0.03105277754366398,-0.14142146706581116,0.23905281722545624,0.07823200523853302,-0.21430587768554688,0.04934089258313179,0.004399938974529505,-0.1865444928407669,0.08911458402872086,0.07614637166261673,-0.0035732148680835962,-0.2264597862958908,0.09359199553728104,0.1984090358018875,-0.02851603366434574,-0.08681514859199524,-0.1546553522348404,0.24264714121818542,-0.0715097039937973,-0.16208581626415253,-0.16765907406806946,-0.07957296073436737,0.07264506071805954,-0.11915846914052963,-0.14980217814445496,0.032971691340208054,0.21420519053936005,-0.02509382925927639,-0.058785054832696915,-0.04285672679543495,0.04630061611533165,-0.1767873615026474,-0.04696057736873627,-0.08521124720573425,-0.036819301545619965,-0.10945826768875122,-0.0815708190202713,0.1424957662820816,-0.06760811060667038,-0.07568888366222382,0.07609279453754425,0.05003491789102554,-0.09554076194763184,-0.11383822560310364,-0.23984572291374207,0.12516774237155914,0.15232296288013458,-0.14967596530914307,-0.08805626630783081,0.06162331625819206,-0.14266112446784973,-0.11620010435581207,0.03271898627281189,-0.06392263621091843,0.16980953514575958,-0.10437709093093872,-0.06199554353952408,0.06837765127420425,-0.1562574803829193,0.3020474314689636,-0.21008184552192688,0.14175790548324585,0.0189201682806015,-0.18029902875423431,-0.14042921364307404,-0.22042135894298553,0.098416268825531,0.029017968103289604,0.023524148389697075,-0.08133624494075775,-0.28305956721305847,0.17129209637641907,0.20709176361560822,0.0255010724067688,-0.1944953352212906,0.0757608413696289,-0.06810591369867325,0.05126916244626045,-0.10187246650457382,0.163656547665596,0.028431707993149757,-0.13706821203231812,-0.023975292220711708,-0.030445247888565063,-0.15393619239330292,-0.17174378037452698,-0.10201884061098099,0.10830722749233246,0.08858507871627808,-0.09881353378295898,0.16789831221103668,-0.022788185626268387,0.1355714201927185,-0.1220158115029335,0.07524179667234421,0.13410507142543793,0.012277819216251373,-0.1305772066116333,0.019737886264920235,0.06722822040319443,-0.12810856103897095,-0.12178195267915726,-0.022155866026878357,0.05487149581313133,0.15714113414287567,-0.16953159868717194,0.1343473494052887,-0.17891925573349,-0.06975134462118149,0.09905365109443665,-0.010927434079349041,0.003657004563137889,-0.06591080874204636,0.20391476154327393,-0.060527730733156204,0.06112554296851158,0.08482155948877335,-0.16105994582176208,-0.19168256223201752,-0.03828824311494827,-0.10788735002279282,-0.08763366937637329,0.3528446555137634,-0.045845773071050644,0.13446269929409027,0.00954524427652359,0.10868231952190399,-0.004694498609751463,0.06670800596475601,-0.10430072247982025,-0.006020554341375828,0.0036116410046815872,0.12558959424495697,-0.10604777187108994,0.016172517091035843,0.07130840420722961,-0.14197468757629395,0.2453252226114273,-0.08721160143613815,0.033021826297044754,-0.12064389884471893,-0.015104205347597599,-0.08029081672430038,-0.040648721158504486,-0.10149149596691132,0.2836962640285492,-0.09822620451450348,-0.03938884660601616,-0.04084046557545662,0.01904298923909664,0.0035424665547907352,0.09555332362651825,0.006187631282955408,0.031179387122392654,0.010496217757463455,0.27341416478157043,-0.14584693312644958,-0.07758776843547821,0.12675288319587708,0.018756883218884468,-0.04687309265136719,-0.2669002115726471,0.16456061601638794,