{"version":"0.5.4","metadata":{"date":{"year":2026,"month":1,"day":3,"hour":16,"minute":44,"second":41},"loudness":-17.599294662475586,"gain":0.7018477826528949,"name":"Philips EL3541D Mic input 100%","modeled_by":"minddebris","gear_type":"studio","gear_make":"tz-make","gear_model":"tz-model","tone_type":"overdrive","input_level_dbu":null,"output_level_dbu":null,"training":{"settings":{"ignore_checks":true},"data":{"latency":{"manual":0,"calibration":{"algorithm_version":1,"delays":[1],"safety_factor":1,"recommended":0,"warnings":{"matches_lookahead":false,"disagreement_too_high":false}}},"checks":{"version":4,"passed":false}},"validation_esr":0.012489082562228632}},"architecture":"WaveNet","config":{"layers":[{"input_size":1,"condition_size":1,"head_size":8,"channels":16,"kernel_size":3,"dilations":[1,2,4,8,16,32,64,128,256,512],"activation":"Tanh","gated":false,"head_bias":false},{"input_size":16,"condition_size":1,"head_size":1,"channels":8,"kernel_size":3,"dilations":[1,2,4,8,16,32,64,128,256,512],"activation":"Tanh","gated":false,"head_bias":true}],"head":null,"head_scale":0.02},"weights":[0.001177172176539898,0.5806336998939514,-0.8802775740623474,-0.7199877500534058,-0.3779357373714447,0.3060365319252014,-0.002165996702387929,0.8252524137496948,-0.07025289535522461,0.2566972076892853,-0.38309839367866516,-0.18891006708145142,-0.9687160849571228,-0.7326288819313049,-0.5432454347610474,0.059699129313230515,0.11286264657974243,0.19853459298610687,-0.11561977863311768,-0.005529377609491348,0.10589496791362762,-0.047311414033174515,-0.09908632189035416,0.05518064275383949,0.1368858516216278,-0.05276598408818245,0.07820297032594681,0.02590624988079071,-0.15507641434669495,-0.08575073629617691,0.10699664801359177,0.1852649450302124,-0.04767339676618576,-0.23686163127422333,0.09502466022968292,-0.07119506597518921,0.11368709802627563,0.1931046098470688,0.11712472885847092,-0.09074505418539047,-0.01604718156158924,-0.09617581963539124,0.22672432661056519,-0.0777592882514,-0.05641315504908562,-0.24392563104629517,0.03097422979772091,0.03904290124773979,0.10915327072143555,-0.04893391579389572,0.04941815882921219,0.32471704483032227,-0.01128114853054285,-0.03498458117246628,0.2568844258785248,-0.15268246829509735,-0.026507524773478508,0.05113410949707031,-0.16608427464962006,-0.12427043914794922,0.23361974954605103,0.06662873178720474,-0.0855293944478035,-0.174610435962677,0.028705721721053123,-0.3729737401008606,-0.03254269063472748,0.022210296243429184,-0.22774453461170197,0.296555757522583,-0.08573883771896362,0.2588723599910736,-0.08820173144340515,0.14307011663913727,0.43662145733833313,-0.019119232892990112,0.04802136495709419,0.17912285029888153,-0.13668547570705414,-0.10329147428274155,-0.4370255768299103,0.287317156791687,-0.11956515908241272,-0.03371645510196686,-0.17539232969284058,-0.04983791708946228,-0.3362236022949219,0.07961425185203552,0.03422141820192337,0.18768680095672607,-0.14357978105545044,0.06270726770162582,-0.20043513178825378,0.21326065063476562,-0.1273335963487625,0.21341989934444427,-0.08617542684078217,0.02634477987885475,0.19357213377952576,-0.2603512704372406,0.16090159118175507,0.4119910001754761,-0.20909364521503448,-0.011739256791770458,0.17656899988651276,-0.15068039298057556,-0.08663809299468994,0.1994420439004898,-0.16005511581897736,0.054261062294244766,-0.3174267113208771,0.2808022201061249,-0.16376301646232605,0.08925849199295044,0.009181168861687183,-0.10611217468976974,0.018080322071909904,-0.01844889298081398,0.002046779729425907,-0.02220187522470951,0.07598579674959183,-0.008862851187586784,-0.12529592216014862,0.08929206430912018,-0.1481919139623642,-0.13253816962242126,-0.007528949994593859,-0.06751129776239395,-0.010065330192446709,-0.15460914373397827,-0.055796779692173004,-0.028098013252019882,-0.10860657691955566,0.01075668353587389,0.1589018553495407,-0.035275958478450775,0.03550569340586662,-0.01863262616097927,0.102987140417099,0.09570419043302536,0.17842599749565125,0.05586300790309906,0.12831567227840424,-0.05710233747959137,-0.09907710552215576,-0.06468838453292847,0.06344743818044662,0.04540444165468216,-0.0914846733212471,-0.16783925890922546,-0.11576779931783676,-0.13923832774162292,-0.08424702286720276,0.10092952102422714,0.06517153978347778,-0.1898285150527954,0.1162085086107254,-0.15600742399692535,-0.035199347883462906,-0.13988201320171356,0.014628800563514233,0.04018837586045265,-0.018383784219622612,-0.20659328997135162,-0.0739470049738884,0.005597223993390799,0.018412098288536072,0.10980895906686783,-0.12839162349700928,0.07273372262716293,0.18072645366191864,-0.058822184801101685,0.20398733019828796,0.09783773869276047,-0.13850949704647064,0.024243563413619995,-0.05531984567642212,-0.04854756221175194,0.1839626282453537,-0.06648936122655869,0.02274269424378872,-0.11338308453559875,0.048493511974811554,0.039739616215229034,0.09952333569526672,0.05371639132499695,-0.0901489183306694,-0.09874668717384338,-0.158643901348114,0.09365910291671753,0.18838635087013245,0.14359527826309204,-0.11202512681484222,0.06823036074638367,-0.07025464624166489,-0.10510276257991791,0.000867640832439065,0.10548464953899384,-0.08421704173088074,0.07935424894094467,0.05981159210205078,0.09215103089809418,-0.031194832175970078,-0.04989553242921829,-0.08943469822406769,0.08337470889091492,-0.04194436967372894,0.1876315027475357,0.022341080009937286,0.21499188244342804,-0.13977424800395966,0.005551122594624758,0.32311952114105225,-0.26700758934020996,-0.03892090916633606,-0.2848624587059021,0.11907701194286346,-0.1124994084239006,-0.1854863166809082,0.11465239524841309,-0.04147601127624512,-0.1529947966337204,0.28895583748817444,0.027221553027629852,0.16598621010780334,-0.17561137676239014,0.09183137118816376,-0.0596206896007061,0.19981545209884644,0.016874533146619797,0.30532002449035645,-0.11270023882389069,0.026860523968935013,-0.1263691782951355,0.36997541785240173,-0.0656409040093422,0.3574157655239105,-0.34528177976608276,-0.08881209790706635,-0.2542535662651062,0.29297009110450745,0.09244117885828018,-0.33421584963798523,0.25477343797683716,0.03508472815155983,-0.4445051848888397,0.3352193832397461,-0.15687566995620728,-0.30178338289260864,0.2092108577489853,-0.10906045883893967,-0.28187593817710876,0.35944536328315735,-0.06737468391656876,0.16052408516407013,-0.3445603847503662,-0.10208439826965332,0.10419202595949173,-0.09734001010656357,-0.030559813603758812,-0.033435381948947906,0.03532371670007706,0.004599457606673241,0.05562976375222206,0.08992531150579453,-0.11852070689201355,-0.09403233975172043,0.0816325917840004,0.05490290746092796,-0.008393924683332443,-0.023483801633119583,-0.010004345327615738,-0.09494059532880783,-0.0214784387499094,0.03380807116627693,-0.037610966712236404,0.2863861322402954,-0.022391466423869133,0.03823330998420715,0.0029125113505870104,-0.015100618824362755,-0.1039150133728981,-0.022143859416246414,0.17219188809394836,0.06513393670320511,0.06573929637670517,-0.11008220165967941,-0.002534917090088129,0.017422901466488838,-0.05380287021398544,-0.12008780241012573,0.11767268180847168,-0.026552392169833183,-0.05872364714741707,0.005823667161166668,-0.15954071283340454,0.045758798718452454,-0.06697636097669601,-0.008102340623736382,-0.09889259934425354,-0.025285331532359123,0.03524257615208626,-0.08026231825351715,-0.06783802062273026,-0.2252335548400879,-0.04578297957777977,-0.08231554180383682,-0.2070593684911728,0.3626364469528198,-0.1949576586484909,0.15269975364208221,-0.3243342638015747,0.22064897418022156,0.2177608162164688,-0.24524837732315063,0.2669883966445923,0.19199927151203156,-0.29458901286125183,0.2271430343389511,-0.2644914388656616,0.3073873519897461,-0.1552380472421646,-0.04228609800338745,-0.0397600457072258,0.09276705980300903,-0.14094839990139008,0.3865911066532135,-0.15134459733963013,0.3272336721420288,-0.3449576199054718,0.05488130450248718,-0.39270803332328796,0.43747633695602417,-0.08172532171010971,0.17544612288475037,-0.24924665689468384,0.28256696462631226,0.41223546862602234,-0.17258994281291962,0.29183316230773926,0.23639678955078125,-0.35215097665786743,0.29003676772117615,0.35124900937080383,-0.3897639513015747,0.30139532685279846,0.3442414700984955,-0.228079691529274,0.08189360052347183,-0.2239411473274231,0.24297022819519043,-0.04645185172557831,0.06418072432279587,0.16666218638420105,0.09846777468919754,0.15271493792533875,0.028459720313549042,0.0850737988948822,-0.1964297890663147,-0.045258525758981705,-0.11622969806194305,-0.23636043071746826,-0.1925472468137741,0.09681842476129532,-0.008798396214842796,0.06540016084909439,0.10503304749727249,-0.04723779484629631,-0.03455733507871628,-0.019217003136873245,-0.013891034759581089,0.13442401587963104,-0.027949148789048195,0.024654384702444077,-0.06214376538991928,-0.06403421610593796,0.0733763799071312,0.08442635089159012,0.13227441906929016,0.19336186349391937,0.1952884942293167,-0.031020082533359528,-0.023457929491996765,0.05979195982217789,0.03886924311518669,0.0709124356508255,0.014357857406139374,0.09296023100614548,-0.1465035229921341,-0.009875856339931488,-0.0025585158728063107,-0.1287982314825058,-0.15832820534706116,-0.09807547926902771,-0.20248906314373016,0.024266045540571213,0.08939673006534576,0.014534004963934422,-0.068063884973526,0.06767919659614563,0.05356578156352043,0.004492416977882385,-0.18410348892211914,0.22645388543605804,0.18225081264972687,-0.12377503514289856,0.040824174880981445,-0.014147176407277584,-0.04427856579422951,-0.014319212175905704,-0.20412710309028625,-0.012496116571128368,0.03575458750128746,-0.10749972611665726,-0.08383000642061234,0.03144099935889244,0.0675099715590477,-0.054207827895879745,-0.07716341316699982,-0.0003287586441729218,-0.02533024363219738,0.0073661780916154385,0.13037662208080292,0.05986851453781128,0.028044868260622025,-0.20359301567077637,0.039392173290252686,-0.026152675971388817,0.04743730276823044,0.026526745408773422,-0.1898924559354782,-0.06062948703765869,0.14231368899345398,-0.06339719891548157,-0.19887712597846985,-0.014918729662895203,-0.06657075136899948,-0.23501089215278625,0.07990504801273346,-0.2268369495868683,-0.26130643486976624,-0.1294175535440445,-0.12070250511169434,-0.020808767527341843,-0.12114521861076355,0.1524457186460495,0.002617610851302743,-0.03098469413816929,0.10014130175113678,-0.1380184292793274,0.23023360967636108,0.05642431601881981,-0.02348271943628788,0.19883951544761658,-0.0717780813574791,0.28525277972221375,-0.11770395189523697,0.09057764708995819,0.04771838337182999,-0.1673964411020279,-0.12483029812574387,0.10152627527713776,-0.09902307391166687,-0.12275555729866028,-0.1063736230134964,0.21655555069446564,0.05847525596618652,0.043772537261247635,-0.06497213244438171,-0.0675496906042099,-0.10103471577167511,0.26818761229515076,0.0717332512140274,0.11102055758237839,-0.1023985967040062,-0.154855415225029,-0.2787051200866699,0.20029489696025848,-0.0664558932185173,0.22821414470672607,-0.23658926784992218,-0.06586054712533951,0.03207361325621605,-0.06446980684995651,0.009527220390737057,0.27676522731781006,-0.03486679494380951,0.10250276327133179,0.16907908022403717,-0.17120490968227386,-0.012967037037014961,0.1804404854774475,-0.060915809124708176,-0.0745195671916008,0.004472953267395496,0.15086059272289276,-0.057161252945661545,-0.17672571539878845,0.29376399517059326,0.07179722934961319,-0.3803118169307709,0.26301589608192444,0.1376524418592453,0.3289462924003601,-0.03258644789457321,-0.014196040108799934,0.2877747416496277,-0.09712252020835876,0.013842001557350159,0.2827078104019165,-0.20396344363689423,0.04090585932135582,-0.26804226636886597,0.11778188496828079,0.012497340328991413,0.20177282392978668,-0.15224723517894745,-0.05210665985941887,-0.159529909491539,0.14108552038669586,0.057895343750715256,0.1577156037092209,-0.15726760029792786,-0.15451282262802124,-0.31587523221969604,0.0966448187828064,0.18778552114963531,0.19650477170944214,-0.16710565984249115,-0.029882030561566353,0.37076082825660706,-0.0415288507938385,-0.04277753829956055,0.12820950150489807,-0.26401790976524353,0.06350433081388474,0.2064904123544693,-0.2517283260822296,0.008177239447832108,0.26630696654319763,-0.23758560419082642,0.03160002827644348,-0.21420009434223175,0.14346109330654144,0.15308132767677307,0.15839290618896484,0.009359383024275303,0.13921256363391876,-0.21334214508533478,0.15671658515930176,-0.2725287079811096,0.02391926199197769,0.12951266765594482,-0.22630423307418823,0.18872742354869843,-0.025578856468200684,-0.16792266070842743,0.12312500923871994,0.07468005269765854,0.15345177054405212,-0.29402315616607666,-0.06274428963661194,-0.04817795380949974,0.11717277765274048,-0.08819414675235748,0.272408127784729,-0.19378237426280975,-0.012365277856588364,-0.02670443244278431,0.19984543323516846,0.08475750684738159,0.22205685079097748,-0.1941925436258316,-0.07381054013967514,-0.1544577032327652,0.27894166111946106,-0.0672604888677597,-0.27045801281929016,0.20993074774742126,0.11643631011247635,-0.17436471581459045,0.04240819439291954,-0.14342696964740753,-0.09998224675655365,0.15023113787174225,-0.08723437041044235,-0.11370887607336044,0.21612077951431274,0.09758701175451279,0.28084808588027954,-0.1435161828994751,-0.07886563241481781,-0.2045113891363144,0.011919817887246609,0.14637413620948792,-0.08951112627983093,-0.30721667408943176,0.21412836015224457,0.2945050299167633,0.31316080689430237,-0.19877788424491882,0.10092397034168243,0.0815669372677803,0.05854768306016922,0.08633450418710709,0.10829584300518036,-0.009465428069233894,-0.20790217816829681,-0.23811602592468262,0.08153431862592697,-0.0346585251390934,-0.059415239840745926,0.0021979950834065676,-0.2207658290863037,-0.13099312782287598,0.2030438631772995,0.17662495374679565,0.15381844341754913,-0.009016204625368118,-0.12322886288166046,-0.23734666407108307,0.2279183268547058,0.18222279846668243,0.032701779156923294,-0.1305253952741623,0.03185539320111275,0.28753313422203064,-0.12733346223831177,0.026553982868790627,0.17493093013763428,0.014470282942056656,0.19416269659996033,0.22791513800621033,-0.06543072313070297,0.20696820318698883,0.1427663117647171,-0.1418658047914505,-0.2290469855070114,-0.23156237602233887,0.20610485970973969,-0.04177117720246315,0.052080005407333374,0.16337339580059052,-0.07684370875358582,-0.1812971830368042,0.153895765542984,0.006443014834076166,0.20715293288230896,-0.1259033977985382,0.05386139079928398,0.1654120683670044,-0.07172451168298721,0.20108212530612946,-0.020990734919905663,-0.14226779341697693,-0.1378660500049591,-0.04784590005874634,0.16201573610305786,0.01503034494817257,0.16214881837368011,-0.013056516647338867,-0.12083982676267624,0.018505048006772995,-0.09981434047222137,0.05104323476552963,0.1719597578048706,-0.0874953418970108,0.0378582663834095,-0.11826775968074799,0.14393949508666992,-0.059434112161397934,0.057485587894916534,-0.04794135317206383,0.11229130625724792,0.1232018694281578,0.07206925749778748,0.06961922347545624,0.08393684029579163,0.08813420683145523,0.04969720169901848,0.21359972655773163,-0.10950783640146255,0.06863952428102493,0.07423418015241623,0.046105824410915375,0.07453186064958572,-0.046319443732500076,-0.041993603110313416,0.0781971663236618,0.03089093416929245,-0.030411992222070694,0.024347899481654167,0.16124138236045837,0.11659806221723557,-0.10331883281469345,-0.20460185408592224,0.11665906757116318,-0.22125135362148285,-0.035191360861063004,0.037712257355451584,-0.17294123768806458,-0.00971002783626318,-0.1043405532836914,0.13189803063869476,-0.038581185042858124,-0.04819498583674431,0.02341402694582939,0.12468690425157547,0.01092926599085331,0.2076054811477661,0.05074124410748482,-0.08470315486192703,-0.1852848082780838,-0.14954891800880432,0.21311882138252258,0.06403549760580063,0.062459152191877365,0.007651057559996843,-0.0078067113645374775,0.0637684240937233,0.1441497951745987,-0.1991332769393921,-0.07094491273164749,-0.043040938675403595,-0.19908292591571808,-0.036675214767456055,0.15044784545898438,-0.22993485629558563,0.018972190096974373,-0.057176850736141205,-0.13827922940254211,0.05107984319329262,-0.010127957910299301,0.060796912759542465,-0.09823860228061676,0.03894628584384918,-0.009885094128549099,-0.1628202348947525,0.09821026027202606,-0.18401671946048737,-0.2676785886287689,0.05753175914287567,0.1983841359615326,0.11178794503211975,0.022219747304916382,0.20657888054847717,0.24707838892936707,-0.1224776953458786,0.058749306946992874,0.09779810905456543,-0.1700853705406189,-0.06776784360408783,-0.028549060225486755,0.18380801379680634,-0.01766362227499485,0.07232997566461563,-0.10959383100271225,0.02539982832968235,-0.21233539283275604,-0.05403277277946472,0.0533069409430027,0.1870962679386139,-0.22880101203918457,0.06122821196913719,-0.08726625144481659,-0.0410907119512558,0.04292311519384384,0.2688198685646057,-0.16798146069049835,0.019576990976929665,0.1812821477651596,-0.19602708518505096,0.1640145629644394,0.22906705737113953,0.04461846873164177,-0.009280093014240265,0.29553312063217163,-0.13310757279396057,0.22264428436756134,0.009116644971072674,-0.18129268288612366,0.07065644860267639,-0.0733930915594101,0.11795364320278168,0.02240687422454357,-0.0831068903207779,0.10696649551391602,-0.21244268119335175,-0.016785621643066406,0.11213544011116028,0.00820152647793293,0.14005152881145477,0.2413802295923233,0.001992204925045371,-0.13281947374343872,-0.022235184907913208,-0.17795032262802124,-0.21777194738388062,0.08483158051967621,-0.08916638046503067,0.29137203097343445,-0.2894710898399353,0.7852249145507812,-0.7111340165138245,-0.22057081758975983,0.8688299655914307,0.8245457410812378,-0.55368572473526,0.17760346829891205,0.23723554611206055,-0.3218417465686798,-0.3361890912055969,0.33932825922966003,-0.6922627091407776,0.1576998084783554,0.47038888931274414,-0.034469570964574814,0.07292794436216354,-0.04223071411252022,0.0821310505270958,0.4291287660598755,-0.12024417519569397,0.016750482842326164,-0.0625002384185791,0.010755278170108795,-0.015085027553141117,-0.11338917911052704,0.04962195083498955,-0.045827001333236694,-0.01841929368674755,0.13955159485340118,-0.17331954836845398,-0.0190599225461483,0.05733095109462738,-0.1894836574792862,0.11651451140642166,-0.2625948190689087,-0.003637696150690317,-0.31378012895584106,0.12132147699594498,-0.08826825767755508,0.22688624262809753,0.16099758446216583,0.046963103115558624,0.24884097278118134,-0.04079640284180641,0.10963750630617142,0.38768336176872253,0.015839096158742905,0.16519059240818024,-0.06264037638902664,0.308101624250412,-0.2684660851955414,-0.14532937109470367,0.09179037809371948,-0.19774764776229858,-0.13938060402870178,-0.10827494412660599,0.3285243511199951,-0.1847403645515442,0.34213975071907043,0.3691019117832184,-0.06197838485240936,0.23077097535133362,0.31775912642478943,-0.1741676777601242,0.07704988121986389,-0.17976363003253937,0.06411740183830261,0.1408051699399948,0.045387741178274155,0.0009919812437146902,-0.1769464910030365,-0.12241954356431961,-0.10806301981210709,-0.14562669396400452,0.16813889145851135,0.16473431885242462,-0.06426345556974411,-0.08279404789209366,-0.06914012879133224,-0.20446497201919556,-0.12175314128398895,0.24701537191867828,0.14996859431266785,0.1684015393257141,-0.053539250046014786,-0.055127859115600586,0.01310283225029707,0.07857757061719894,-0.150326669216156,0.12647645175457,0.027506384998559952,0.17169570922851562,-0.05126488581299782,0.06426247209310532,-0.26645374298095703,-0.07391006499528885,0.07232174277305603,-0.009726113639771938,0.2089625895023346,0.26456695795059204,0.09623993188142776,-0.04092306271195412,0.2607817053794861,0.14257308840751648,-0.22590278089046478,-0.08041969686746597,-0.08151831477880478,-0.20701806247234344,0.08516274392604828,0.03726104646921158,0.00936752650886774,0.11776818335056305,0.12878142297267914,0.1452326774597168,-0.337667316198349,-0.19524721801280975,-0.2545406222343445,0.022296931594610214,0.046085506677627563,-0.012296441942453384,-0.1113872304558754,0.2893613278865814,0.1822820007801056,-0.15998052060604095,-0.0326494537293911,-0.06815237551927567,0.16447804868221283,0.05669846758246422,0.25105375051498413,-0.340729296207428,-0.24775651097297668,0.20276057720184326,0.23228879272937775,0.11779750883579254,0.23611298203468323,-0.12840673327445984,0.15751461684703827,-0.2330123335123062,0.01314520463347435,-0.21908852458000183,-0.09243422001600266,0.044732365757226944,0.01890430971980095,0.02615499682724476,-0.24150051176548004,-0.1637307107448578,-0.030851272866129875,-0.050920967012643814,-0.06976504623889923,-0.1583714634180069,-0.26331067085266113,-0.10667811334133148,0.23470032215118408,0.09855999797582626,0.18950621783733368,-0.09111418575048447,0.01976851187646389,0.2025621235370636,-0.11103542894124985,0.12693096697330475,0.23401369154453278,-0.22124411165714264,-0.47362926602363586,0.1268431395292282,-0.06061957776546478,-0.2854571044445038,0.03304266184568405,0.35988736152648926,0.19486072659492493,0.05868393927812576,0.449502557516098,0.16655811667442322,-0.20492148399353027,0.25180622935295105,0.088160440325737,0.33245959877967834,-0.34770646691322327,0.2424597591161728,-0.2273707538843155,-0.2851238250732422,0.012346470728516579,-0.06220964342355728,-0.07877157628536224,-0.08601336181163788,-0.02173948474228382,-0.00551160704344511,0.04763147607445717,0.25230318307876587,-0.09175403416156769,0.3992217779159546,-0.20042599737644196,-0.35076776146888733,0.1835167407989502,0.022221829742193222,0.29969295859336853,-0.1823781579732895,1.0932296514511108,-0.28348326683044434,0.05819625034928322,-0.21136344969272614,-0.20261035859584808,-0.7333874106407166,-0.07308076322078705,0.08658044785261154,-0.4498318135738373,-0.22171251475811005,0.07198195159435272,-0.26478704810142517,0.13371767103672028,0.053049273788928986,0.32317379117012024,-0.11937009543180466,-0.06343352049589157,0.06246354803442955,0.25419095158576965,-0.15016482770442963,-0.2805987000465393,0.034647341817617416,0.08108335733413696,-0.20759618282318115,-0.2379765510559082,-0.02045605331659317,0.013597740791738033,-0.22809816896915436,-0.20747673511505127,0.18799562752246857,0.008532131090760231,0.09524507820606232,-0.0826369896531105,0.23885862529277802,-0.101043201982975,-0.19746950268745422,-0.01138816587626934,0.09260734915733337,-0.24628333747386932,0.017587266862392426,-0.21950900554656982,0.0815834328532219,-0.25727224349975586,0.40975549817085266,-0.19362026453018188,0.044994864612817764,-0.08890167623758316,-0.06465426832437515,0.25755277276039124,0.13069948554039001,-0.442452073097229,0.17112521827220917,0.1567680388689041,-0.18513689935207367,0.3822524845600128,0.3670182526111603,-0.3703489601612091,0.22982856631278992,0.22285643219947815,-0.07886093854904175,0.3589015305042267,-0.23553726077079773,0.03877035528421402,0.32901111245155334,0.1569138914346695,0.22110097110271454,0.04642081633210182,-0.16346852481365204,-0.18631179630756378,-0.25500068068504333,-0.04026854410767555,0.025453690439462662,0.18857167661190033,-0.20634737610816956,0.18691127002239227,-0.11559956520795822,0.2036001980304718,-0.24308782815933228,-0.3476296365261078,0.027857668697834015,0.39167916774749756,0.18696890771389008,-0.004757010843604803,-0.27042439579963684,0.1448994129896164,-0.0018958848668262362,-0.004844992887228727,0.14133493602275848,0.1412467658519745,0.050697483122348785,-0.1851121187210083,-0.21789252758026123,-0.14434616267681122,0.2546381652355194,0.05743665248155594,0.17405371367931366,-0.28314507007598877,-0.2620699107646942,-0.2821427881717682,0.02043546363711357,0.12105816602706909,0.11426975578069687,0.12123675644397736,0.07948686927556992,0.20765244960784912,0.16109827160835266,-0.02663048356771469,0.14438104629516602,-0.38937753438949585,-0.40208953619003296,-0.2637145519256592,0.015914594754576683,-0.03961239382624626,-0.06448680907487869,-0.0863267034292221,0.02595924213528633,-0.20159222185611725,0.1332646906375885,0.27972978353500366,0.14044441282749176,-0.2784624993801117,-0.2284637987613678,-0.24981063604354858,-0.13801530003547668,0.13090966641902924,0.03491576388478279,-0.3810810148715973,-0.25018370151519775,-0.3424745500087738,-0.5232234001159668,-0.41770896315574646,-0.5180875062942505,-0.2822178602218628,-0.10751894861459732,-0.2075195014476776,0.11777988821268082,-0.03419404476881027,-0.023280607536435127,-0.09398435801267624,-0.09959857165813446,0.11490678042173386,-0.06870993226766586,0.07378621399402618,0.0686696246266365,-0.1837199628353119,-0.010569512844085693,0.1436501145362854,-0.17769654095172882,0.04568466171622276,-0.055852010846138,0.05246814712882042,-0.09547863155603409,0.14782732725143433,-0.10408272594213486,-0.24916844069957733,-0.014881758019328117,0.13139253854751587,-0.10535897314548492,-0.09507536888122559,0.18281793594360352,-0.03675622493028641,-0.03966759517788887,-0.25350168347358704,0.038067251443862915,-0.09471075236797333,0.11683662235736847,0.07246656715869904,-0.19030629098415375,-0.049415890127420425,0.07829146832227707,0.02939017303287983,-0.506507158279419,-0.4287680387496948,0.40143105387687683,-0.11583572626113892,-0.11233197152614594,0.1556018888950348,-0.06295626610517502,0.02989981882274151,0.07509379088878632,-0.13965263962745667,-0.023277821019291878,0.04392177239060402,0.006752911023795605,0.07314708828926086,-0.15099851787090302,-0.06596299260854721,-0.2642380893230438,-0.046818215399980545,0.07836587727069855,0.2511550188064575,-0.09199000149965286,-0.06415427476167679,0.16825135052204132,0.17565244436264038,0.1487843096256256,-0.028126977384090424,-0.055326223373413086,0.07747478783130646,-0.03385733813047409,0.13395720720291138,0.049333035945892334,-0.0006435340037569404,0.08737734705209732,0.09349514544010162,-0.10134626924991608,-0.16236145794391632,0.018070481717586517,-0.09760501980781555,0.1374884843826294,-0.1435393989086151,-0.03761835768818855,-0.0352058932185173,-0.0788450762629509,0.1010182797908783,-0.16194483637809753,-0.18455897271633148,-0.043160706758499146,0.152978777885437,0.30104342103004456,-0.338689386844635,0.09421158581972122,0.15117736160755157,-0.06552480906248093,0.045422837138175964,-0.02260521799325943,-0.05501062422990799,0.11470109224319458,-0.15689678490161896,0.15375109016895294,0.16730037331581116,0.026117267087101936,0.07302249222993851,0.15509764850139618,-0.014850013889372349,-0.030613411217927933,0.07249057292938232,-0.2381441593170166,-0.059699565172195435,-0.08248437941074371,0.3219393193721771,-0.09418650716543198,-0.21811281144618988,0.2085680365562439,0.149277463555336,-0.03978841379284859,0.009188699536025524,-0.07509136199951172,-0.056340090930461884,-0.10258409380912781,0.1111210510134697,0.03902057185769081,0.0012326480355113745,0.0512227825820446,-0.024224773049354553,-0.2045888900756836,0.010127388872206211,0.06848050653934479,0.34008869528770447,-0.10295820236206055,-0.034793052822351456,-0.005229344125837088,-0.30647099018096924,-0.16709671914577484,0.1777319610118866,-0.15668132901191711,-0.11759836226701736,0.24021652340888977,0.21532349288463593,0.21697907149791718,0.2810783386230469,0.2232181429862976,0.10516367852687836,0.2242681384086609,-0.054997507482767105,-0.012275432236492634,0.0951806828379631,-0.049087125808000565,-0.0007009630789980292,0.022557418793439865,0.11699864268302917,0.208732008934021,-0.22188150882720947,0.03755708411335945,-0.00017820377252064645,0.23386231064796448,0.11709495633840561,-0.0020122614223510027,-0.06929720193147659,0.06429632008075714,-0.03161247447133064,-0.20900075137615204,0.0800718292593956,0.13182388246059418,-0.08269119262695312,-0.040217526257038116,-0.022829610854387283,-0.14825430512428284,0.08507034927606583,-0.10102059692144394,0.16058561205863953,-0.12558013200759888,0.05410856753587723,0.0445699580013752,0.14660359919071198,-0.011860349215567112,0.1281956434249878,0.03215856850147247,-0.012919117696583271,-0.02115660533308983,-0.10490613430738449,-0.03864289075136185,0.1421031355857849,-0.06976958364248276,0.031257450580596924,-0.37647557258605957,0.24446959793567657,0.14294634759426117,-0.46268683671951294,-0.14259254932403564,0.12699384987354279,-0.004061372950673103,-0.028330253437161446,0.10159647464752197,-0.028387924656271935,-0.13875466585159302,-0.1191609725356102,0.0681794062256813,0.008507498539984226,-0.13952000439167023,0.04987476393580437,-0.028608139604330063,-0.056734200567007065,-0.13820238411426544,0.1096697524189949,0.21974799036979675,-0.19882149994373322,-0.08452752977609634,0.1171121671795845,-0.10658015310764313,0.037773288786411285,-0.009780635125935078,-0.16776150465011597,0.04649394750595093,0.042649269104003906,0.21797963976860046,0.025438906624913216,-0.1447473019361496,0.08803403377532959,-0.13465610146522522,-0.07387866079807281,0.24942123889923096,-0.09759509563446045,0.17978505790233612,0.0317080020904541,0.11276739835739136,0.05029735714197159,0.1370375156402588,-0.11741695553064346,0.10522084683179855,-0.012015393003821373,0.04407309368252754,0.18341787159442902,0.028574420139193535,0.15357396006584167,0.04983055964112282,-0.07073525339365005,0.08374211192131042,-0.21448831260204315,-0.15140382945537567,-0.13041262328624725,0.05205661058425903,-0.17711780965328217,0.07965526729822159,-0.029587803408503532,0.06379374116659164,0.0023410338908433914,-0.045511394739151,-0.04009274020791054,-0.021967273205518723,0.013710258528590202,0.05448576807975769,0.17363034188747406,-0.15132184326648712,0.03561238944530487,-0.03800343722105026,0.11027316749095917,0.25807905197143555,0.053763918578624725,0.09230916947126389,-0.04492781683802605,0.12333782762289047,0.030244620516896248,0.1263914406299591,0.0529903843998909,0.13570713996887207,0.1402670443058014,-0.06196261942386627,-0.018046654760837555,-0.06939082592725754,0.07123669981956482,-0.017823372036218643,-0.005702974274754524,-0.13041701912879944,-0.23348258435726166,0.071531742811203,0.00794828962534666,-0.10023422539234161,0.11924199759960175,-0.0438537634909153,0.03774711489677429,-0.10809174925088882,-0.0693194568157196,0.07978848367929459,0.18542519211769104,0.14858542382717133,0.3340567350387573,0.010948359966278076,-0.067931167781353,-0.17198073863983154,-0.060207996517419815,0.03699886426329613,-0.01231978740543127,-0.07859630137681961,-0.03056863695383072,0.019181014969944954,-0.1510072946548462,0.0070695457980036736,0.13358072936534882,0.07249815762042999,-0.02442382276058197,-0.17809738218784332,-0.18302878737449646,-0.02318211831152439,0.06391150504350662,-0.014138473197817802,-0.027697086334228516,0.0044232322834432125,0.0042483871802687645,-0.12756799161434174,-0.13108530640602112,0.11811281740665436,-0.031608108431100845,0.01901276782155037,-0.07557258009910583,-0.1952276974916458,-0.007049307692795992,-0.03335913270711899,-0.04084949567914009,-0.06033064052462578,0.02113579772412777,-0.13677941262722015,0.12025798112154007,0.05992014333605766,0.23103086650371552,-0.09484560042619705,0.060934584587812424,-0.16342389583587646,-0.05587601289153099,-0.19429458677768707,0.024761419743299484,0.11044444888830185,-0.05750202015042305,-0.09568555653095245,0.09301924705505371,-0.11719929426908493,-0.031153623014688492,-0.05869540199637413,0.03519288823008537,0.051735617220401764,0.08693268895149231,-0.08422045409679413,-0.0022275233641266823,-0.00009749944729264826,0.1701468974351883,0.15282490849494934,-0.08124498277902603,-0.2304241806268692,-0.2265758216381073,-0.16129736602306366,0.21697679162025452,0.12374076247215271,0.14378073811531067,0.22144949436187744,0.08845217525959015,-0.005278138909488916,0.19633996486663818,0.14668624103069305,0.0753183364868164,-0.08820920437574387,0.08715050667524338,0.1088976040482521,0.06281787157058716,0.008454469032585621,0.06720686703920364,-0.2390652447938919,-0.14098908007144928,0.03567580506205559,0.010167364962399006,-0.0612662136554718,0.0963529497385025,-0.09471943229436874,0.054621245712041855,-0.18918448686599731,0.06116587296128273,-0.050560303032398224,-0.14993517100811005,0.33043229579925537,0.05559643730521202,0.22262096405029297,0.2727088928222656,0.31318989396095276,0.27459171414375305,0.11940325051546097,0.01930285431444645,-0.06994815915822983,-0.012813161127269268,-0.10223815590143204,-0.11703546345233917,-0.03455326706171036,-0.04507293924689293,-0.02632780186831951,0.04528264328837395,-0.024678712710738182,-0.11017528921365738,-0.08340169489383698,0.08461976051330566,0.15119296312332153,-0.045020099729299545,0.07474064081907272,0.024923576042056084,0.07074742764234543,0.20143024623394012,0.02939179167151451,0.21403586864471436,0.09421960264444351,0.022880423814058304,-0.17369093000888824,-0.17312319576740265,-0.003327020211145282,0.012323921546339989,-0.035242434591054916,0.026429053395986557,-0.21924050152301788,-0.10915962606668472,0.19168348610401154,0.028369423002004623,0.1974395364522934,0.0021073368843644857,-0.10542033612728119,-0.15185438096523285,0.0862903892993927,0.0007834758725948632,0.13265983760356903,0.15517622232437134,0.08630651235580444,-0.015923064202070236,0.028599243611097336,0.0009038342395797372,-0.11753248423337936,-0.1977829784154892,-0.05006033927202225,0.08864447474479675,0.004888599738478661,0.018522169440984726,-0.03783069923520088,0.12311875820159912,-0.1291930228471756,-0.09288498014211655,-0.0795874297618866,-0.017727937549352646,0.3974815905094147,-0.07709900289773941,-0.06099702790379524,-0.1581757515668869,-0.03850020095705986,-0.10334116965532303,-0.1397693157196045,0.0996810719370842,-0.28913822770118713,-0.12292160838842392,-0.07608180493116379,-0.2058105766773224,-0.14929760992527008,-0.2016609162092209,0.11621484905481339,0.22521674633026123,-0.09821121394634247,-0.006194131448864937,0.13225308060646057,0.2545543611049652,0.1605571061372757,0.35615813732147217,-0.0774746835231781,-0.08218756318092346,-0.1461101919412613,0.2057073414325714,-0.07206577807664871,-0.3931456208229065,-0.14104855060577393,0.05147162452340126,-0.13846327364444733,0.0018002683063969016,0.07595789432525635,0.6809757351875305,-0.6295375823974609,-0.13578364253044128,0.20188412070274353,0.08903491497039795,0.009973968379199505,-0.06107139214873314,0.13550949096679688,-0.037175171077251434,-0.09160830825567245,-0.013515830971300602,0.07274221628904343,0.02365194447338581,-0.0734729915857315,0.1760658174753189,0.08331844955682755,-0.12808895111083984,-0.11199963092803955,-0.07264983654022217,-0.06935571879148483,-0.3090863823890686,0.10644876956939697,0.18871359527111053,0.05425802618265152,0.1604737937450409,0.04582718014717102,0.017793038859963417,0.1262531727552414,-0.004970140755176544,0.0713287964463234,0.15531037747859955,-0.04624259099364281,-0.10117208957672119,-0.13844561576843262,0.07491351664066315,0.15525993704795837,0.026427727192640305,-0.0385441929101944,-0.06699767708778381,-0.20311200618743896,-0.027304721996188164,-0.33080583810806274,-0.03495556861162186,-0.005063236225396395,-0.15335193276405334,0.07240912318229675,0.05925917997956276,0.04862058535218239,0.27594074606895447,-0.10461514443159103,-0.0012862450676038861,0.14582443237304688,0.06632692366838455,0.07027491927146912,0.1486697942018509,-0.003800805192440748,-0.08106205612421036,0.006381848827004433,-0.037376806139945984,0.0330386720597744,0.044986508786678314,0.004062498454004526,-0.030637569725513458,0.008140302263200283,0.03933960571885109,0.07160525023937225,0.1457274854183197,-0.17396217584609985,0.05732522904872894,0.1438709944486618,-0.19357085227966309,0.028398854658007622,0.043232161551713943,0.0665234625339508,0.11280618607997894,-0.054095711559057236,-0.15282069146633148,-0.09575493633747101,-0.16975516080856323,0.27901166677474976,-0.08035822212696075,-0.12651216983795166,-0.015266381204128265,-0.18471747636795044,-0.10554569959640503,0.0679611936211586,-0.0768783688545227,0.18738612532615662,-0.01620342582464218,-0.14287136495113373,0.14265437424182892,-0.3103155493736267,0.10475011169910431,0.18887753784656525,-0.12388463318347931,-0.07403119653463364,-0.29471999406814575,0.27466195821762085,0.11754291504621506,-0.2365199774503708,0.4636493921279907,0.021094409748911858,-0.001660011475905776,0.04189616069197655,0.054355137050151825,-0.01114148274064064,-0.17222611606121063,0.03630397468805313,0.0204617939889431,0.1293252557516098,-0.09332910180091858,-0.2437894344329834,0.13076815009117126,-0.07368665933609009,0.17275370657444,-0.06947020441293716,0.13090218603610992,-0.08963989466428757,0.10527991503477097,0.12282445281744003,-0.02800648659467697,0.1578742414712906,0.13217134773731232,0.08442040532827377,0.24637095630168915,-0.07962561398744583,0.027629567310214043,-0.12401434779167175,-0.0878014862537384,0.045261599123477936,-0.06579334288835526,0.05257003754377365,0.041184861212968826,-0.050847772508859634,0.011500305496156216,-0.05361287668347359,0.06137198582291603,0.10936897993087769,0.006855302955955267,-0.022272005677223206,-0.007292723283171654,0.012432676739990711,-0.0571630597114563,0.10185009241104126,-0.13144119083881378,-0.2709903120994568,0.033291157335042953,-0.2578512728214264,0.19471901655197144,0.09836392104625702,0.05334340035915375,-0.10640507191419601,-0.0014889559242874384,-0.02189943939447403,-0.08902572840452194,-0.013151166029274464,-0.05967915803194046,0.1409265697002411,-0.11197204142808914,-0.035612236708402634,-0.2612752914428711,-0.05446859076619148,0.0910416916012764,0.0869574099779129,-0.04107646644115448,0.1764567345380783,0.12531636655330658,0.004994282498955727,0.016454458236694336,-0.04251755028963089,0.032196544110774994,0.1417265087366104,0.020801914855837822,0.11185208708047867,-0.19857265055179596,-0.15198445320129395,-0.0466051809489727,0.03170643001794815,0.008961716666817665,0.025006035342812538,-0.11756674945354462,-0.02367660030722618,-0.0020335831213742495,-0.07961110770702362,0.00045553967356681824,-0.12773944437503815,-0.26700952649116516,0.24120591580867767,-0.02885415591299534,0.1880646049976349,0.1923452466726303,0.11164890974760056,0.023786848410964012,-0.026674138382077217,0.09237802028656006,0.1307900995016098,-0.24162378907203674,-0.023092279210686684,0.06188768148422241,-0.15113437175750732,-0.13710613548755646,0.08067884296178818,0.004553402308374643,0.1311609447002411,-0.10743793845176697,-0.07821005582809448,-0.1506483405828476,0.15895110368728638,-0.21112708747386932,0.03277845308184624,-0.09499971568584442,0.1444299817085266,0.012241663411259651,0.09437109529972076,0.11164955049753189,0.31521880626678467,0.3935948610305786,0.07349254190921783,0.19088228046894073,0.34290215373039246,0.24547046422958374,-0.023306552320718765,-0.17605413496494293,-0.018849413841962814,-0.10749880969524384,-0.049444250762462616,-0.3642719089984894,-0.004222665447741747,-0.36295613646507263,-0.0826990157365799,-0.14163580536842346,-0.0446271076798439,-0.015296068973839283,-0.006860937457531691,-0.04552494361996651,0.465457022190094,-0.030280355364084244,0.1404409557580948,-0.0844709724187851,0.019384434446692467,0.17170262336730957,0.35175850987434387,0.0633617639541626,0.30347496271133423,-0.09491341561079025,-0.03421785682439804,0.13661576807498932,-0.20660541951656342,0.018453190103173256,-0.04621460661292076,0.07921332120895386,0.023981934413313866,0.08698806911706924,0.12902382016181946,-0.13892164826393127,0.06653071939945221,-0.05397304892539978,0.10303448885679245,-0.029196443036198616,0.10250946879386902,0.050511784851551056,0.11575622856616974,-0.06871042400598526,-0.10402190685272217,0.15532298386096954,0.02569793537259102,0.1194012239575386,-0.07750803977251053,0.04988422244787216,-0.25791898369789124,0.27441200613975525,-0.03213632479310036,0.22053372859954834,-0.6913007497787476,0.09952935576438904,-0.4825020134449005,-0.4433920085430145,-0.48687779903411865,0.5364377498626709,-0.9363502264022827,-0.5996681451797485,-0.936237633228302,0.05815518647432327,-0.8676512837409973,0.41296249628067017,-0.7160812616348267,-0.31241151690483093,-0.167294442653656,0.010554333217442036,0.08194483816623688,0.24216586351394653,0.1497500240802765,-0.276305228471756,-0.07414793968200684,0.020921453833580017,-0.07738462835550308,-0.00990692526102066,0.430122971534729,0.11608904600143433,-0.036470938473939896,-0.1893671154975891,-0.07754603773355484,0.0690046101808548,-0.19013375043869019,-0.17927412688732147,0.11652235686779022,-0.06707503646612167,0.1500868946313858,-0.15750707685947418,-0.05406957119703293,0.039545729756355286,-0.17032915353775024,0.22853241860866547,0.07821455597877502,-0.295590341091156,-0.014537719078361988,0.05793723091483116,0.21210640668869019,0.08022577315568924,-0.119553342461586,-0.013590221293270588,0.13873626291751862,0.04632187634706497,0.11311217397451401,-0.01246152725070715,0.13726173341274261,0.060997676104307175,0.007321253418922424,-0.17420734465122223,-0.10686931014060974,-0.06321843713521957,0.12473360449075699,0.06524120271205902,0.08235976099967957,0.09278322011232376,0.2763676047325134,-0.13268981873989105,-0.3108421266078949,-0.026932576671242714,0.3178028464317322,-0.22054193913936615,-0.08684740215539932,-0.43988096714019775,0.02762162685394287,0.1846129447221756,0.4172467589378357,0.10883413255214691,-0.2149362713098526,0.058114584535360336,-0.11141880601644516,0.19701364636421204,-0.23831307888031006,-0.1597689688205719,-0.06170657277107239,0.2535153329372406,0.08781780302524567,-0.22595280408859253,0.031320273876190186,0.20289389789104462,-0.16213533282279968,0.06650736927986145,0.21187028288841248,-0.06033550202846527,-0.2650522291660309,-0.20465420186519623,-0.30456647276878357,-0.3124292194843292,-0.0981859341263771,-0.16718512773513794,-0.04006029665470123,-0.011956659145653248,-0.171975240111351,0.04375145584344864,-0.06651566177606583,0.19050583243370056,0.2514762878417969,-0.07129621505737305,-0.19580239057540894,-0.16184686124324799,-0.08939781039953232,0.13055995106697083,0.08271894603967667,0.483712375164032,0.05271190404891968,0.12795408070087433,-0.24770180881023407,-0.005619445350021124,0.26829028129577637,-0.16458147764205933,-0.09979993849992752,0.0033486781176179647,0.06625869125127792,-0.17068538069725037,0.17748577892780304,-0.016903448849916458,-0.006690629757940769,-0.000437697657616809,0.35201647877693176,0.05257190763950348,0.0941525250673294,-0.11942402273416519,0.17267006635665894,0.14169073104858398,-0.10166601091623306,0.030424408614635468,0.15022939443588257,0.015767330303788185,0.3289499580860138,-0.20638592541217804,0.02136899158358574,-0.031315531581640244,0.0733085572719574,0.21572205424308777,0.0700998604297638,-0.21580778062343597,0.1386207640171051,-0.10260411351919174,-0.251645028591156,-0.23742808401584625,-0.14252252876758575,-0.025557810440659523,-0.02194165252149105,0.09310659021139145,-0.02415534481406212,0.24930450320243835,-0.10539723932743073,-0.07037515193223953,0.1606685370206833,-0.07904092967510223,0.2556815445423126,-0.21251873672008514,0.09019458293914795,0.06839783489704132,0.0477449893951416,-0.00681222602725029,0.10081729292869568,0.0402165986597538,0.011397799476981163,-0.05067034438252449,-0.03062727116048336,0.270423948764801,0.26438382267951965,-0.005831859540194273,0.025795092806220055,0.06736592203378677,-0.16700057685375214,-0.1198822632431984,-0.14690430462360382,-0.14746811985969543,0.18957693874835968,0.09070558100938797,-0.4035947918891907,0.014000904746353626,0.02248123288154602,0.2773853540420532,0.13493573665618896,-0.25138694047927856,-0.06394612789154053,0.22660596668720245,0.0520101860165596,-0.12260553240776062,0.08657065033912659,-0.007541988510638475,0.07510287314653397,-0.1855849027633667,-0.08330690860748291,-0.14045047760009766,-0.08525781333446503,0.08191525191068649,-0.0432235412299633,0.14181974530220032,0.08285804837942123,0.10153377801179886,0.027962546795606613,0.01755310595035553,-0.15083998441696167,0.12083037942647934,-0.14003030955791473,0.058433257043361664,-0.04623487591743469,-0.1831064522266388,0.030764402821660042,-0.0127287982031703,0.09340580552816391,-0.09811849147081375,0.03741449862718582,-0.11598123610019684,-0.10913212597370148,-0.18636685609817505,-0.1043032854795456,-0.01917485147714615,-0.22877444326877594,-0.06680004298686981,-0.06796301901340485,0.27997854351997375,-0.10172204673290253,-0.23086518049240112,0.2727748155593872,-0.1236128956079483,-0.05272398889064789,0.008860288187861443,-0.024370402097702026,0.12294796109199524,0.13921396434307098,0.07129079103469849,0.00937184039503336,-0.08515828102827072,0.14193351566791534,-0.10080952942371368,-0.06506452709436417,-0.0007929198327474296,0.10892784595489502,-0.058616746217012405,0.08948573470115662,-0.17445369064807892,-0.17059975862503052,0.14420200884342194,-0.0034922559279948473,0.03544722497463226,0.1401272565126419,-0.22314609587192535,-0.030331438407301903,-0.0742279514670372,0.1388133019208908,0.18304099142551422,0.22495664656162262,0.2579041123390198,-0.0380038321018219,-0.12242937088012695,0.1428431272506714,-0.11478714644908905,0.04956214874982834,-0.11539547145366669,0.022443290799856186,0.11819406598806381,-0.2901217043399811,0.24793195724487305,0.09742943942546844,0.04548458755016327,0.14394573867321014,-0.214425727725029,-0.2585192322731018,-0.04420557990670204,0.06609392166137695,0.10311556607484818,-0.1335195153951645,-0.3937906324863434,0.0486837737262249,0.5086401104927063,0.4459488093852997,0.011014427989721298,-0.04422430321574211,0.15053416788578033,-0.20089808106422424,0.11511050164699554,-0.1949697583913803,-0.035485345870256424,0.0353737436234951,0.011286558583378792,-0.11723822355270386,-0.0687052458524704,-0.0825594812631607,-0.00535804545506835,-0.15779252350330353,-0.1405172348022461,-0.08158273994922638,0.08671937137842178,0.08004824072122574,-0.2944958508014679,-0.41270047426223755,0.11012904345989227,0.0791177973151207,-0.12970735132694244,0.20888382196426392,0.3264768123626709,0.2746560275554657,-0.08520287275314331,-0.0863761156797409,-0.18825975060462952,0.13005518913269043,0.16809144616127014,-0.14351721107959747,-0.1331707090139389,0.05353980138897896,0.08459200710058212,-0.20285223424434662,-0.17912624776363373,-0.1487177014350891,-0.2283582091331482,-0.037950046360492706,0.10794934630393982,-0.3389763832092285,-0.4253329932689667,-0.05487538501620293,-0.08935999125242233,-0.14887581765651703,-0.017503874376416206,-0.380621075630188,0.07775239646434784,0.04694266989827156,0.01673104614019394,-0.021759390830993652,-0.06211438402533531,0.12241319566965103,-0.1288062185049057,-0.1644126921892166,0.052662938833236694,0.021002696827054024,0.038731031119823456,-0.15695154666900635,0.11776838451623917,0.13173750042915344,0.09985092282295227,0.13731147348880768,0.24272336065769196,0.1953042447566986,-0.01210315153002739,0.07971576601266861,0.3162592053413391,0.11984077841043472,0.23318997025489807,0.015534857288002968,0.06799028068780899,-0.4239209294319153,-0.016565337777137756,-0.292079359292984,-0.04550895467400551,-0.20946194231510162,-0.21328052878379822,-0.3966139853000641,-0.049785539507865906,-0.12255783379077911,-0.12978917360305786,0.21185478568077087,0.31188473105430603,0.17897285521030426,0.12649250030517578,0.06502429395914078,0.09143397957086563,0.14198802411556244,0.06766053289175034,-0.4608164131641388,0.017435407266020775,0.17653314769268036,0.001888164901174605,-0.02290540374815464,0.02882046438753605,0.11347705870866776,-0.04418858885765076,0.11710487306118011,0.17509010434150696,0.200343519449234,0.07691024243831635,0.025200195610523224,-0.00941219087690115,-0.0749792605638504,-0.04631738364696503,0.12304570525884628,-0.09231763333082199,-0.06704802811145782,0.10442135483026505,-0.059993937611579895,0.006803629919886589,-0.11707672476768494,0.001540920464321971,0.025134297087788582,-0.08085378259420395,-0.16836456954479218,-0.012089808471500874,0.21307611465454102,0.38426199555397034,0.4633495509624481,-0.03990143910050392,-0.0858403816819191,-0.10963813960552216,0.1614169180393219,0.18954171240329742,0.16142776608467102,0.08423937112092972,0.02830706723034382,-0.004569425247609615,-0.09989700466394424,0.0067709204740822315,0.02089197374880314,-0.1336761713027954,0.04652591422200203,-0.10993237048387527,-0.013206996023654938,-0.015409048646688461,0.19584380090236664,0.09525902569293976,0.006964272819459438,-0.0266652200371027,0.017111636698246002,-0.08209757506847382,-0.10853161662817001,0.10899253189563751,-0.171644926071167,-0.07770447432994843,-0.15917745232582092,-0.07971382141113281,0.04873555898666382,-0.13917222619056702,-0.09118126332759857,-0.03818976506590843,0.050965942442417145,0.22131484746932983,0.2456032931804657,-0.027485262602567673,-0.024816367775201797,-0.03380328044295311,0.2222927361726761,0.09891419112682343,-0.04786040261387825,0.1322624683380127,0.0958985984325409,0.04746761918067932,-0.021056964993476868,-0.0017334913136437535,0.009909126907587051,-0.23232130706310272,-0.510168194770813,-0.4002581834793091,-0.12638981640338898,-0.04952840879559517,-0.02874327264726162,-0.02043268084526062,-0.08838832378387451,0.07080072164535522,0.0910658910870552,-0.011333170346915722,-0.1697613149881363,-0.03047587163746357,0.05777944251894951,0.1342613697052002,0.20918911695480347,-0.012973099015653133,-0.31461483240127563,-0.04580254852771759,-0.05232616141438484,-0.07668163627386093,-0.19400538504123688,-0.14357315003871918,0.20607627928256989,0.023537756875157356,-0.07859351485967636,0.24151097238063812,-0.06487979739904404,0.0803871750831604,-0.04895574226975441,0.08799275755882263,-0.06004544347524643,-0.12184556573629379,-0.02999384142458439,0.011933896690607071,-0.017810937017202377,0.16033127903938293,0.07689949870109558,-0.04147642105817795,-0.0011142619187012315,-0.015752123668789864,0.013820558786392212,0.01497280690819025,0.16866189241409302,0.12743912637233734,-0.07838335633277893,0.19179123640060425,-0.21863728761672974,-0.4018409550189972,-0.3510003983974457,0.31805717945098877,-0.14437365531921387,-0.061014991253614426,0.08423903584480286,0.04257073253393173,-0.24999351799488068,0.035063643008470535,0.224604070186615,0.043114952743053436,-0.12760691344738007,0.09173306822776794,-0.02063949778676033,0.04077558219432831,0.2232874035835266,0.02616928331553936,-0.00002858500010916032,-0.090232715010643,0.10072287172079086,-0.008966773748397827,-0.00022446275397669524,-0.04715808853507042,0.07745933532714844,0.025862567126750946,-0.18784524500370026,0.1500583291053772,0.07373428344726562,0.038800016045570374,-0.024155622348189354,-0.050842415541410446,-0.1536230593919754,-0.21686138212680817,0.06996220350265503,-0.0292196124792099,-0.016400590538978577,-0.20100148022174835,-0.22072695195674896,-0.0695914551615715,0.06552902609109879,-0.3243432641029358,-0.039936162531375885,-0.05234453082084656,-0.1260814219713211,-0.0938359871506691,-0.08484051376581192,0.33928152918815613,0.31641513109207153,-0.043201521039009094,-0.024826399981975555,-0.016414938494563103,-0.06344924122095108,0.005852654110640287,0.05894875526428223,0.060837361961603165,-0.017715122550725937,0.048560820519924164,-0.22006723284721375,-0.0979020819067955,0.09455417096614838,-0.07325070351362228,0.044876422733068466,0.08008065819740295,-0.025485239923000336,-0.11699776351451874,0.08766492456197739,-0.07466994971036911,-0.19258566200733185,-0.2447446584701538,-0.165823295712471,-0.049745768308639526,0.06280504912137985,-0.07683231681585312,-0.138907790184021,0.04933403059840202,0.1415754109621048,-0.04437076300382614,-0.2516601085662842,-0.1962224543094635,-0.23285576701164246,0.09097954630851746,0.10142086446285248,-0.048050444573163986,-0.016886861994862556,0.2736232578754425,0.026649734005331993,-0.24391978979110718,-0.03658287972211838,0.23059186339378357,0.17866551876068115,0.005673617124557495,-0.01614258997142315,0.21447418630123138,-0.11702102422714233,-0.057653214782476425,-0.00053859141189605,-0.03665291517972946,0.18033216893672943,-0.27930548787117004,-0.09466525167226791,-0.07118407636880875,-0.26723146438598633,0.1419823318719864,0.21865962445735931,-0.07651477307081223,-0.23003606498241425,0.056045155972242355,-0.2531639039516449,0.07748313993215561,0.10832581669092178,-0.2732856571674347,-0.005796217825263739,0.0726340040564537,-0.11415710300207138,-0.10521820187568665,-0.1314413994550705,0.18062670528888702,0.22045475244522095,-0.16912449896335602,-0.13220088183879852,0.13257823884487152,0.2235695868730545,-0.10119354724884033,-0.20856398344039917,-0.3967171609401703,0.15951934456825256,-0.003637735964730382,0.14876730740070343,-0.1332673281431198,0.08655888587236404,0.03152267634868622,0.1619540899991989,-0.21266214549541473,-0.09310155361890793,-0.16012124717235565,-0.17031706869602203,-0.09281478077173233,0.0585290789604187,-0.11294552683830261,0.09194917976856232,-0.05452732369303703,0.05010221526026726,0.16430005431175232,-0.032487619668245316,0.05958133190870285,-0.04117421433329582,0.32215046882629395,0.06758064776659012,0.18205881118774414,0.0005631148815155029,-0.23907163739204407,-0.38466766476631165,-0.2006312757730484,-0.14148083329200745,-0.12663337588310242,-0.1060076653957367,0.0038584002759307623,-0.23424158990383148,-0.08403941243886948,0.1759653091430664,0.03596882522106171,-0.222006157040596,-0.016662249341607094,0.07791297882795334,0.05158451572060585,-0.07106534391641617,0.018197884783148766,0.23958167433738708,-0.16348612308502197,-0.5347375273704529,-0.14056657254695892,0.0843718945980072,0.3893267810344696,0.003932863473892212,-0.2068907916545868,-0.27766042947769165,0.10576727986335754,-0.018140682950615883,-0.3344859182834625,-0.17565999925136566,0.09523381292819977,-0.0230741947889328,-0.4037744402885437,-0.06142165884375572,0.08314841240644455,0.2483486384153366,-0.13939756155014038,-0.05219551920890808,0.12191003561019897,-0.07901499420404434,-0.12449168413877487,-0.05175524204969406,0.16251379251480103,0.1663699746131897,-0.13212433457374573,-0.050296660512685776,-0.09553063660860062,-0.0927572250366211,0.17453262209892273,-0.07111283391714096,-0.20610113441944122,-0.1960032731294632,-0.1272684931755066,-0.047863204032182693,0.14762254059314728,-0.055066175758838654,-0.43036359548568726,-0.20128346979618073,0.130569726228714,0.17060981690883636,-0.2083863765001297,0.031224079430103302,0.006656208541244268,0.3311178386211395,-0.3699725568294525,0.09765786677598953,0.22712713479995728,0.09660310298204422,-0.26199084520339966,-0.011389241553843021,-0.006515881046652794,0.17955537140369415,-0.3623388409614563,-0.5015572309494019,-0.773654580116272,0.06732278317213058,0.37844663858413696,0.3547426164150238,0.013886797241866589,0.022692309692502022,0.2324792444705963,0.10688982158899307,0.24869051575660706,0.11965567618608475,0.27500608563423157,0.2917059361934662,0.29667553305625916,-0.404618501663208,-0.6143932342529297,-0.8306705355644226,-0.3584681451320648,-0.10640974342823029,-0.2419857680797577,-0.49951672554016113,-0.8271082639694214,-0.7892059683799744,-0.1040843054652214,-0.17075692117214203,0.2027692049741745,-0.20065665245056152,-0.2853102385997772,-0.04702001437544823,0.03132162615656853,-0.017828285694122314,0.039700523018836975,0.14939968287944794,0.32917240262031555,0.2880741059780121,-0.10013017058372498,-0.19814440608024597,-0.36028119921684265,0.14777204394340515,-0.004921596031636,0.2293792963027954,0.05691349506378174,0.21760427951812744,0.21258437633514404,0.07347217202186584,-0.04894142597913742,-0.25029662251472473,-0.10787750780582428,-0.029886774718761444,-0.16372376680374146,0.06479993462562561,0.16979987919330597,0.09057643264532089,-0.2528763711452484,-0.013163026422262192,0.24489907920360565,0.12181069701910019,0.04927587881684303,-0.14676114916801453,0.18720179796218872,0.061542097479104996,-0.1609804928302765,0.06596765667200089,0.08712054044008255,-0.026104088872671127,0.16451580822467804,-0.10173967480659485,-0.15571492910385132,0.21749714016914368,0.19196073710918427,0.09900330007076263,-0.029062950983643532,0.06930207461118698,0.22607755661010742,-0.14846472442150116,-0.18860311806201935,-0.10876958072185516,-0.2203749120235443,-0.09333936125040054,0.2299799919128418,-0.18634547293186188,0.0032723366748541594,0.2682447135448456,0.01052300725132227,0.048865482211112976,-0.14008043706417084,-0.4097725450992584,0.06494414806365967,0.1904587298631668,-0.19584544003009796,0.054878268390893936,0.028407223522663116,0.07778757810592651,-0.10875342041254044,-0.23827403783798218,-0.10283664613962173,-0.0633593201637268,0.1830434501171112,-0.005319500342011452,-0.132268488407135,0.15363985300064087,0.369473397731781,-0.06528756767511368,-0.08742980659008026,-0.2387222945690155,0.051027387380599976,0.29843950271606445,0.048076167702674866,0.027755796909332275,0.20456239581108093,-0.23245644569396973,-0.14279191195964813,-0.10742688179016113,-0.027440866455435753,0.12614218890666962,0.00410886388272047,-0.15396210551261902,-0.15042877197265625,-0.38647177815437317,0.13584014773368835,0.051756907254457474,-0.2635636329650879,-0.43434447050094604,-0.3737052381038666,-0.18535710871219635,0.283566951751709,0.0013494507875293493,-0.25780972838401794,-0.21076750755310059,-0.06281804293394089,-0.056798893958330154,-0.0066704098135232925,0.025906052440404892,0.02765893004834652,0.47755688428878784,-0.08554336428642273,-0.18384656310081482,0.2220127135515213,-0.09221861511468887,0.003020237199962139,-0.27682942152023315,-0.17548058927059174,0.00369273591786623,-0.05495113506913185,-0.06414933502674103,0.06290683895349503,0.1276240199804306,0.06168116629123688,0.06329594552516937,0.01490117609500885,-0.09402968734502792,0.21201489865779877,0.0005279596662148833,0.020054802298545837,0.1882326602935791,0.13275659084320068,0.1648849993944168,0.1621163785457611,0.07048748433589935,0.019719066098332405,-0.6301754713058472,0.022191548720002174,0.04878628998994827,-0.17925585806369781,0.21802179515361786,-0.16532616317272186,-0.7578675746917725,0.050690922886133194,-0.15976491570472717,0.35689762234687805,-0.1755206286907196,0.019214816391468048,-0.015372123569250107,0.1424850970506668,0.15660953521728516,0.13846924901008606,0.2281559258699417,0.0914882943034172,-0.7147500514984131,-0.06587528437376022,0.09746228158473969,-0.13712336122989655,0.16450804471969604,0.08486632257699966,0.48279163241386414,0.05682666599750519,0.037589602172374725,0.06388244777917862,0.10136467218399048,0.028156232088804245,-0.061316363513469696,0.03286135196685791,-0.005645282566547394,-0.2050086259841919,-0.06039218604564667,0.01811804063618183,0.009467190131545067,0.029261939227581024,-0.0547436848282814,-0.0776805654168129,-0.029993407428264618,-0.38778451085090637,0.16076958179473877,-0.04226602241396904,0.1153569445014,0.14266569912433624,-0.01477825827896595,0.2591019868850708,-0.1981121450662613,0.3020123541355133,-0.024266578257083893,0.2524769604206085,0.22081705927848816,0.33746322989463806,-0.00826875027269125,0.00322776404209435,0.01976107247173786,0.20499184727668762,-0.3053005039691925,-0.32162925601005554,-0.06823861598968506,-0.024996135383844376,0.044931165874004364,-0.07992982119321823,0.21636797487735748,-0.21056124567985535,-0.1862163096666336,-0.08654869347810745,0.08287234604358673,-0.11520949006080627,0.31590190529823303,0.1795995831489563,-0.10953187942504883,-0.08239264786243439,-0.09988963603973389,0.05109228938817978,-0.0627511665225029,0.04201766103506088,-0.07411397993564606,-0.014257394708693027,0.09529556334018707,-0.0435444638133049,-0.07198161631822586,0.3564893901348114,-0.1376255601644516,0.06950788199901581,0.0625285804271698,0.012592755258083344,-0.16546015441417694,-0.1444888859987259,-0.02871382236480713,-0.01632535085082054,-0.013977485708892345,-0.09012017399072647,-0.1499391794204712,-0.22519338130950928,-0.32049107551574707,-0.27009904384613037,-0.0720849484205246,0.11998479813337326,-0.10299824923276901,-0.10561481863260269,0.0917663723230362,0.08948680013418198,-0.06809205561876297,0.018368033692240715,0.1900111883878708,0.21492503583431244,0.03373021259903908,-0.022082127630710602,-0.027315590530633926,-0.060134194791316986,-0.16474322974681854,0.22691480815410614,-0.6526224613189697,-0.0953875258564949,-0.20859532058238983,-0.2131255716085434,-0.14767399430274963,0.08723943680524826,0.11081303656101227,-0.0022260318510234356,-0.12550455331802368,-0.06388504058122635,-0.05401722714304924,0.09543608129024506,-0.04125845432281494,-0.009518603794276714,0.0422479584813118,-0.01284912321716547,-0.023265415802598,0.06354554742574692,0.0956982895731926,0.04248853772878647,0.24230735003948212,0.07262814044952393,-0.1769935041666031,0.11106496304273605,0.08982031792402267,0.011767879128456116,0.09067189693450928,0.057938456535339355,0.06660574674606323,-0.23153996467590332,-0.20656268298625946,0.20950056612491608,0.20491504669189453,0.21284039318561554,0.11395896971225739,0.0463528037071228,0.19835810363292694,0.05247649550437927,0.04945576936006546,0.011084849946200848,-0.05568089336156845,0.14757081866264343,-0.10359843075275421,-0.03842891752719879,-0.21718983352184296,-0.06616928428411484,-0.0639137402176857,0.04224754869937897,0.11603102087974548,-0.06975794583559036,0.1632879227399826,-0.0671895369887352,-0.051384326070547104,0.07348060607910156,-0.2940569519996643,0.1370939165353775,-0.03422443941235542,-0.07910282909870148,-0.10341323912143707,-0.08909723907709122,0.22241270542144775,0.04709688201546669,-0.06045404076576233,-0.03564254567027092,-0.23473092913627625,0.11884783953428268,-0.03219369053840637,-0.11820323765277863,-0.07282480597496033,0.08494233340024948,-0.3667907416820526,0.0507393404841423,0.011982860043644905,-0.10788805782794952,0.06631553173065186,0.04318893328309059,0.12174375355243683,-0.1408384144306183,-0.8117097616195679,1.054340124130249,0.6934396624565125,-0.384655237197876,0.27216827869415283,-0.40214240550994873,0.1717989593744278,0.20054420828819275,-1.09653639793396,1.0257549285888672,0.41697949171066284,-0.6286782026290894,-0.3172934949398041,0.38083454966545105,-0.5766347050666809,0.3060263395309448,-0.2491622418165207,-0.038239944726228714,-0.11674873530864716,-0.0316002331674099,0.301217645406723,0.4000498056411743,-0.26397305727005005,0.14790989458560944,0.07560485601425171,0.42824092507362366,0.15479594469070435,-0.1831580102443695,-0.01121459249407053,-0.14735311269760132,-0.12999701499938965,0.07276440411806107,-0.047626860439777374,0.03864128515124321,0.047699831426143646,0.04313582926988602,0.20582215487957,-0.06297118216753006,-0.002436068607494235,-0.29569754004478455,0.14418810606002808,0.13926926255226135,-0.1653604805469513,0.11589813977479935,0.2729036808013916,0.1315785050392151,0.09132670611143112,-0.004570732358843088,-0.13376665115356445,0.14607717096805573,-0.26489850878715515,-0.0407446064054966,-0.15796801447868347,0.05979547277092934,-0.20702989399433136,0.11191258579492569,0.048359379172325134,-0.1620052307844162,0.302992582321167,0.1523711234331131,-0.05745159089565277,0.016619287431240082,0.13662511110305786,0.4401761591434479,0.09781764447689056,-0.010230636224150658,0.06434181332588196,-0.04997218772768974,0.2945493459701538,-0.403910756111145,0.049270208925008774,0.03712478280067444,-0.15250322222709656,0.11486414074897766,0.055083904415369034,0.14494597911834717,-0.09681017696857452,-0.020258240401744843,-0.27695682644844055,0.014285974204540253,-0.293192058801651,0.221043661236763,-0.06288858503103256,0.07526245713233948,-0.11722246557474136,-0.06482619047164917,0.06846983730792999,0.160945326089859,-0.1871103048324585,0.0005955442320555449,-0.1424962282180786,-0.25414037704467773,-0.2310541421175003,0.19311927258968353,-0.0728602334856987,-0.3651987612247467,0.013733314350247383,-0.026112200692296028,-0.029222413897514343,0.006588926073163748,-0.1639014333486557,0.2138511687517166,-0.08435355126857758,-0.06277932226657867,-0.18611301481723785,0.005445138551294804,0.18014512956142426,0.08773818612098694,0.31850069761276245,0.252583384513855,0.12481498718261719,0.054503217339515686,0.22580267488956451,-0.17644068598747253,0.0003159854677505791,0.12442947924137115,0.09390578418970108,-0.160356804728508,-0.04409659281373024,-0.2870279848575592,0.3234955370426178,0.37432923913002014,-0.24783679842948914,0.1896732747554779,-0.1570918709039688,-0.050088051706552505,0.08365916460752487,0.051242489367723465,0.21766217052936554,-0.13015957176685333,-0.09996823221445084,0.1945013552904129,-0.10963350534439087,0.10601114481687546,0.0090811587870121,0.2589920461177826,0.237009659409523,-0.190171018242836,0.19220125675201416,0.0680488646030426,0.138451486825943,0.17719528079032898,0.08862540870904922,-0.055776532739400864,0.2616982161998749,-0.13426043093204498,0.2284485250711441,0.07127194851636887,-0.06502700597047806,-0.2829402983188629,0.12762877345085144,0.018036209046840668,0.1246371865272522,-0.01619836874306202,0.05379067361354828,-0.28750234842300415,-0.1939016729593277,0.0718252882361412,-0.055082544684410095,0.16147203743457794,0.028543218970298767,-0.23375344276428223,0.24590642750263214,0.08935489505529404,0.02639886923134327,-0.28539979457855225,-0.15245988965034485,-0.03135135769844055,-0.03550921007990837,0.23920419812202454,-0.2330559939146042,0.004250005353242159,-0.08123265951871872,0.015672717243433,-0.1282220333814621,0.06489907205104828,-0.2039056271314621,-0.03342282027006149,-0.2645983397960663,0.15434497594833374,-0.2326851189136505,0.25476112961769104,0.04291835054755211,0.281296968460083,0.09842302650213242,-0.21492069959640503,0.16809521615505219,-0.015230759978294373,-0.1979345828294754,0.08489292114973068,0.2592798173427582,-0.023009512573480606,0.06385120004415512,-0.01924402266740799,0.22328273952007294,0.1410948932170868,0.040568917989730835,0.3183704912662506,-0.2015734314918518,0.13027293980121613,-0.38038337230682373,-0.1223553717136383,0.1798291653394699,-0.2872403860092163,-0.1563614457845688,0.25254273414611816,-0.0006544615607708693,-0.011012851260602474,-0.23518559336662292,-0.01256589312106371,0.0029079136438667774,0.06690753251314163,0.11377986520528793,-0.0545826219022274,-0.324925035238266,0.234988272190094,-0.01818723976612091,-0.0500820130109787,0.2167748063802719,0.01687571033835411,0.07843918353319168,0.09367349743843079,-0.10540635883808136,-0.0052233594469726086,-0.008942446671426296,-0.12149185687303543,-0.1329161375761032,-0.16798831522464752,-0.0209256112575531,0.2781262993812561,-0.1028502956032753,0.23341232538223267,0.05060930550098419,0.21267391741275787,-0.18924345076084137,-0.04625081643462181,0.18392296135425568,-0.07372677326202393,0.11510710418224335,-0.0160977765917778,0.24630588293075562,-0.06225448101758957,-0.13906829059123993,-0.08465632796287537,-0.00582055002450943,0.09937040507793427,-0.12046811729669571,0.02548103779554367,0.3456082344055176,0.1326524168252945,0.1141013354063034,-0.04721258580684662,0.03084203228354454,0.028525980189442635,-0.1308128833770752,0.03059687465429306,-0.12392766773700714,-0.02443958818912506,-0.27850329875946045,-0.0788121223449707,0.011641251854598522,-0.05926030874252319,-0.2843746542930603,0.0814070999622345,0.05520988255739212,0.26780709624290466,0.19587811827659607,-0.19723613560199738,-0.06971552968025208,-0.01643282361328602,0.08456964790821075,0.008136785589158535,0.18432362377643585,0.34673190116882324,0.02414240501821041,-0.35929015278816223,0.18462444841861725,0.41420385241508484,0.02175736427307129,-0.2952813506126404,-0.2533509135246277,0.2114807665348053,0.08707603812217712,0.2678524851799011,0.25590845942497253,0.25362318754196167,0.09807796031236649,0.1502387672662735,-0.07338520139455795,0.056049127131700516,-0.007772393990308046,0.10114062577486038,0.0369986817240715,-0.038284216076135635,-0.0001684020971879363,0.11395230144262314,-0.05883144587278366,0.015568085014820099,-0.04921752214431763,0.05731964483857155,-0.15620066225528717,-0.2723624110221863,0.14260819554328918,0.060301803052425385,0.20210707187652588,0.19309397041797638,-0.1888350546360016,-0.19046610593795776,0.04694056883454323,0.03967440128326416,0.19765214622020721,-0.02479994110763073,-0.11347474157810211,-0.0334681011736393,-0.03854695335030556,0.03387053310871124,0.0020339584443718195,-0.2641442120075226,-0.12650208175182343,0.31072479486465454,0.10209887474775314,-0.08967962116003036,0.010984808206558228,-0.18501724302768707,-0.018940122798085213,-0.08699915558099747,-0.00606398144736886,-0.0943731814622879,-0.3083438575267792,-0.13079051673412323,-0.12049409747123718,-0.040804121643304825,-0.01275635790079832,-0.11794500797986984,-0.10302851349115372,0.007015554700046778,0.1425415426492691,-0.011579923331737518,0.1320381462574005,-0.08052242547273636,-0.12895475327968597,0.20793281495571136,-0.07558785378932953,-0.06994374841451645,-0.1746879667043686,0.1154358759522438,0.41159963607788086,-0.06888029724359512,-0.026325535029172897,0.15820372104644775,0.10582636296749115,-0.1519870012998581,0.008665714412927628,-0.16701504588127136,0.35564562678337097,0.3772844672203064,-0.06532096117734909,-0.07788876444101334,-0.14517410099506378,0.06885388493537903,0.1510724276304245,-0.13079464435577393,-0.08448435366153717,0.09383364766836166,0.13864469528198242,0.17526975274085999,0.15964676439762115,-0.2533002495765686,0.03789801895618439,-0.0797504112124443,-0.09276405721902847,-0.013626530766487122,0.05037585273385048,0.08068043738603592,-0.138892263174057,0.2239076793193817,-0.19266213476657867,0.14277434349060059,0.16242441534996033,-0.07448254525661469,-0.06995081156492233,0.05168773978948593,0.05607929825782776,0.039845604449510574,-0.10617834329605103,-0.12980085611343384,0.08233765512704849,0.0010377111611887813,0.10387158393859863,-0.24255815148353577,0.09463590383529663,0.3990592956542969,0.20315439999103546,0.07910043001174927,-0.2780384421348572,0.18200524151325226,-0.15564683079719543,-0.2636813819408417,-0.08062070608139038,-0.17102999985218048,0.021944429725408554,0.07024819403886795,0.33407413959503174,0.32783374190330505,-0.17878836393356323,-0.06814105063676834,0.2941247820854187,-0.14773522317409515,0.11365311592817307,0.18213362991809845,-0.1742720901966095,-0.22772276401519775,-0.18166066706180573,-0.00989487860351801,0.35231223702430725,0.5006187558174133,0.0009235140751115978,-0.06282805651426315,-0.11816171556711197,0.015473785810172558,0.048784464597702026,-0.012282961048185825,0.08274461328983307,0.22309744358062744,0.06294185668230057,0.026770327240228653,0.004341739695519209,0.15062707662582397,0.012349111028015614,-0.0018631471320986748,-0.16429224610328674,0.06683827936649323,0.22079360485076904,-0.09883088618516922,-0.10240276157855988,0.07363131642341614,0.11825456470251083,-0.0536661297082901,0.03033529222011566,0.13029205799102783,0.1631990522146225,0.028902990743517876,-0.2710285484790802,0.24669373035430908,0.19952376186847687,-0.16607050597667694,-0.07019207626581192,-0.12433818727731705,-0.022777730599045753,0.04406750574707985,-0.2672404646873474,0.14226317405700684,-0.09609048068523407,-0.11621082574129105,0.24387690424919128,-0.09144779294729233,-0.2036433070898056,-0.07047637552022934,-0.14305855333805084,-0.023413484916090965,-0.04331027343869209,-0.09441716223955154,0.16551001369953156,0.21520209312438965,0.007328210398554802,0.11475174874067307,0.041822753846645355,0.01760420948266983,0.1501530110836029,-0.07575813680887222,-0.1415279507637024,-0.14626231789588928,0.09229888021945953,-0.24098895490169525,0.0009394042426720262,0.0169989001005888,0.08595231920480728,0.11923814564943314,-0.14259634912014008,0.19843371212482452,0.05350444093346596,0.07327763736248016,0.05853390693664551,0.14575617015361786,-0.07893956452608109,-0.25419655442237854,0.17638401687145233,0.08868520706892014,0.37227651476860046,-0.0832931399345398,-0.15996995568275452,0.13389618694782257,-0.19206246733665466,-0.17948059737682343,-0.17012077569961548,0.18138818442821503,0.25398802757263184,0.09323029220104218,0.13795559108257294,-0.015270356088876724,-0.378255695104599,0.03153292462229729,0.14737720787525177,-0.2684500515460968,-0.016383549198508263,-0.2805268168449402,0.021585261449217796,0.005260996986180544,-0.03109516203403473,-0.17935343086719513,0.09697829186916351,0.14630244672298431,-0.13158489763736725,-0.022096091881394386,0.065004363656044,-0.12030835449695587,0.056359853595495224,0.03210214152932167,-0.24786154925823212,0.09477892518043518,0.2013871669769287,-0.33073103427886963,-0.07963444292545319,-0.043230634182691574,0.426944375038147,0.03403628244996071,0.1937735229730606,-0.3288496434688568,-0.3275453746318817,-0.06263213604688644,0.17616982758045197,0.2261355221271515,-0.17720407247543335,0.037103597074747086,0.17270313203334808,0.0927586555480957,-0.031104279682040215,-0.01656167022883892,-0.22100190818309784,0.008393749594688416,-0.25204259157180786,-0.21711327135562897,-0.1437620222568512,-0.0951501801609993,0.2612980008125305,0.21080997586250305,0.21059376001358032,0.03972414508461952,-0.0662870779633522,-0.004775504115968943,0.13837018609046936,-0.030070245265960693,0.11876264959573746,-0.23655155301094055,0.040265027433633804,0.04678034037351608,-0.21585793793201447,0.010540646500885487,-0.009919104166328907,-0.07536780834197998,-0.014401732943952084,-0.08774138987064362,0.36141544580459595,-0.11194269359111786,-0.12137793749570847,-0.05580529198050499,-0.09801461547613144,-0.09596996754407883,-0.1654275506734848,0.04069822281599045,0.09635733813047409,-0.11855605244636536,-0.05087488144636154,0.05637861043214798,0.14947612583637238,0.2944320738315582,0.21706445515155792,-0.3326324224472046,-0.010538008064031601,-0.13523170351982117,0.07684101909399033,-0.04891934618353844,0.10835907608270645,-0.14730368554592133,-0.12241603434085846,-0.12474657595157623,0.0017378157936036587,0.03409476578235626,0.03954010456800461,0.24941937625408173,-0.4944336712360382,-0.37279239296913147,-0.11956662684679031,-0.06896236538887024,0.011114189401268959,-0.384907066822052,-0.0879056379199028,-0.15123146772384644,0.004287279676645994,0.2908565402030945,0.6396732330322266,0.04195423796772957,-0.01040130015462637,0.3179180324077606,0.04587487876415253,0.1011991798877716,0.03108038194477558,-0.11696240305900574,-0.5632055997848511,-0.35616132616996765,-0.32628825306892395,0.01907886192202568,-0.2516408860683441,-0.15022887289524078,0.17208878695964813,0.25260797142982483,-0.33878380060195923,0.1842983216047287,0.5894740223884583,-0.03266538307070732,-0.19362770020961761,-0.4497261047363281,0.01681487075984478,-0.051303256303071976,-0.14010213315486908,-0.2746503949165344,0.038310080766677856,-0.0048642875626683235,0.366881787776947,-0.18806862831115723,0.022413305938243866,0.4068938195705414,-0.14516206085681915,0.0436544269323349,0.00004168722443864681,0.005825523752719164,0.13782906532287598,-0.005061452742666006,-0.11368265002965927,-0.15094265341758728,-0.2939791679382324,0.041981734335422516,-0.13793674111366272,0.022893402725458145,-0.11058153212070465,-0.08209743350744247,-0.1207428053021431,0.031380921602249146,0.04817945882678032,0.20210866630077362,0.17659960687160492,0.08641910552978516,0.0039327326230704784,-0.02917427010834217,0.1415228396654129,0.2009848654270172,0.051280248910188675,0.006566965486854315,-0.0714777261018753,0.05477727949619293,-0.05705476552248001,0.010426634922623634,0.05884558707475662,-0.1924959272146225,-0.02850262075662613,-0.025114702060818672,-0.008945958688855171,0.20260995626449585,0.021627897396683693,-0.10368058830499649,-0.15219661593437195,-0.09220986813306808,0.1540919542312622,0.1290358453989029,0.062374379485845566,-0.002830197336152196,-0.02330092154443264,0.02059272490441799,-0.11055763810873032,-0.11657574027776718,-0.13444052636623383,-0.05099605396389961,0.16326238214969635,-0.21119815111160278,-0.04097636044025421,0.023497063666582108,-0.07509640604257584,-0.02639969252049923,-0.05649940297007561,-0.1192956194281578,-0.17020219564437866,0.11622033268213272,-0.13381676375865936,-0.1405465453863144,-0.1798330545425415,0.026876788586378098,0.024776967242360115,-0.12113668769598007,0.021851494908332825,0.0728345587849617,-0.08148541301488876,0.25866296887397766,0.08404096215963364,-0.3120611906051636,0.09791746735572815,-0.008256045170128345,0.002984164282679558,0.051137253642082214,-0.08401302993297577,-0.15747128427028656,-0.12761111557483673,0.4633542597293854,-0.0845053642988205,0.1771605759859085,0.1720987856388092,-0.09733983129262924,-0.05362744256854057,-0.14527811110019684,0.18788903951644897,-0.11067833751440048,0.07158280164003372,-0.019673429429531097,0.056847766041755676,-0.10425648093223572,0.12309587746858597,0.23558922111988068,-0.02894609235227108,-0.19909442961215973,0.020008059218525887,-0.08137601613998413,0.08373697102069855,0.012292556464672089,-0.006918793078511953,0.19344691932201385,-0.053180303424596786,-0.030434321612119675,-0.08943024277687073,-0.21981020271778107,0.3860720694065094,0.14410744607448578,0.09928195923566818,0.06775355339050293,-0.015663214027881622,0.07895870506763458,0.07802533358335495,0.0007342395838350058,-0.3172213137149811,0.14207032322883606,0.05475866049528122,0.13634315133094788,0.11981823295354843,-0.20253123342990875,-0.03990260511636734,-0.20010073482990265,-0.20927955210208893,0.0851566269993782,-0.06318826973438263,-0.06667628139257431,-0.05283601954579353,0.1528778225183487,-0.14626720547676086,0.18940381705760956,0.16875140368938446,-0.1526818573474884,0.04167383536696434,-0.031443994492292404,0.20580938458442688,0.08832834661006927,0.09116999059915543,0.1336621195077896,0.17068977653980255,-0.18621577322483063,0.22714489698410034,-0.24729745090007782,-0.007486219517886639,0.38839778304100037,0.3971988260746002,0.07989279180765152,-0.29168906807899475,-0.09716907143592834,-0.19163040816783905,-0.22796927392482758,0.13759256899356842,0.22220098972320557,0.17541161179542542,0.2361672967672348,0.011280831880867481,-0.05476226285099983,-0.4559033215045929,-0.2160172015428543,0.20791268348693848,-0.28600284457206726,-0.23015470802783966,-0.0833229050040245,0.2352457046508789,0.1040489450097084,0.011482511647045612,-0.17376920580863953,0.05271994695067406,0.22797982394695282,-0.023104075342416763,0.3308025896549225,0.1372247189283371,0.16064058244228363,0.03863904997706413,0.23360152542591095,-0.17271508276462555,-0.002166938269510865,0.2289351224899292,-0.5126625299453735,-0.05291837081313133,0.05334069952368736,0.42909592390060425,0.2638426423072815,0.17274419963359833,-0.23007935285568237,0.031971100717782974,-0.03314908593893051,0.2650868594646454,0.001618733862414956,-0.054129067808389664,0.03424072265625,-0.04365332052111626,0.024267593398690224,-0.10355901718139648,-0.10441157221794128,0.212701216340065,-0.1181267723441124,-0.21151481568813324,0.057915832847356796,-0.04349580407142639,-0.2540150582790375,-0.13623885810375214,-0.010812106542289257,-0.04036638140678406,0.03392589092254639,0.024945953860878944,-0.23076248168945312,-0.07070811837911606,0.009940695017576218,0.06435557454824448,0.05718782916665077,-0.18606527149677277,0.026207562536001205,0.048600539565086365,0.2726316750049591,-0.012716909870505333,-0.11621619760990143,-0.021046040579676628,-0.1972333937883377,-0.008793267421424389,0.05868382751941681,0.09206259250640869,-0.09620736539363861,-0.031548891216516495,0.1540529429912567,0.14682868123054504,-0.020602745935320854,-0.0612676627933979,-0.12442341446876526,-0.030108166858553886,-0.14733374118804932,0.0855831578373909,0.2263011634349823,0.07527654618024826,0.07957452535629272,-0.05782906338572502,0.0573294572532177,-0.1302129477262497,-0.013864748179912567,-0.028446663171052933,0.1236681193113327,0.006102432031184435,0.0802963450551033,-0.3152388334274292,0.11573799699544907,0.13764476776123047,-0.18098458647727966,0.08782216161489487,-0.007814406417310238,-0.13090673089027405,-0.17377640306949615,0.04420962557196617,-0.062412064522504807,0.17425072193145752,-0.03609154000878334,0.2594490051269531,-0.3779221177101135,-0.047355059534311295,-0.20244662463665009,-0.2004970759153366,-0.09012583643198013,-0.2110298126935959,-0.23599545657634735,-0.018948661163449287,0.17127729952335358,-0.20753352344036102,0.011183296330273151,0.14784710109233856,0.1499674767255783,0.08322902768850327,0.048563748598098755,0.01644127070903778,-0.03835947439074516,0.427940309047699,-0.29822176694869995,-0.12171380966901779,0.15070722997188568,0.7342079281806946,0.31359708309173584,0.11401256918907166,0.0881185308098793,-0.015846192836761475,0.021579284220933914,0.11803513765335083,0.20707781612873077,-0.015206665731966496,-0.28687724471092224,0.0004117964708711952,0.3315677046775818,0.22806717455387115,0.1671181619167328,-0.13449637591838837,0.19439764320850372,0.06868311017751694,-0.1449480503797531,-0.01106188539415598,0.056922756135463715,-0.04970864951610565,-0.09015779942274094,-0.32106244564056396,0.519531786441803,-0.2986249327659607,-0.18385280668735504,-0.07819715887308121,-0.0862467885017395,-0.03551419451832771,0.17921772599220276,0.08544919639825821,-0.1595064401626587,0.11662973463535309,-0.027368495240807533,0.025266436859965324,0.496463805437088,-0.18925219774246216,-0.11907865852117538,-0.16203831136226654,0.019544139504432678,-0.028790056705474854,-0.08307057619094849,-0.135224387049675,-0.24983106553554535,0.37193986773490906,-0.07753293961286545,-0.07358349114656448,0.3130272328853607,0.07855664193630219,0.12845662236213684,-0.01313232071697712,-0.02389834076166153,-0.04150087758898735,0.07079611718654633,-0.061216067522764206,-0.0756816565990448,-0.07257269322872162,-0.13444939255714417,0.09319671988487244,0.18690906465053558,-0.08367548882961273,-0.05338635295629501,0.11220867931842804,-0.13855691254138947,-0.0869208499789238,-0.07418803125619888,0.18632858991622925,0.016111833974719048,0.048327893018722534,0.4265231490135193,0.006830918602645397,-0.122614786028862,-0.03380151093006134,-0.049988530576229095,-0.0403587706387043,-0.02285991795361042,0.12278511375188828,0.14561381936073303,0.05640020966529846,0.16811589896678925,-0.05950906127691269,-0.40793585777282715,-0.22519588470458984,0.16061259806156158,0.10574859380722046,-0.046071600168943405,-0.06726101785898209,-0.1717720776796341,0.03157325088977814,-0.009461361914873123,0.38150689005851746,0.24183717370033264,-0.1257447600364685,-0.15955741703510284,-0.012532347813248634,-0.08771014958620071,-0.014670011587440968,0.03297629579901695,-0.08524037897586823,-0.053569164127111435,0.11218167841434479,-0.0777512788772583,-0.12661206722259521,-0.05867985635995865,0.10250964015722275,-0.11788623034954071,-0.0857277438044548,0.047681037336587906,0.011499053798615932,0.13095945119857788,0.03739020228385925,0.039350561797618866,0.12372374534606934,-0.016218820586800575,-0.05455423891544342,-0.09769713133573532,-0.09638150036334991,-0.13847261667251587,0.10137626528739929,-0.07950223237276077,-0.2209814190864563,-0.04876941442489624,-0.3718682825565338,0.15143868327140808,0.004498460330069065,0.292452335357666,0.031734779477119446,0.0516609326004982,-0.017153706401586533,-0.03070959821343422,0.14013919234275818,0.10347771644592285,0.12751853466033936,-0.08419650048017502,-0.20542477071285248,-0.060298945754766464,-0.06379356235265732,-0.08602195978164673,-0.27009257674217224,-0.1979677379131317,0.22681601345539093,0.04722905158996582,0.15267705917358398,0.2898935377597809,0.0161297544836998,-0.06603284925222397,-0.13031122088432312,-0.08512838184833527,0.06983944028615952,0.20841799676418304,-0.14272601902484894,0.18058083951473236,0.16639502346515656,-0.2774107754230499,-0.18094533681869507,0.14531069993972778,0.1655733734369278,0.15969127416610718,-0.04340478405356407,0.14102071523666382,0.0591900609433651,-0.07585380971431732,0.11301642656326294,0.9641870856285095,-0.3259938061237335,0.15053239464759827,-1.0522786378860474,-0.41792625188827515,0.271241694688797,0.35131996870040894,-0.3487508296966553,-0.08764661103487015,0.26169756054878235,-0.7942386269569397,-0.09727288782596588,-0.01071179285645485,-0.8311628699302673,0.11495891958475113,-0.8241947889328003,-0.07807894051074982,-0.25128889083862305,0.35524895787239075,-0.1488044708967209,0.06209545582532883,0.07894358038902283,0.10309967398643494,-0.16096629202365875,-0.48333194851875305,0.1081484705209732,-0.1468142718076706,-0.06843449175357819,0.06302043795585632,-0.14612029492855072,0.14541414380073547,0.009149125777184963,-0.05263064429163933,-0.17349261045455933,0.011047928594052792,-0.13799799978733063,0.0982319787144661,0.05815275385975838,0.16331012547016144,-0.17012743651866913,-0.16667398810386658,-0.027774063870310783,-0.11582355201244354,-0.03769526258111,-0.10716301947832108,-0.07728981226682663,0.11754652112722397,0.06539087742567062,-0.13975995779037476,0.25889357924461365,-0.10717610269784927,-0.268487811088562,-0.052002035081386566,-0.12619249522686005,-0.1826239377260208,0.009774533100426197,0.2550644874572754,0.026852523908019066,-0.04888736084103584,-0.04710107296705246,0.025649946182966232,-0.12050129473209381,-0.034046780318021774,0.10079241544008255,0.001061317976564169,-0.42732593417167664,-0.12850362062454224,0.17002223432064056,0.1482120305299759,0.15809951722621918,0.2083301544189453,0.10235782712697983,-0.26804500818252563,-0.15719661116600037,0.13323839008808136,-0.1277126967906952,0.19778037071228027,0.15996795892715454,0.13479562103748322,-0.1425400674343109,0.06668764352798462,0.1498492807149887,-0.05318745970726013,-0.008267015218734741,-0.08852069824934006,-0.025866329669952393,-0.11172998696565628,-0.22693443298339844,0.39656609296798706,0.18332700431346893,0.06836813688278198,0.18812106549739838,-0.14247988164424896,-0.1196880042552948,-0.36230695247650146,-0.18377071619033813,-0.3170562982559204,0.09067974984645844,0.12113185226917267,0.21900302171707153,-0.2209022492170334,-0.011836573481559753,-0.009697871282696724,-0.013086006045341492,0.05308249220252037,0.24588622152805328,-0.21198825538158417,0.16943487524986267,-0.021395402029156685,-0.03294442966580391,-0.2622734010219574,0.0819467157125473,-0.05461287871003151,-0.1442398875951767,-0.10422948002815247,-0.06182481721043587,-0.16287954151630402,-0.04314636066555977,0.2830234467983246,0.11343491822481155,-0.13942627608776093,0.10123708099126816,-0.017689302563667297,0.08102043718099594,-0.13882501423358917,-0.04244353994727135,0.05555880814790726,-0.18534913659095764,-0.08942217379808426,0.2737722098827362,-0.36354073882102966,0.10524891316890717,0.2546496093273163,-0.3117738664150238,0.018298260867595673,0.20828711986541748,-0.14062367379665375,0.12447249889373779,0.013976166024804115,0.09527473896741867,-0.01851796545088291,0.058166392147541046,0.149359792470932,0.09128523617982864,-0.14623358845710754,0.047239724546670914,-0.07995866239070892,-0.0407743938267231,0.21457849442958832,0.029979946091771126,-0.24149663746356964,-0.12748819589614868,0.0021140556782484055,-0.11529992520809174,0.060745738446712494,-0.10962144285440445,0.24649648368358612,0.29424941539764404,-0.05675974115729332,0.04547405242919922,0.13219119608402252,-0.05539451539516449,0.23297090828418732,-0.049380142241716385,-0.14334887266159058,0.06301269680261612,-0.30111902952194214,0.11463060230016708,-0.28424081206321716,-0.08764097839593887,0.1824941337108612,-0.0032621645368635654,0.1836680918931961,-0.003778156591579318,0.3610175848007202,0.08983561396598816,-0.13948729634284973,0.26166173815727234,-0.31081992387771606,-0.10886587202548981,-0.18056738376617432,0.0831521525979042,0.07715123146772385,-0.23642602562904358,0.2689581513404846,0.05248851701617241,-0.18039879202842712,0.039763160049915314,-0.14481088519096375,-0.19404011964797974,-0.025531569495797157,-0.10950657725334167,0.1489599198102951,-0.054764263331890106,-0.11487489193677902,0.03194306790828705,-0.042209554463624954,-0.34067440032958984,0.16748033463954926,0.10638044774532318,-0.28564563393592834,-0.04794416204094887,0.22827300429344177,-0.012415563687682152,-0.12085863202810287,0.3936861455440521,0.00993653666228056,0.008962178602814674,0.008561274036765099,0.18394550681114197,0.16585442423820496,0.17512643337249756,-0.17535680532455444,-0.030394811183214188,-0.13174287974834442,-0.05369704216718674,0.23694728314876556,0.16914911568164825,-0.2692506015300751,-0.09176083654165268,-0.2223670333623886,-0.0035589165054261684,-0.10097547620534897,-0.17827236652374268,-0.013452665880322456,0.3396090567111969,0.1423300951719284,0.1736810803413391,-0.0411914587020874,0.15163494646549225,-0.025226300582289696,-0.04799627885222435,0.1019960343837738,0.2824426293373108,-0.042553745210170746,-0.04718573018908501,-0.2483792006969452,-0.446526437997818,-0.23447740077972412,-0.1006055623292923,0.20129336416721344,-0.028595296666026115,0.08291039615869522,0.21390795707702637,-0.09876114875078201,-0.11299683153629303,0.06622358411550522,0.18899039924144745,-0.1615826040506363,-0.09801699221134186,-0.16475096344947815,0.020328370854258537,0.07165445387363434,0.1806602030992508,0.03190162777900696,0.12877435982227325,0.07084233313798904,0.020663846284151077,-0.1954825073480606,-0.1408509612083435,-0.25392624735832214,-0.19777895510196686,0.23949825763702393,-0.09454306960105896,-0.319715291261673,-0.08539567142724991,-0.297840416431427,-0.09061677753925323,0.07756282389163971,-0.17319093644618988,0.25807514786720276,0.07581058889627457,-0.05318504571914673,0.23017804324626923,0.3749642074108124,-0.24574068188667297,-0.24203939735889435,0.18343161046504974,0.4292164444923401,0.03798172250390053,-0.34432747960090637,0.06885197013616562,0.27455976605415344,0.10525248944759369,0.2216271460056305,-0.019574003294110298,-0.05746159702539444,0.08848381042480469,0.18747279047966003,-0.6002436280250549,0.16902516782283783,-0.006658111698925495,0.106205053627491,0.08172710984945297,0.21497958898544312,0.07171739637851715,-0.2430172562599182,-0.4094986617565155,-0.007184062153100967,0.11549460142850876,-0.053929395973682404,0.10460080951452255,0.025069821625947952,0.4296872317790985,0.04410960152745247,0.1215650662779808,0.3138430118560791,-0.019572120159864426,-0.019525347277522087,0.04477144777774811,0.15004241466522217,0.17965251207351685,-0.12500540912151337,-0.1824115812778473,-0.2380344271659851,-0.04578358680009842,-0.13738924264907837,0.0034468602389097214,0.6102982759475708,0.3048316240310669,-0.17699535191059113,0.06763740628957748,-0.1280246376991272,0.007691156584769487,0.2241290658712387,0.09672216325998306,0.19825215637683868,0.2593670189380646,0.01301686279475689,-0.09096328169107437,0.2411644458770752,-0.34327057003974915,-0.27741098403930664,-0.04027196392416954,0.0867752656340599,0.2548915445804596,0.28064391016960144,0.283575177192688,-0.25749728083610535,0.024646541103720665,-0.154830202460289,-0.08478293567895889,-0.21992602944374084,-0.1384984850883484,0.05058969557285309,-0.08140509575605392,-0.0001601791736902669,-0.12703725695610046,0.10998091101646423,0.14192363619804382,0.35367220640182495,-0.08860998600721359,0.07697169482707977,0.28927290439605713,-0.16922135651111603,-0.17853112518787384,-0.1760895550251007,-0.1317303627729416,-0.12257858365774155,-0.2829492390155792,-0.1509411633014679,0.12421170622110367,0.24943149089813232,0.0037842304445803165,0.0168480072170496,-0.19329050183296204,-0.4431016445159912,-0.39568033814430237,-0.26051604747772217,-0.1413554549217224,-0.07644964754581451,-0.1227196753025055,0.10530607402324677,0.0027311311569064856,0.1267917901277542,0.04475842043757439,0.030924532562494278,0.12936292588710785,0.11959874629974365,-0.05574951320886612,-0.09654151648283005,-0.041316866874694824,-0.16844891011714935,-0.20194412767887115,-0.008528905920684338,-0.14883270859718323,0.12100913375616074,0.09186089783906937,0.2880907654762268,0.20584291219711304,-0.005597731098532677,-0.11840251833200455,-0.16252833604812622,-0.32779133319854736,0.11749639362096786,-0.08722636848688126,-0.024600548669695854,0.05568869784474373,-0.037711359560489655,0.19485774636268616,-0.0412297397851944,-0.16081427037715912,-0.0017950200708582997,-0.08310084789991379,-0.1976783573627472,-0.1482110470533371,0.06057855486869812,0.14756004512310028,0.07515237480401993,-0.1010042205452919,0.06998494267463684,0.014262404292821884,-0.29879847168922424,-0.18070374429225922,0.3734442889690399,0.11623244732618332,0.015435469336807728,-0.15605753660202026,-0.10271080583333969,0.16003550589084625,-0.042971715331077576,-0.05774886533617973,-0.060066305100917816,0.22387194633483887,0.16979748010635376,0.0862426906824112,0.23063164949417114,0.1563233584165573,0.24806591868400574,0.19962254166603088,0.031053932383656502,0.21433082222938538,-0.05449264124035835,0.01852310076355934,-0.17493312060832977,0.15326428413391113,-0.08014868199825287,-0.3393193781375885,-0.032274503260850906,-0.05278833210468292,-0.03746967762708664,0.16401474177837372,0.005797326099127531,0.06608720868825912,-0.1617646962404251,0.1116391196846962,0.1250084936618805,0.06039687991142273,0.12794792652130127,0.08302897959947586,0.44010022282600403,-0.18043240904808044,-0.016535181552171707,0.045570727437734604,-0.307635635137558,-0.1707756370306015,-0.21044346690177917,-0.2179938405752182,0.15137086808681488,0.11862219125032425,0.20852771401405334,0.09982601553201675,-0.13881045579910278,-0.06457114219665527,0.2602699100971222,-0.09681742638349533,-0.11313284188508987,-0.23175325989723206,0.13126018643379211,0.1747388392686844,-0.17368873953819275,-0.12398511171340942,0.011558915488421917,-0.09674086421728134,0.11910345405340195,-0.10974559932947159,0.0732598826289177,0.09949877113103867,0.08961261808872223,-0.07290896773338318,-0.1253175139427185,-0.036830347031354904,0.10072784870862961,-0.1083248108625412,0.10120651870965958,0.17451758682727814,0.3256818354129791,0.10378596186637878,0.09038284420967102,-0.2778397500514984,0.10293761640787125,0.10722033679485321,0.025176426395773888,-0.01728648878633976,-0.046332161873579025,0.3006290793418884,-0.14591558277606964,-0.2448839694261551,0.14787304401397705,-0.23984821140766144,-0.14547809958457947,0.0502084419131279,0.09280954301357269,0.17456264793872833,0.0788002461194992,0.059754058718681335,0.09219805151224136,-0.057373709976673126,0.10320999473333359,0.2305546998977661,0.3311305046081543,0.17450709640979767,-0.08155617117881775,0.12009930610656738,-0.07086935639381409,-0.10178454220294952,-0.08610723167657852,0.08792124688625336,0.011915127746760845,0.05833210423588753,-0.19400835037231445,-0.2989945411682129,-0.006306713912636042,-0.1579800546169281,-0.09573075920343399,-0.09436317533254623,-0.03775740787386894,0.2404089868068695,-0.1466989517211914,-0.057771049439907074,-0.0465167835354805,0.006818833295255899,0.010046886280179024,0.024247905239462852,0.2843530476093292,0.00622545275837183,-0.22984099388122559,-0.12597934901714325,0.027226926758885384,0.03410029038786888,-0.14469631016254425,-0.11666654795408249,-0.29066017270088196,0.09103941917419434,-0.0709645226597786,-0.04374542832374573,-0.26605749130249023,-0.18551947176456451,-0.07972220331430435,-0.30945533514022827,-0.008990627713501453,0.1438695341348648,0.10619489848613739,-0.08972163498401642,-0.17821596562862396,0.008005974814295769,0.16090548038482666,0.09393434971570969,0.24804049730300903,-0.05458375811576843,-0.26536962389945984,0.011959410272538662,0.17621685564517975,0.27234891057014465,0.08195599168539047,-0.05267869681119919,-0.1303073763847351,-0.0616288036108017,-0.07787613570690155,-0.24064314365386963,0.019420213997364044,0.14046548306941986,-0.1617894321680069,-0.10951897501945496,0.016034284606575966,0.1422804296016693,-0.04552844166755676,0.246133953332901,-0.019558459520339966,0.030432580038905144,-0.035318393260240555,-0.05933551490306854,0.06941480189561844,0.020169666036963463,0.178592249751091,-0.08912241458892822,-0.03470345214009285,-0.014671585522592068,-0.0046538179740309715,-0.04748276248574257,-0.2414262741804123,0.31550291180610657,0.21870024502277374,0.2056214064359665,0.04664214327931404,0.3601800203323364,0.007384667173027992,-0.1906103640794754,-0.0478152260184288,-0.25158023834228516,-0.1351841539144516,-0.2132190763950348,-0.21300360560417175,0.17204166948795319,0.1337677389383316,0.13718092441558838,0.04603424295783043,0.12304253876209259,0.12069687992334366,0.017254823818802834,0.00009606934327166528,0.05216429755091667,0.061556048691272736,0.3506838381290436,0.29872092604637146,0.16525113582611084,0.25247254967689514,0.16955535113811493,-0.05221831053495407,-0.025773318484425545,0.08195505291223526,0.008711162023246288,-0.0393020398914814,-0.029340596869587898,-0.11771617084741592,0.022894715890288353,0.15692807734012604,-0.08054192364215851,0.06682702898979187,-0.11071261018514633,0.06200789660215378,0.05149885639548302,0.06633252650499344,0.014374635182321072,-0.004289461765438318,-0.07069671899080276,-0.07961471378803253,-0.2672097980976105,-0.19368809461593628,0.0627463236451149,-0.09837006777524948,-0.0642164796590805,0.08057846873998642,0.10229916870594025,0.12486004084348679,-0.00822441652417183,0.14966076612472534,0.12911006808280945,-0.1384987235069275,-0.06060541793704033,0.06127919256687164,-0.04595603793859482,-0.008776983246207237,0.2007938176393509,0.06593679636716843,0.08806012570858002,0.13678032159805298,-0.14715373516082764,-0.0439378060400486,0.41625869274139404,0.07499564439058304,0.06236640736460686,-0.0030906852334737778,-0.002006188267841935,-0.00819827988743782,-0.33048051595687866,-0.03031022660434246,-0.08061641454696655,-0.17531295120716095,-0.06028039753437042,-0.07583358138799667,0.13795986771583557,0.19752545654773712,0.2973071038722992,-0.2424352765083313,0.08251418173313141,0.16209670901298523,-0.10789936035871506,0.2932076156139374,0.09781727194786072,-0.030787134543061256,-0.24866856634616852,-0.12508580088615417,-0.0071747153997421265,-0.11742189526557922,-0.24986302852630615,0.1416058987379074,0.22338461875915527,-0.009100368246436119,0.16113770008087158,0.30901405215263367,-0.11433682590723038,0.046541374176740646,-0.037816546857357025,-0.39562222361564636,0.3321269750595093,0.05800534784793854,-0.020078489556908607,-0.1196584478020668,-0.17946992814540863,-0.02390080690383911,0.2523840665817261,0.41246363520622253,0.1336798071861267,0.09115957468748093,0.015991510823369026,0.13920335471630096,0.017130857333540916,0.22442929446697235,0.2926076650619507,0.14277367293834686,-0.040514495223760605,-0.038404978811740875,-0.029370974749326706,-0.018349770456552505,-0.03243988752365112,-0.42903661727905273,-0.18361574411392212,-0.11569154262542725,0.29878225922584534,0.31675681471824646,0.39577093720436096,-0.7793366312980652,0.00937848724424839,0.1745796501636505,-0.21461166441440582,0.06109693646430969,0.11492812633514404,-0.1463448405265808,0.07710666209459305,-0.062191687524318695,0.16073869168758392,0.01010152231901884,-0.05388130620121956,-0.08276069909334183,0.12257324904203415,0.0336323119699955,-0.14452195167541504,0.17043514549732208,-0.10840936750173569,0.125036358833313,0.2802656292915344,0.40914657711982727,0.04475390911102295,-0.2487894743680954,-0.07830267399549484,0.3174417316913605,-0.27301788330078125,-0.3392455279827118,-0.15919575095176697,0.04273451119661331,0.26326942443847656,-0.1673169732093811,0.08531022816896439,0.058032263070344925,-0.18711307644844055,0.04790349677205086,-0.003300271462649107,-0.11531907320022583,0.006421018857508898,-0.20249615609645844,-0.17457479238510132,0.17561662197113037,0.09571217000484467,0.13006065785884857,0.14001566171646118,0.27606362104415894,-0.12339205294847488,-0.025512585416436195,0.43270668387413025,-0.0030853685457259417,-0.06936535239219666,0.021578682586550713,0.042633432894945145,0.12643425166606903,0.26155075430870056,0.12587830424308777,0.09848254173994064,0.1673954427242279,0.07297850400209427,-0.061606794595718384,-0.22549892961978912,-0.2848018407821655,0.06776444613933563,0.17630311846733093,0.0482071228325367,0.12802986800670624,0.18693368136882782,0.09065718203783035,0.06977155059576035,-0.004192494321614504,-0.0499160960316658,-0.10992863774299622,-0.25254058837890625,-0.1415139138698578,-0.01725723221898079,0.2053852379322052,0.24337145686149597,0.3919563889503479,0.2169511616230011,0.03036506660282612,0.10877455025911331,0.16113755106925964,0.021898018196225166,0.1473364681005478,0.3371354937553406,0.23158325254917145,-0.11833749711513519,-0.05215343460440636,-0.09789449721574783,-0.19054144620895386,-0.10905782878398895,-0.17833292484283447,0.12340650707483292,0.08904396742582321,0.0036880732513964176,-0.0009972117841243744,0.04835674539208412,0.12716634571552277,