{"version":"0.5.4","metadata":{"date":{"year":2025,"month":10,"day":11,"hour":6,"minute":38,"second":45},"loudness":-23.269853591918945,"gain":0.0019782519301899553,"name":"30-450 L","modeled_by":"chibis","gear_type":"studio","gear_make":"tz-make","gear_model":"tz-model","tone_type":"overdrive","input_level_dbu":null,"output_level_dbu":null,"training":{"settings":{"ignore_checks":false},"data":{"latency":{"manual":null,"calibration":{"algorithm_version":1,"delays":[-151],"safety_factor":1,"recommended":-152,"warnings":{"matches_lookahead":false,"disagreement_too_high":false}}},"checks":{"version":3,"passed":true}},"validation_esr":0.0006713617058014781}},"architecture":"WaveNet","config":{"layers":[{"input_size":1,"condition_size":1,"head_size":8,"channels":16,"kernel_size":3,"dilations":[1,2,4,8,16,32,64,128,256,512],"activation":"Tanh","gated":false,"head_bias":false},{"input_size":16,"condition_size":1,"head_size":1,"channels":8,"kernel_size":3,"dilations":[1,2,4,8,16,32,64,128,256,512],"activation":"Tanh","gated":false,"head_bias":true}],"head":null,"head_scale":0.02},"weights":[-0.000469038262963295,0.13531652092933655,-0.7504187226295471,-0.5760162472724915,-0.06286761164665222,-0.0019891017582267523,-0.0013946151593700051,0.36722230911254883,0.00197541038505733,0.000046634890168206766,-0.21365147829055786,-0.009038098156452179,-0.7645597457885742,-0.4891706705093384,-0.06054838374257088,0.013497741892933846,0.03148912638425827,0.056699905544519424,-0.058505672961473465,-0.08295847475528717,-0.06222179904580116,0.10024559497833252,0.00864894688129425,0.24828043580055237,0.008485243655741215,0.050000764429569244,0.26578056812286377,-0.10761113464832306,-0.04861956834793091,0.07160437852144241,-0.032848015427589417,0.10435561835765839,-0.10597281903028488,-0.17266277968883514,0.00553634250536561,-0.05452513322234154,-0.10948996990919113,0.08449586480855942,-0.0688578262925148,0.040859024971723557,0.10284028202295303,-0.027739880606532097,0.08609746396541595,-0.1464315503835678,-0.09382347762584686,-0.07408458739519119,0.11244551092386246,0.20295587182044983,-0.05653594434261322,-0.023489374667406082,0.1284284144639969,0.22880063951015472,0.0948949083685875,0.1579171121120453,0.12685634195804596,-0.04851146042346954,0.16273078322410583,-0.08144789934158325,-0.06984929740428925,0.03916732966899872,0.087715744972229,0.013354483991861343,0.0102061927318573,-0.3554263412952423,-0.05892219766974449,-0.17999310791492462,-0.09843257814645767,0.05388762801885605,0.09287427365779877,0.23311160504817963,-0.12977448105812073,-0.05099323391914368,-0.06303030252456665,0.10121430456638336,0.12589816749095917,0.004503816831856966,0.016029125079512596,-0.15360870957374573,-0.10273587703704834,-0.010554098524153233,-0.1263398975133896,0.15690356492996216,0.032829008996486664,-0.16947795450687408,-0.14118511974811554,-0.009338273666799068,-0.019277945160865784,0.05201869457960129,-0.09578360617160797,-0.09715278446674347,0.037197522819042206,0.054826512932777405,0.06497446447610855,0.052665892988443375,-0.16749772429466248,-0.10276676714420319,-0.06404568254947662,-0.03214415907859802,-0.1423652470111847,-0.02709995023906231,0.11925708502531052,0.09908173233270645,-0.18301066756248474,-0.05446832999587059,-0.13725852966308594,-0.1188342422246933,-0.1340550035238266,-0.11943724006414413,-0.10822368413209915,-0.0279273372143507,0.20253565907478333,-0.2943931221961975,-0.008996332995593548,0.07555335760116577,-0.03333728387951851,-0.13626480102539062,-0.08545240759849548,-0.15110428631305695,0.03548938408493996,0.08455590158700943,0.24202227592468262,0.022217676043510437,-0.020494112744927406,0.25278863310813904,-0.1191825419664383,-0.03238924220204353,0.11974018067121506,-0.09853236377239227,-0.10008510947227478,-0.26820430159568787,-0.012657052837312222,0.0266434233635664,-0.09968464076519012,-0.02215549349784851,0.05199714004993439,-0.18819332122802734,-0.06918210536241531,0.014645148999989033,0.20259714126586914,0.045210111886262894,0.04775329679250717,-0.04459162801504135,0.1516977846622467,0.042495910078287125,0.05345906317234039,-0.03597280755639076,0.13475026190280914,0.12324026226997375,-0.057801611721515656,-0.060997750610113144,0.04897870123386383,-0.1068447157740593,0.021937411278486252,0.2631915807723999,0.09072066098451614,-0.08739694207906723,0.25235435366630554,-0.04330579936504364,-0.09547775983810425,-0.07345043122768402,-0.023797065019607544,-0.020729610696434975,-0.1561555117368698,-0.10542075335979462,-0.011212613433599472,0.08819872885942459,-0.0768464207649231,0.04918796196579933,-0.23305106163024902,-0.018783992156386375,0.12078776210546494,-0.16452260315418243,0.13472239673137665,0.010527174919843674,-0.25347328186035156,0.16255146265029907,0.0626290962100029,-0.040683094412088394,0.09437115490436554,-0.13108649849891663,-0.23314125835895538,-0.0237863902002573,0.11268039047718048,0.14642898738384247,-0.019199859350919724,0.0007739682914689183,0.20525777339935303,0.07203211635351181,-0.10831476747989655,0.13939061760902405,0.10373120754957199,0.08225060999393463,-0.22210772335529327,-0.08739098906517029,-0.1797763854265213,-0.08218485862016678,-0.0924818366765976,0.04465579241514206,-0.18930532038211823,-0.013686600141227245,-0.0013322517042979598,-0.007841977290809155,-0.12230702489614487,-0.11967045813798904,-0.17995697259902954,0.03612229600548744,-0.17168235778808594,-0.012280665338039398,0.04718756675720215,0.02489767037332058,-0.1078508049249649,-0.04021109640598297,0.018211087211966515,-0.050084736198186874,0.013355777598917484,0.020264500752091408,-0.08488912135362625,-0.06172243878245354,0.11922705918550491,-0.08832170814275742,0.004492355510592461,0.1508900374174118,0.06769169867038727,-0.027658266946673393,-0.11883924901485443,0.06732837855815887,-0.020466212183237076,0.026163356378674507,0.06790155172348022,-0.03326629102230072,-0.00025662672123871744,0.09557586163282394,-0.013164031319320202,0.03242378681898117,0.200625479221344,-0.02246740832924843,0.13270339369773865,-0.017317630350589752,-0.04046859219670296,0.05375052988529205,0.08552626520395279,0.13356278836727142,-0.04881580173969269,-0.0478433258831501,0.08613400161266327,-0.1393156796693802,0.13011251389980316,-0.10525462031364441,0.003968194127082825,0.0012838424881920218,-0.05897015333175659,0.019041500985622406,0.1342480331659317,0.04428824782371521,-0.1376662701368332,0.3260720372200012,-0.07337965816259384,0.11032511293888092,0.021542176604270935,-0.03355926275253296,-0.16876673698425293,-0.05306261405348778,0.027972185984253883,0.22352896630764008,0.20848163962364197,-0.09892528504133224,0.06827639788389206,0.19376210868358612,0.08464844524860382,0.10703689604997635,0.05690014734864235,0.0127120241522789,-0.10553237050771713,-0.1785373091697693,0.0050019193440675735,-0.09094159305095673,0.10101238638162613,-0.05103154480457306,-0.12021636217832565,-0.10582734644412994,0.0021768035367131233,-0.08052345365285873,-0.17883411049842834,0.12126392871141434,0.020460672676563263,0.036331214010715485,-0.10561314225196838,0.13740870356559753,0.09960570186376572,-0.09610151499509811,-0.08029580116271973,0.27909931540489197,-0.003943414893001318,0.1073642149567604,0.12104927003383636,-0.13943727314472198,0.2077944427728653,0.04578510299324989,0.00981756392866373,0.032717738300561905,0.06538654118776321,0.06603419780731201,-0.0705401599407196,-0.45099034905433655,0.06617578119039536,-0.09805265069007874,0.06747192144393921,0.06878489255905151,-0.08808659762144089,-0.12346268445253372,-0.11110687255859375,0.1495734602212906,0.16667501628398895,-0.048771072179079056,0.22188439965248108,0.20834343135356903,-0.05515057221055031,0.12809662520885468,0.15060409903526306,0.030762100592255592,0.001132659032009542,-0.17299027740955353,-0.044241201132535934,0.051473069936037064,-0.01662055402994156,0.11848961561918259,-0.07790901511907578,-0.09018991142511368,0.09817159175872803,-0.027309568598866463,-0.08741279691457748,-0.15438292920589447,0.08435860276222229,0.01586003601551056,-0.10452216863632202,0.20764820277690887,0.19799774885177612,0.11438675969839096,0.18686670064926147,0.32159224152565,-0.027129806578159332,0.11933537572622299,0.2343614250421524,0.08651474118232727,0.08006956428289413,0.24457241594791412,0.07533295452594757,0.21720367670059204,0.008125877939164639,-0.04709760099649429,-0.0743899866938591,-0.3574104905128479,-0.15815198421478271,-0.03408248350024223,-0.03809409216046333,0.09425495564937592,-0.06227197125554085,0.1237109825015068,-0.13852855563163757,0.05585763603448868,-0.1720605492591858,-0.178958922624588,-0.09377984702587128,0.03791412338614464,0.055294524878263474,0.10098844766616821,0.017784418538212776,-0.06410489231348038,0.024771645665168762,-0.05265727639198303,-0.10963160544633865,0.013579088263213634,-0.32585760951042175,-0.03738023713231087,-0.15221050381660461,-0.002213492291048169,-0.002321922453120351,0.047143783420324326,0.30605506896972656,0.08337432146072388,0.14270086586475372,-0.02503015659749508,0.03324109688401222,0.14729152619838715,-0.03173644468188286,0.14564593136310577,0.021487439051270485,0.1897704005241394,-0.08823459595441818,0.09126046299934387,-0.05979736149311066,-0.07043547183275223,-0.06061451882123947,-0.15279828011989594,-0.13899381458759308,0.0913187712430954,0.03754524141550064,-0.04795287176966667,0.06075781211256981,-0.1254887580871582,0.17239978909492493,0.03803914785385132,-0.021457288414239883,0.16060034930706024,0.022791139781475067,-0.17677929997444153,0.11456181108951569,0.1422010064125061,0.016603698953986168,0.05668747052550316,-0.05046025291085243,0.045190099626779556,0.0893549770116806,0.03077915497124195,-0.0512324795126915,-0.0240641962736845,-0.07342550158500671,-0.09139938652515411,0.0199201088398695,0.18016697466373444,0.061116792261600494,-0.06356660276651382,-0.02549673803150654,0.004653592593967915,0.14588487148284912,-0.03762677684426308,0.13364242017269135,-0.08179854601621628,-0.11038841307163239,0.008905119262635708,-0.13087648153305054,0.08444522321224213,0.18933632969856262,-0.0010370141826570034,-0.059498630464076996,0.019081365317106247,0.007869303226470947,-0.0784786269068718,0.1389625370502472,-0.15381880104541779,-0.10474070906639099,-0.07034489512443542,-0.057931337505578995,0.13400480151176453,-0.06855273991823196,0.28278180956840515,0.03586035221815109,0.036966897547245026,0.07262641191482544,-0.032143399119377136,0.19622822105884552,0.04654382914304733,0.20757967233657837,0.05833429843187332,-0.07087519764900208,0.035789038985967636,0.025874076411128044,0.09278880059719086,-0.1985219568014145,-0.0206470750272274,-0.13078616559505463,-0.10453654080629349,0.054714854806661606,-0.16861851513385773,0.06168024614453316,0.10827640444040298,0.008727556094527245,-0.039442963898181915,0.026270341128110886,-0.06425075232982635,0.13991840183734894,0.12327613681554794,0.09155673533678055,-0.054297834634780884,0.13875260949134827,-0.12902358174324036,-0.08859843015670776,0.0663309097290039,-0.04780538007616997,0.0018956894055008888,-0.06232858821749687,-0.027079733088612556,-0.12181406468153,-0.008636490441858768,0.007168835029006004,0.0251210555434227,0.10598088055849075,0.10398879647254944,-0.07717549055814743,-0.028083965182304382,-0.003885408164933324,-0.037121206521987915,0.09114330261945724,-0.04057255759835243,0.09728285670280457,0.36502715945243835,-0.17353186011314392,-0.054616738110780716,0.05227770656347275,0.0072420150972902775,-0.006273316685110331,0.15896470844745636,0.18676115572452545,-0.06446690857410431,0.05618862435221672,0.038167111575603485,-0.10030807554721832,-0.0024636611342430115,0.05514252930879593,-0.054385531693696976,-0.081101194024086,-0.05833234637975693,-0.07103142887353897,0.09846415370702744,0.03525691106915474,0.018912479281425476,0.13033118844032288,-0.09640137851238251,0.22428230941295624,0.043841712176799774,0.10985109210014343,-0.1190667375922203,-0.060391537845134735,-0.20146170258522034,-0.03550218790769577,-0.06667672842741013,0.26095372438430786,-0.16550911962985992,-0.036891963332891464,0.08466250449419022,0.11059029400348663,-0.03358449786901474,0.005285945720970631,-0.2653793394565582,-0.17441092431545258,0.11527498811483383,-0.18132589757442474,-0.15872685611248016,0.06213879585266113,-0.09124525636434555,-0.1252908706665039,0.02170385606586933,-0.046664632856845856,0.3547840714454651,-0.041238561272621155,0.11772657185792923,-0.04352705180644989,-0.040295470505952835,-0.07743365317583084,0.2344844788312912,-0.09126141667366028,-0.10762623697519302,0.03386521339416504,-0.04243951663374901,0.06143910065293312,-0.11791784316301346,0.027767909690737724,-0.0019639497622847557,0.003519629128277302,-0.038831375539302826,-0.13324542343616486,-0.010900842025876045,-0.11363717913627625,-0.020736249163746834,-0.12461716681718826,0.08966138958930969,-0.06088170036673546,0.07763147354125977,0.05651053041219711,-0.0078084152191877365,0.09076029807329178,0.07823716104030609,-0.028286537155508995,-0.007844259962439537,0.04626952484250069,0.15814751386642456,-0.14340880513191223,-0.1019781231880188,0.06282436102628708,0.04968136548995972,0.005220097955316305,-0.0877402052283287,-0.23897534608840942,0.08194742351770401,0.01844853162765503,-0.1809447854757309,0.08469460159540176,0.07635263353586197,0.020966624841094017,-0.045088931918144226,-0.19380666315555573,0.06805738806724548,-0.1925557553768158,0.07421162724494934,0.11281203478574753,0.12154892832040787,-0.23443390429019928,0.12171651422977448,0.08875390887260437,0.2627803683280945,-0.10514530539512634,-0.10473375767469406,0.029447995126247406,0.14939871430397034,-0.09732676297426224,0.029137933626770973,0.08162619173526764,-0.0127573786303401,-0.0581144355237484,-0.12635205686092377,-0.022003009915351868,-0.09548074752092361,0.05215902253985405,-0.020168539136648178,-0.07407777011394501,0.11097494512796402,0.05457731708884239,0.003750690259039402,0.1870405226945877,0.04718198999762535,-0.07409540563821793,0.10869372636079788,-0.028076380491256714,-0.029040370136499405,-0.04859454929828644,-0.1680620312690735,0.15254852175712585,0.08308720588684082,-0.1788191795349121,0.12325289845466614,0.10764816403388977,-0.010334026999771595,0.1748274862766266,0.030678994953632355,0.005242522340267897,0.06717737764120102,-0.04935944080352783,-0.21361388266086578,-0.05540582537651062,-0.3288162052631378,-0.007391909137368202,0.08838158845901489,0.040265027433633804,-0.012029287405312061,-0.04636980593204498,0.25996047258377075,-0.043551500886678696,0.07435678690671921,-0.2561589181423187,0.006537144538015127,0.03330788016319275,-0.20156845450401306,0.14632101356983185,-0.15668530762195587,-0.24668854475021362,-0.056079890578985214,0.07607483863830566,0.2239026576280594,-0.07080399990081787,0.042417000979185104,-0.06407483667135239,-0.06610110402107239,0.15132705867290497,0.022105518728494644,-0.04937009513378143,0.08364688605070114,0.03920052573084831,0.11081399768590927,-0.039732642471790314,0.11897040158510208,-0.09770257025957108,-0.07060237973928452,-0.1733057051897049,0.0031891074031591415,-0.013448351994156837,0.019476372748613358,0.02029976062476635,-0.04937240108847618,-0.04157445207238197,-0.0005656994762830436,0.08156400173902512,-0.23461908102035522,0.004791267216205597,-0.055173393338918686,-0.05828603729605675,0.11005654186010361,0.057688694447278976,-0.1422809511423111,-0.025269143283367157,-0.08024515956640244,-0.009689448401331902,-0.02550681307911873,-0.028568590059876442,0.11626095324754715,-0.0423213355243206,0.005493622738867998,0.114161416888237,-0.16304954886436462,0.16915284097194672,0.027627019211649895,-0.10430516302585602,0.13023939728736877,-0.14455817639827728,0.13934582471847534,-0.026413509622216225,-0.1735551953315735,0.0443224161863327,0.10587437450885773,-0.3242807984352112,0.14084289968013763,-0.14753419160842896,-0.0741981640458107,-0.17652608454227448,-0.08771984279155731,0.14337030053138733,-0.04732983186841011,-0.04110186547040939,-0.02369617111980915,0.037641994655132294,0.24560348689556122,0.10474879294633865,-0.18786875903606415,-0.0004354660341050476,0.14776301383972168,-0.13637803494930267,0.17341963946819305,0.14618341624736786,-0.16884756088256836,0.22574417293071747,-0.059422750025987625,-0.07896643877029419,0.2231208086013794,-0.01929384097456932,0.13956287503242493,0.08308424800634384,-0.3138180673122406,-0.06062472611665726,-0.14281944930553436,0.0909026563167572,-0.11769122630357742,-0.16868849098682404,0.05867929384112358,0.14762404561042786,0.03437020629644394,0.02838069014251232,0.1545717865228653,0.1677788943052292,-0.11792336404323578,0.015048475004732609,0.011078014969825745,-0.1537797600030899,-0.03406613692641258,0.10696016252040863,0.10162974894046783,0.05430896207690239,0.12118948996067047,0.018159320577979088,0.07617080956697464,-0.13128408789634705,-0.06131032109260559,0.11491622030735016,0.05417893826961517,-0.18446575105190277,0.14235739409923553,0.1055392473936081,-0.0709608718752861,-0.015127086080610752,0.18110646307468414,-0.16935384273529053,-0.050170402973890305,0.04868963360786438,-0.13907085359096527,0.11204458028078079,0.14976397156715393,0.049625594168901443,-0.06032969430088997,0.21629215776920319,-0.12636828422546387,0.16701990365982056,-0.08239096403121948,-0.1743917167186737,-0.04383470118045807,0.043513473123311996,-0.34476667642593384,-0.06485051661729813,-0.0892038643360138,-0.026953352615237236,-0.10678508877754211,-0.0033895899541676044,0.09736605733633041,-0.0028214191552251577,0.06973601132631302,0.05612869933247566,0.11223769932985306,-0.04676900431513786,-0.030208121985197067,-0.06137501820921898,-0.001753283548168838,0.00039255901356227696,-0.000549668853636831,0.40291380882263184,-0.3079710900783539,0.609041154384613,-0.6002460718154907,-0.02051687426865101,0.7339873909950256,0.8675110340118408,-0.499466210603714,0.10975692421197891,0.10834474861621857,-0.3933829069137573,-0.23194904625415802,0.2432471215724945,-0.5539291501045227,0.14719189703464508,0.461811900138855,-0.06199083477258682,0.005649543832987547,-0.01349587831646204,0.10116548836231232,0.2675815224647522,-0.14222034811973572,0.10811236500740051,-0.2179620862007141,-0.08089572191238403,-0.03713754564523697,0.06747373193502426,-0.03536495938897133,0.10218746960163116,-0.003537180135026574,0.14472854137420654,-0.013568236492574215,0.02827611193060875,-0.1590283364057541,-0.02678845264017582,-0.0471491776406765,-0.007430373691022396,-0.019940821453928947,-0.07116399705410004,0.040239300578832626,0.023122228682041168,-0.038702841848134995,0.12891647219657898,0.07975835353136063,-0.034420859068632126,0.12871910631656647,0.19977213442325592,0.14515601098537445,0.11327238380908966,0.057202402502298355,0.05221741273999214,0.08795633167028427,-0.07402625679969788,-0.040179841220378876,0.05338751897215843,-0.3809475302696228,-0.09894150495529175,-0.037331510335206985,0.21577727794647217,-0.08627991378307343,0.12115370482206345,0.0887083113193512,0.009173363447189331,0.21414703130722046,0.28109726309776306,-0.2013009935617447,-0.07423046231269836,-0.24137383699417114,0.04261650890111923,0.15207092463970184,0.03862665966153145,0.020833132788538933,-0.07602745294570923,0.1520279049873352,-0.12878592312335968,0.07384476810693741,0.10762621462345123,-0.01567009463906288,-0.12189258635044098,0.019843682646751404,-0.1284530758857727,-0.41274434328079224,-0.07485853880643845,0.10839369893074036,0.11999385803937912,0.05452819913625717,0.04805312678217888,-0.11757861077785492,0.2875312566757202,0.17263035476207733,-0.14922018349170685,-0.0395338237285614,-0.033230945467948914,0.06806513667106628,0.06556753814220428,0.028272470459342003,-0.23833104968070984,-0.11071619391441345,-0.13771699368953705,0.10095543414354324,0.17847906053066254,0.09836812317371368,0.2136302888393402,0.2132655680179596,0.011281982995569706,-0.06652946025133133,-0.23989182710647583,-0.052335482090711594,0.013507024385035038,-0.029618224129080772,0.18169638514518738,-0.004188316408544779,0.08275184780359268,-0.04267622530460358,0.2514597177505493,0.05429597198963165,-0.0780157744884491,-0.18028540909290314,0.03827328979969025,0.006678566802293062,0.0799175575375557,-0.12970362603664398,-0.15290842950344086,0.24056406319141388,0.15739893913269043,-0.2686232924461365,0.07305130362510681,-0.13995416462421417,0.1534503847360611,0.1293630599975586,0.044375281780958176,-0.3187881410121918,-0.3593159317970276,-0.03363243117928505,0.1726958304643631,0.1307685822248459,0.1837337166070938,-0.47512537240982056,0.2896125316619873,-0.3952755331993103,0.00605913856998086,-0.2485118955373764,-0.03705776855349541,-0.16149286925792694,-0.01980465278029442,-0.014118309132754803,0.06808243691921234,-0.3060891032218933,0.21928836405277252,0.04045333340764046,-0.11192818731069565,-0.16100536286830902,-0.015403134748339653,-0.15903553366661072,0.11648113280534744,0.15659290552139282,0.0038344510830938816,-0.13170641660690308,0.014614982530474663,0.15183965861797333,-0.23212112486362457,0.053221337497234344,0.089617520570755,-0.239479199051857,-0.31747788190841675,0.052851662039756775,0.20373891294002533,-0.05611209571361542,0.1936669796705246,0.011788185685873032,0.011282561346888542,-0.12210618704557419,0.2068263739347458,0.1022302582859993,-0.09930626302957535,0.001881723990663886,0.24466127157211304,0.15318606793880463,-0.15751446783542633,0.10936929285526276,0.03258053585886955,-0.1605043113231659,0.058339618146419525,-0.12716522812843323,0.10289645195007324,-0.07391951978206635,-0.17344798147678375,0.07602249085903168,-0.047815825790166855,-0.026213860139250755,0.0896938145160675,0.30143535137176514,-0.0954163670539856,0.039138007909059525,0.07287010550498962,0.008348171599209309,-0.029731841757893562,-0.10299304872751236,-0.0797056332230568,0.1581694334745407,0.16431529819965363,-0.21677030622959137,0.08994532376527786,-0.22072140872478485,-0.14004985988140106,-0.02192826010286808,-0.25565657019615173,-0.19595983624458313,0.02510378323495388,-0.016758477315306664,-0.01565546728670597,0.047336895018815994,0.13558785617351532,-0.11037163436412811,-0.07378958910703659,0.047403912991285324,0.027653036639094353,0.10239268839359283,-0.046947602182626724,0.19523315131664276,0.10108575969934464,-0.062066853046417236,-0.15616323053836823,0.2021382451057434,0.03127382695674896,-0.09128865599632263,-0.015306316316127777,0.05383184924721718,0.018791725859045982,0.18928849697113037,0.046511467546224594,-0.03482124209403992,0.04057332128286362,0.03288024291396141,0.13173560798168182,0.06375344097614288,-0.29815855622291565,-0.12337033450603485,-0.3015514314174652,0.2989586293697357,-0.14439742267131805,0.26912379264831543,0.012848726473748684,-0.09762348234653473,0.15345372259616852,0.13910868763923645,0.19374306499958038,0.06701325625181198,-0.02230784296989441,0.21751707792282104,-0.027403175830841064,-0.11284425854682922,0.1821005940437317,-0.06643155962228775,-0.2587786018848419,-0.011126871220767498,0.3555404543876648,0.07103850692510605,0.14179986715316772,-0.06671077758073807,-0.10330425202846527,0.29078447818756104,0.1524234414100647,0.24895431101322174,0.06887617707252502,-0.1557043343782425,-0.19710654020309448,-0.2472839057445526,0.15501604974269867,0.047427352517843246,0.18277986347675323,-0.01198546588420868,0.05805136263370514,-0.018228093162178993,0.14097344875335693,-0.06760917603969574,-0.04987596347928047,-0.039171431213617325,0.052653584629297256,0.021345384418964386,-0.006318732630461454,-0.03604057431221008,0.05325016751885414,0.034192394465208054,-0.011446702294051647,0.0878896564245224,-0.028898019343614578,0.010104275308549404,-0.06504219025373459,-0.08701157569885254,-0.11686266213655472,0.06698495894670486,-0.07896619290113449,0.26761382818222046,0.05056725814938545,-0.10205855965614319,0.0004222442803438753,-0.08971744775772095,-0.1368924230337143,0.005032537505030632,-0.05225057527422905,-0.027599554508924484,-0.12831147015094757,0.010715468786656857,-0.16794918477535248,0.017053034156560898,-0.032432254403829575,-0.1750548630952835,-0.01921788789331913,-0.1533813327550888,-0.08878608793020248,-0.12125219404697418,0.0216628760099411,0.03304785117506981,-0.011054428294301033,-0.16171446442604065,0.01969209872186184,-0.025845058262348175,-0.01920231431722641,-0.2113180160522461,0.002358662197366357,0.041483424603939056,0.06766842305660248,-0.17493294179439545,-0.060783348977565765,-0.06879115104675293,0.031367480754852295,-0.04921668767929077,0.03427920863032341,-0.1072242483496666,-0.032749682664871216,0.0643283948302269,0.04318728297948837,0.08302571624517441,-0.36501431465148926,-0.0860539898276329,-0.11153724044561386,-0.04534401744604111,0.15704938769340515,-0.19937632977962494,-0.07762202620506287,0.10691443830728531,0.0063744205981493,-0.11160539090633392,0.22202540934085846,-0.09839104115962982,-0.11948434263467789,0.06458552926778793,0.09198673814535141,-0.11904209852218628,0.03535146266222,-0.20510490238666534,-0.2693071961402893,0.027455028146505356,0.17210346460342407,-0.20186732709407806,0.06791558861732483,0.054938431829214096,-0.08364607393741608,-0.04054447263479233,-0.05964180454611778,-0.011760911904275417,-0.10235485434532166,0.08202145248651505,0.018636317923665047,-0.17708100378513336,0.10146371275186539,-0.14912761747837067,0.1896837204694748,0.08912311494350433,0.19053085148334503,-0.15312299132347107,-0.07207085192203522,-0.14266137778759003,0.2164812833070755,0.06500425934791565,0.046969182789325714,0.07804691046476364,0.03969636932015419,-0.09363334625959396,-0.033551640808582306,-0.06382731348276138,-0.2667055130004883,0.0814431831240654,-0.10890556126832962,-0.11654402315616608,0.03148909658193588,0.07766233384609222,0.17744983732700348,-0.2112276405096054,-0.08450357615947723,-0.036255814135074615,0.11981919407844543,0.16226325929164886,-0.01506050955504179,-0.0010668934555724263,0.12952066957950592,-0.041714392602443695,0.12624575197696686,0.12145815789699554,0.08099538087844849,0.18390077352523804,0.18044151365756989,-0.2172495722770691,-0.06413167715072632,-0.15151064097881317,-0.1377730369567871,-0.06345019489526749,-0.17338883876800537,-0.07631829380989075,-0.11393679678440094,-0.019414717331528664,0.11321189999580383,-0.2641710340976715,-0.13400627672672272,-0.19316436350345612,0.09282797574996948,-0.07963015884160995,-0.10881812870502472,0.22849826514720917,0.12745453417301178,-0.058221589773893356,0.05161643773317337,-0.04702208191156387,-0.0771583765745163,0.08589401841163635,0.015443898737430573,0.09989570081233978,0.06152983009815216,-0.007105162832885981,0.08983048796653748,0.09714902192354202,-0.09070587903261185,-0.1410260796546936,0.004290871322154999,-0.1494605988264084,0.056546006351709366,0.14369359612464905,0.08494394272565842,-0.10334070771932602,-0.29948416352272034,0.10876086354255676,0.1703670173883438,-0.22453372180461884,-0.12178144603967667,-0.11284295469522476,-0.0707632303237915,-0.15279561281204224,0.3273349106311798,-0.029305150732398033,0.020328471437096596,0.12359575927257538,-0.0789860412478447,-0.15322113037109375,0.04572856426239014,0.2379903346300125,0.08812887221574783,-0.3251180052757263,0.0676875114440918,0.12906184792518616,-0.08871256560087204,0.07035886496305466,0.09140521287918091,-0.06325659155845642,-0.11708002537488937,0.13547977805137634,-0.09065654128789902,0.23807615041732788,0.13697396218776703,0.16210922598838806,-0.2609359323978424,0.11480394750833511,-0.16226688027381897,-0.25382745265960693,-0.050597045570611954,-0.0479181706905365,0.031231263652443886,0.07688195258378983,0.33562031388282776,0.01893669180572033,-0.027336711063981056,0.013138383626937866,-0.08602498471736908,0.05105496197938919,0.25865694880485535,-0.08873970061540604,-0.08631238341331482,-0.01679961010813713,0.013579374179244041,-0.0743521898984909,0.055221349000930786,0.1588689535856247,0.32712194323539734,0.16888660192489624,-0.0510365329682827,0.2195282280445099,-0.10411861538887024,-0.15634730458259583,0.2310941368341446,-0.23058639466762543,0.014461071230471134,-0.04787503182888031,0.2393680065870285,0.042858321219682693,-0.09639059752225876,0.5125842690467834,0.10652021318674088,-0.02374132163822651,-0.042162954807281494,0.020464222878217697,0.1747911423444748,-0.023015489801764488,0.03278876841068268,-0.5148085951805115,-0.24613523483276367,0.19086994230747223,-0.16495665907859802,-0.29907113313674927,0.09864839166402817,0.00015035121759865433,-0.04383816570043564,0.11926324665546417,0.04465651139616966,-0.09162008762359619,-0.050607938319444656,0.25760549306869507,0.05007484182715416,-0.030371608212590218,-0.1274922788143158,-0.20620788633823395,-0.17924028635025024,-0.17804944515228271,0.08523917198181152,0.17781394720077515,-0.11993946880102158,-0.04195874556899071,-0.19242696464061737,-0.07412981241941452,0.1769719123840332,-0.0896618440747261,0.06676515191793442,0.07755549252033234,0.15422311425209045,0.25491106510162354,0.015273772180080414,-0.07446461915969849,0.13154788315296173,-0.24386519193649292,-0.1881931573152542,0.07446067035198212,0.045938801020383835,0.46929290890693665,-0.01335201133042574,0.19722980260849,0.15155449509620667,0.054860565811395645,0.00038303536712192,0.10005246847867966,0.004338851198554039,0.05178709328174591,-0.06975632905960083,0.0944300964474678,-0.2518785297870636,0.0006009952630847692,0.0627427026629448,0.10681667178869247,-0.39149269461631775,-0.1428298056125641,-0.07009738683700562,-0.0013861357001587749,-0.1199793815612793,0.11451670527458191,-0.17054440081119537,-0.024681340903043747,0.217415913939476,-0.05168003588914871,-0.08476928621530533,-0.021193716675043106,-0.07947321236133575,0.05287584289908409,0.11683662235736847,0.14773085713386536,-0.0005188453942537308,-0.14009970426559448,0.03675533086061478,0.15875022113323212,-0.09996776282787323,-0.023172834888100624,0.023330597206950188,0.1604383885860443,-0.13461630046367645,0.14571897685527802,0.05602109059691429,0.10110703110694885,0.17270709574222565,-0.16163639724254608,-0.06165749207139015,-0.12314458191394806,0.0355944000184536,0.11990964412689209,0.010925916023552418,-0.1777794361114502,-0.0689627006649971,0.02124812640249729,0.002149782842025161,0.02155902422964573,0.08683421462774277,-0.29879888892173767,0.020117126405239105,0.08063235878944397,0.232402041554451,-0.23030422627925873,0.060783084481954575,0.047873083502054214,0.1695391684770584,-0.014017270877957344,0.05242579057812691,-0.18542321026325226,-0.07594046741724014,-0.0361500084400177,-0.07750880718231201,-0.11986438184976578,-0.3426630198955536,0.018446601927280426,-0.16542667150497437,-0.015058280900120735,-0.02864275500178337,0.08326132595539093,-0.0038255988620221615,-0.008042875677347183,-0.13002905249595642,-0.07652667909860611,0.12432911992073059,-0.04317961260676384,-0.15020154416561127,-0.03224653750658035,0.10389596223831177,-0.11157389730215073,-0.3135235011577606,0.26518717408180237,-0.25404080748558044,-0.12116283923387527,0.025505615398287773,-0.16564039885997772,-0.04650501534342766,-0.06176477670669556,-0.008353004232048988,0.028609689325094223,-0.12295487523078918,0.008482382632791996,0.3140956163406372,0.08450053632259369,0.13343794643878937,0.09553056955337524,0.05799901857972145,-0.2342616468667984,0.024202607572078705,0.010261855088174343,0.10163083672523499,-0.13936543464660645,-0.07568895816802979,-0.10379454493522644,0.01106793712824583,-0.15711668133735657,-0.04512138292193413,-0.09817362576723099,0.020664548501372337,0.004754668101668358,0.14188767969608307,-0.10244999080896378,-0.2324267327785492,0.07069522142410278,0.10606253147125244,0.132700577378273,-0.05247878655791283,-0.10517872124910355,-0.1892363727092743,-0.20153887569904327,0.1670786291360855,0.1658608615398407,0.1933639943599701,0.1509294956922531,0.08051135390996933,-0.1026577576994896,0.06828728318214417,0.0626763254404068,0.14639662206172943,-0.25241053104400635,0.15728759765625,-0.002029205672442913,0.07471778988838196,0.08293376117944717,0.09693116694688797,-0.09185822308063507,-0.2304936796426773,-0.07775213569402695,0.07488135993480682,-0.21454280614852905,-0.02067277580499649,0.02957054227590561,0.10168760269880295,-0.18893641233444214,0.10740618407726288,0.030867096036672592,-0.10033762454986572,-0.166578009724617,-0.0193229541182518,0.43220195174217224,0.04723303020000458,0.2691103518009186,0.1046166867017746,0.03806675225496292,-0.03540245443582535,-0.10831308364868164,0.0066553084179759026,-0.00004625219662557356,0.016755450516939163,0.05923529714345932,0.10696841776371002,-0.18467000126838684,0.1786206215620041,0.06385886669158936,-0.012130435556173325,-0.09833557903766632,0.05467814579606056,0.43642863631248474,-0.05700936168432236,-0.0675283819437027,-0.18996994197368622,-0.019687773659825325,0.03931136429309845,-0.0788707435131073,0.07317762821912766,-0.0637059360742569,-0.17650233209133148,-0.010041221976280212,-0.09263014048337936,0.08811055123806,0.13747698068618774,-0.08746209740638733,0.02076771669089794,-0.2338150590658188,-0.05200894549489021,0.2851990759372711,-0.14413723349571228,0.035444941371679306,0.008781428448855877,-0.1291884183883667,-0.07013996690511703,0.08213350921869278,-0.025885190814733505,-0.1545274406671524,0.09864330291748047,0.22207054495811462,0.17335455119609833,-0.26213765144348145,-0.021552247926592827,-0.12581029534339905,-0.11568734794855118,-0.11173434555530548,0.047738686203956604,-0.04768943786621094,-0.09098637104034424,-0.18994738161563873,0.004796761553734541,-0.09658224880695343,-0.35659149289131165,-0.09969552606344223,0.04875804856419563,0.08146679401397705,-0.14766554534435272,-0.08369471877813339,0.16436856985092163,0.13729119300842285,-0.027135051786899567,-0.15345044434070587,0.01059461385011673,-0.0909288078546524,-0.14533215761184692,0.013169498182833195,-0.06722959131002426,-0.04572061076760292,-0.3745938241481781,0.09224218130111694,-0.09497792273759842,-0.04861588776111603,-0.007421875838190317,0.024456022307276726,0.020671440288424492,-0.007079833187162876,0.13057415187358856,0.16280794143676758,0.0252380333840847,0.13359010219573975,0.2671242356300354,0.02697250247001648,-0.049075569957494736,0.04772239923477173,0.12003349512815475,-0.19825764000415802,-0.09690852463245392,0.06749026477336884,0.19570542871952057,-0.2249147891998291,-0.0027382548432797194,-0.13594774901866913,0.03944269195199013,0.05329668149352074,-0.10987469553947449,0.028391504660248756,0.018410740420222282,0.007397472392767668,-0.03064590133726597,0.10425520688295364,-0.39901381731033325,0.011557618156075478,0.14428463578224182,-0.043039336800575256,-0.17586426436901093,-0.030729403719305992,0.12150152027606964,0.21271912753582,-0.009982531890273094,-0.032043006271123886,-0.13663659989833832,0.1505788117647171,-0.00941853504627943,-0.10585953295230865,-0.04475770145654678,-0.03443055599927902,-0.27809467911720276,0.07978396862745285,-0.0719304233789444,0.010076639242470264,-0.018958894535899162,-0.2116287499666214,-0.11858652532100677,-0.0579405315220356,0.18824023008346558,0.2828088104724884,0.02299221232533455,-0.05621637776494026,0.07776160538196564,-0.09012310206890106,0.18113973736763,-0.03190465644001961,0.04804359748959541,-0.16221237182617188,-0.2657093405723572,-0.2623339295387268,0.061936140060424805,-0.31728288531303406,0.08686910569667816,-0.19130609929561615,-0.0833464115858078,0.14728787541389465,-0.01856791041791439,-0.17302069067955017,0.06051960587501526,0.03869450092315674,-0.17309579253196716,-0.05543701723217964,-0.31380173563957214,-0.11765169352293015,-0.043939340859651566,0.0155637226998806,-0.07617630809545517,0.10846156626939774,0.06370288878679276,-0.17734745144844055,0.0005855849594809115,0.15274401009082794,-0.06199418753385544,-0.09186244010925293,0.14619411528110504,-0.09882878512144089,0.059561196714639664,-0.12343372404575348,0.0192269179970026,0.0002505873853806406,-0.03260531276464462,0.10438088327646255,-0.14204701781272888,-0.06975014507770538,0.06148223578929901,-0.045344650745391846,-0.05133001506328583,0.06356388330459595,-0.1630396991968155,0.1314549446105957,0.10972711443901062,-0.07119596749544144,0.07524173706769943,-0.14395377039909363,-0.014524666592478752,0.294286847114563,0.0187365785241127,0.06188201159238815,-0.379859060049057,0.16829659044742584,0.03454377502202988,-0.02404194138944149,-0.03876398503780365,-0.06782756000757217,0.036548953503370285,-0.09369902312755585,0.011357522569596767,-0.0052058217115700245,0.021717775613069534,-0.034738119691610336,0.39554688334465027,-0.0433458611369133,0.013807274401187897,-0.04291839525103569,0.10736056417226791,-0.04506385698914528,0.12959609925746918,0.3742297887802124,0.2136184722185135,-0.13370299339294434,-0.06021689996123314,0.08957891166210175,-0.055691394954919815,-0.05854625627398491,-0.06054232642054558,-0.10587877780199051,-0.003854911308735609,-0.0820874273777008,0.03122125379741192,0.012498786672949791,0.09241898357868195,0.023708146065473557,-0.056468892842531204,0.004517428111284971,-0.04111562296748161,0.1513364017009735,-0.006932476535439491,-0.21125736832618713,-0.0003626260149758309,0.11736202985048294,-0.10926241427659988,0.07796560972929001,0.09775929152965546,-0.1096850261092186,-0.04011817276477814,0.0585898756980896,0.18452581763267517,-0.33866801857948303,-0.033573415130376816,0.007357184309512377,-0.13831712305545807,0.16838009655475616,0.07966727763414383,-0.25054144859313965,0.09469655156135559,-0.04336158186197281,-0.1274593621492386,0.053652480244636536,-0.27310869097709656,0.10206639766693115,-0.08318785578012466,0.06263167411088943,0.056662414222955704,-0.006483115721493959,0.0950491726398468,-0.21291275322437286,-0.0921960398554802,0.08902332931756973,0.04917522147297859,-0.0914243832230568,0.01673654280602932,0.014645550400018692,0.04462696611881256,0.008753946982324123,0.05893036350607872,0.14578242599964142,-0.06661483645439148,0.03744881600141525,-0.10417552292346954,0.01978798769414425,0.21209312975406647,-0.027637161314487457,0.09620022028684616,-0.060875456780195236,0.06110551208257675,-0.068055160343647,-0.1463836133480072,-0.38277724385261536,-0.36219659447669983,-0.04321490600705147,-0.06038796156644821,0.07061760872602463,0.11483374238014221,0.11746325343847275,0.09281770139932632,0.1850442886352539,0.06050408259034157,0.08656661212444305,0.03126950562000275,-0.11695679277181625,-0.023487305268645287,-0.0701979249715805,-0.1775559037923813,-0.12992241978645325,-0.35969141125679016,-0.04467736557126045,0.01325432863086462,-0.011283086612820625,-0.07751759886741638,0.0898408591747284,-0.0689806118607521,0.049560610204935074,0.013330293819308281,0.19072791934013367,0.008763773366808891,0.11567359417676926,-0.08915241807699203,0.02529727667570114,0.15334078669548035,-0.24669858813285828,-0.05080776289105415,0.047439225018024445,-0.008328862488269806,-0.07243672013282776,0.15296068787574768,-0.014420470222830772,-0.008240783587098122,0.13857398927211761,-0.36773571372032166,0.10783790051937103,-0.17524199187755585,0.07948224991559982,-0.16810347139835358,-0.2778629660606384,0.012398702092468739,-0.11734161525964737,0.09252436459064484,0.15870562195777893,-0.01691153459250927,0.18775181472301483,-0.27136409282684326,-0.03804744780063629,-0.17836631834506989,0.07057184725999832,-0.10279617458581924,-0.03748096898198128,-0.15418888628482819,0.00040542762144468725,0.1189960390329361,-0.20011253654956818,0.04933067783713341,-0.06844620406627655,-0.012220378965139389,-0.009618040174245834,0.3682127296924591,-0.10435758531093597,0.1029626801609993,0.03734605386853218,-0.012452109716832638,0.04219748452305794,-0.04420170560479164,0.07716654241085052,0.10204514116048813,0.07188092917203903,-0.039491891860961914,-0.053202155977487564,0.04440139979124069,0.07689591497182846,0.1013408675789833,0.0463164821267128,0.0049332501366734505,-0.07808658480644226,-0.2810479998588562,0.20583456754684448,0.20847749710083008,-0.47934862971305847,0.11364804953336716,-0.508399486541748,-0.1711270809173584,-0.3369193375110626,0.7151424884796143,-0.6681641340255737,-0.42789319157600403,-0.5807512998580933,0.18300101161003113,-0.5133523941040039,0.1650753617286682,-0.5714662671089172,-0.07025778293609619,0.03679141029715538,-0.083725206553936,0.3165346384048462,0.1578347235918045,-0.14561836421489716,-0.17867742478847504,-0.10620386153459549,-0.13032254576683044,-0.04545284062623978,0.1598593145608902,0.2519069314002991,0.1583637297153473,0.16003485023975372,-0.23543760180473328,-0.13763219118118286,-0.01639075204730034,-0.18296609818935394,0.16802044212818146,0.145783469080925,-0.21683277189731598,-0.01150367222726345,-0.10754069685935974,-0.2822331488132477,0.13010260462760925,-0.1140044629573822,0.16716107726097107,0.30629763007164,0.1654997318983078,0.20342984795570374,0.01875711791217327,0.24325965344905853,-0.08034676313400269,-0.2206449657678604,0.12288257479667664,0.25485822558403015,0.08668026328086853,0.17894381284713745,0.030965428799390793,-0.013047904707491398,0.02494845911860466,0.03362811356782913,-0.23970825970172882,-0.10816826671361923,-0.007964295335114002,0.10021932423114777,0.14902380108833313,0.0757199078798294,0.10057266056537628,0.05161330848932266,-0.13130000233650208,-0.15171514451503754,-0.16323211789131165,0.042783595621585846,-0.18087586760520935,-0.08824077248573303,0.03912459313869476,0.04144144430756569,0.030655933544039726,0.25330138206481934,0.29854482412338257,-0.1713477522134781,-0.022264346480369568,0.09969998151063919,0.33697310090065,0.05270662158727646,-0.3597775101661682,-0.21375510096549988,-0.0704774260520935,0.10627705603837967,0.03638174757361412,0.2889813184738159,0.11270254105329514,-0.1086038202047348,-0.087517648935318,0.04532419145107269,-0.08152059465646744,-0.09376027435064316,0.021785326302051544,-0.20819365978240967,-0.04838022589683533,-0.021154949441552162,-0.5331816673278809,-0.09702201932668686,0.09167610108852386,-0.1739824414253235,-0.04118483513593674,-0.00757951894775033,0.24197576940059662,0.24356286227703094,0.04539714381098747,-0.08724416792392731,0.055511098355054855,-0.14126954972743988,0.05808687210083008,0.04050397127866745,0.1930609792470932,-0.122012659907341,0.30032193660736084,-0.3064768612384796,0.10905497521162033,0.16730964183807373,-0.1630367934703827,-0.15575633943080902,0.2698512375354767,-0.021063484251499176,-0.10361459106206894,0.22748234868049622,-0.27898505330085754,-0.03363250568509102,-0.20177169144153595,0.11164981871843338,0.05541577190160751,0.004393010400235653,-0.009515793062746525,0.29906752705574036,0.16347084939479828,-0.03652779757976532,0.05928806960582733,0.004549578297883272,-0.06757253408432007,0.35419514775276184,-0.24983221292495728,0.01820921152830124,-0.18425309658050537,0.12434794008731842,0.1935456097126007,0.2083432823419571,-0.0949571281671524,0.07577867805957794,-0.04813478887081146,-0.0753096491098404,-0.15908709168434143,-0.17452169954776764,0.0010659085819497705,-0.2160871922969818,0.1601276993751526,-0.0836920514702797,0.1457887887954712,0.025670254603028297,-0.23824751377105713,0.1406732052564621,-0.20465776324272156,0.3008723556995392,-0.14279617369174957,-0.022801242768764496,-0.10347076505422592,0.05219830945134163,0.09311050921678543,-0.1316167563199997,0.13743078708648682,-0.057569053024053574,-0.0019709551706910133,0.137899249792099,0.050356775522232056,0.06472865492105484,0.1412731558084488,-0.021243564784526825,0.3265420198440552,-0.004715926479548216,-0.07916788756847382,-0.06090693548321724,0.12156978249549866,0.06671534478664398,0.0988590344786644,-0.1602925956249237,0.16385693848133087,-0.020682157948613167,0.26703134179115295,0.15252530574798584,-0.11457875370979309,0.09305887669324875,-0.1319429725408554,-0.03185874596238136,0.045727748423814774,0.015160877257585526,0.1523461639881134,0.23085173964500427,-0.028091946616768837,-0.16144047677516937,-0.2201116383075714,-0.08112449198961258,0.17161589860916138,0.21681557595729828,-0.2566717863082886,0.17343825101852417,0.3013555109500885,-0.049850527197122574,-0.17082929611206055,0.02373696118593216,0.06906324625015259,-0.16539636254310608,-0.2304183542728424,-0.2237328439950943,-0.39726465940475464,0.20368635654449463,-0.006667727138847113,0.051439378410577774,-0.2819708585739136,0.09765647351741791,-0.059645093977451324,-0.13899922370910645,-0.3826567232608795,-0.28905680775642395,0.4744250476360321,-0.3332333266735077,0.00028370425570756197,-0.005852789618074894,0.11275307089090347,0.10988447815179825,-0.03933574631810188,0.28980281949043274,-0.30987676978111267,-0.04568890482187271,0.15390369296073914,-0.1058434396982193,0.19533400237560272,0.11761193722486496,0.030114930123090744,-0.007368901278823614,-0.0006744590937159956,0.10964701324701309,-0.04538066312670708,-0.09575223922729492,0.036667242646217346,0.1568736881017685,0.17998413741588593,-0.015354380942881107,-0.03099975548684597,0.14030484855175018,0.19749468564987183,-0.007263259030878544,-0.0119487838819623,-0.07506107538938522,-0.09266425669193268,0.11849591881036758,0.016295451670885086,-0.08293788880109787,0.2953113317489624,0.08757126331329346,0.21875685453414917,-0.17381128668785095,-0.08362920582294464,0.05320693552494049,0.027970656752586365,0.14843925833702087,0.019987767562270164,0.10847295820713043,0.5205225944519043,-0.26084983348846436,0.27435898780822754,0.11508237570524216,-0.19747045636177063,-0.010394507087767124,-0.06201794371008873,-0.1950940191745758,-0.01645350456237793,0.007558415178209543,-0.05317891016602516,-0.018038291484117508,-0.10323765873908997,0.037894830107688904,0.04069314897060394,0.07263168692588806,0.08129500597715378,0.008368433453142643,0.031171949580311775,-0.10976196080446243,0.008718365803360939,-0.18513807654380798,-0.032759424299001694,-0.056298643350601196,0.0652860477566719,-0.015648921951651573,0.004672262351959944,0.004598251543939114,-0.22884699702262878,-0.07848017662763596,-0.06937970966100693,-0.07535029947757721,-0.01085540372878313,-0.009820191189646721,-0.10580264031887054,-0.1190057098865509,0.13152441382408142,0.12918463349342346,-0.10473069548606873,0.11021173000335693,0.13855841755867004,0.00469073373824358,-0.03504067659378052,-0.035698533058166504,0.07916257530450821,0.0452236533164978,-0.031047694385051727,-0.08349073678255081,-0.12481813132762909,0.011054336093366146,0.1380298137664795,0.08299955725669861,0.003985997289419174,-0.09264783561229706,-0.09555338323116302,-0.017022376880049706,-0.05608291178941727,-0.20202377438545227,0.17185445129871368,-0.08789614588022232,-0.06362305581569672,-0.22143667936325073,0.05026022717356682,-0.17167405784130096,-0.018958639353513718,-0.05809388682246208,0.09215354919433594,0.0532572865486145,-0.06590831279754639,0.11998249590396881,-0.09901365637779236,0.022099845111370087,-0.010198364965617657,-0.09812086075544357,-0.0217592790722847,-0.06207246333360672,0.0968775600194931,0.046105604618787766,0.18386587500572205,0.11829767376184464,0.012182692997157574,-0.012948291376233101,-0.09882532805204391,-0.13267339766025543,0.11258050054311752,-0.13464564085006714,0.008108671754598618,-0.07295279949903488,0.09097664058208466,-0.08728646486997604,0.08004492521286011,-0.11298280954360962,-0.03585447371006012,-0.04940216988325119,-0.04116309434175491,0.04975796863436699,0.07031350582838058,-0.056543175131082535,-0.26488131284713745,0.06331253796815872,0.10852975398302078,0.06600936502218246,0.15743692219257355,0.04149482026696205,-0.07106637209653854,-0.01929101161658764,-0.2765597105026245,-0.2564994692802429,0.01053977757692337,0.21838310360908508,-0.0722024142742157,0.05381264165043831,0.009836077690124512,-0.21997301280498505,-0.01908806525170803,0.06858006864786148,-0.07572467625141144,0.09742069989442825,-0.0579427033662796,-0.02550925686955452,-0.1572040319442749,-0.10732197016477585,-0.05661334842443466,-0.01967637427151203,-0.09774837642908096,-0.30697789788246155,0.0034301585983484983,-0.048706695437431335,0.23861025273799896,-0.18298128247261047,-0.014419831335544586,0.17076151072978973,0.06973669677972794,0.03341745212674141,0.10357199609279633,0.13279272615909576,-0.09265370666980743,0.020747298374772072,0.0172788854688406,0.06438418477773666,0.1270507276058197,0.014460968784987926,0.012854102067649364,-0.044346883893013,0.027180619537830353,0.04546672850847244,0.09854431450366974,0.018322553485631943,0.15633197128772736,-0.06434549391269684,-0.1937820464372635,0.011486236937344074,0.010965961031615734,-0.04209870845079422,0.23580828309059143,0.17589329183101654,-0.006588262971490622,-0.18521882593631744,0.09689497947692871,-0.13708199560642242,0.0014851359883323312,0.2579755485057831,0.11209093779325485,-0.10358987748622894,0.1490486115217209,-0.08123806118965149,-0.017268463969230652,0.1790824681520462,-0.26239001750946045,0.04321553558111191,-0.057783253490924835,-0.1375390589237213,0.27344298362731934,0.007226099260151386,0.047468796372413635,0.15393072366714478,-0.015403558500111103,0.07486669719219208,-0.06305324286222458,-0.005196054466068745,0.04468275234103203,-0.20167335867881775,0.01683177426457405,0.05413442477583885,-0.09211710095405579,0.05008721724152565,0.007278989069163799,0.04625082388520241,-0.09848067164421082,0.10045485943555832,0.11025112122297287,0.10778452455997467,0.04866516962647438,0.02348179556429386,-0.022319823503494263,-0.06775149703025818,0.06920214742422104,-0.12676919996738434,-0.09170924872159958,-0.02364753931760788,0.1219182088971138,0.1627184897661209,-0.2475418746471405,0.01842154748737812,0.0886627659201622,0.1181379109621048,-0.007821070030331612,0.1288924366235733,0.004369712900370359,0.21967639029026031,-0.024273833259940147,-0.1262665092945099,0.21863393485546112,-0.0721845030784607,-0.10931496322154999,0.15960459411144257,0.21751302480697632,-0.12784595787525177,-0.08552545309066772,-0.07827004045248032,0.1548069715499878,0.005036486778408289,0.17625519633293152,0.16703200340270996,-0.19525288045406342,0.08378128707408905,0.19484101235866547,-0.17819790542125702,-0.11195161193609238,-0.07966361194849014,0.11900725215673447,-0.06750854104757309,0.1373051106929779,0.11309702694416046,-0.11781720817089081,-0.04203997179865837,-0.07739211618900299,-0.08762326091527939,-0.011435668915510178,0.08193401992321014,0.03627241030335426,-0.129862442612648,-0.032270222902297974,0.005932135507464409,-0.022231383249163628,-0.09659666568040848,0.03909137845039368,-0.006749461404979229,0.02245434559881687,0.07679518312215805,-0.08872637152671814,-0.17319628596305847,-0.004519991111010313,0.2539752125740051,-0.14615337550640106,0.052626270800828934,-0.0605798177421093,-0.05820075422525406,0.0068837604485452175,-0.1327000856399536,0.034908540546894073,0.11804332584142685,-0.11221380531787872,-0.08628593385219574,-0.03493001312017441,-0.02384660206735134,0.022584842517971992,0.10265045613050461,-0.07644815742969513,0.05394945293664932,-0.1642141342163086,-0.1644333451986313,0.00916996318846941,-0.10195472836494446,-0.1351880431175232,0.16249476373195648,0.019054362550377846,0.03482668846845627,-0.060764532536268234,-0.12814384698867798,-0.018392637372016907,0.004898367449641228,-0.18996205925941467,0.08022969216108322,0.1902955025434494,-0.10020677745342255,-0.170827716588974,0.07494519650936127,-0.008437957614660263,-0.06475941091775894,-0.013192333281040192,-0.030224835500121117,0.002794940024614334,0.07934124022722244,-0.04986744746565819,0.039175912737846375,0.07290402054786682,0.04385509714484215,0.22064250707626343,0.058094318956136703,0.055715225636959076,-0.19559763371944427,-0.0010387077927589417,-0.10847236216068268,0.012278176844120026,0.17618906497955322,0.03185578063130379,-0.024202248081564903,0.015149595215916634,0.021827053278684616,0.01855473220348358,0.029885875061154366,0.03366276994347572,-0.06608609110116959,0.16781224310398102,0.11090978980064392,-0.1620347648859024,0.03486636281013489,0.08266233652830124,-0.0982050970196724,-0.07478894293308258,-0.06512634456157684,0.17349258065223694,0.024208707734942436,0.010470166802406311,0.06344640254974365,-0.05528843775391579,-0.24758093059062958,0.13231056928634644,0.10695353150367737,0.20106515288352966,-0.030215388163924217,-0.03265516087412834,0.11884697526693344,0.04835956171154976,-0.05341951176524162,-0.1203061193227768,-0.11033610254526138,0.10900122672319412,-0.07832807302474976,0.12901589274406433,-0.037170711904764175,-0.1045980155467987,0.0678497850894928,-0.0989638939499855,-0.010243861004710197,0.17327454686164856,-0.17566044628620148,-0.21664771437644958,-0.282966673374176,0.1672031581401825,-0.03549715876579285,-0.17111122608184814,-0.03328440338373184,-0.1689235419034958,0.05869898572564125,0.025040537118911743,0.02509375475347042,-0.09161964058876038,-0.025543659925460815,-0.2889428436756134,0.1415109932422638,0.059616077691316605,-0.07125692069530487,0.23687967658042908,0.2008865773677826,-0.23178496956825256,0.0360560342669487,0.02839069999754429,-0.22108691930770874,-0.10357237607240677,0.11112744361162186,-0.019558381289243698,0.03743733465671539,-0.18343029916286469,0.19067160785198212,0.002868260955438018,-0.1339094638824463,-0.20618832111358643,-0.08681138604879379,0.23194964230060577,-0.03781848028302193,-0.011560051701962948,0.07574550062417984,-0.10476042330265045,0.14127102494239807,0.010741214267909527,-0.19987443089485168,0.09439956396818161,0.02253912389278412,-0.06479194760322571,-0.14399336278438568,0.04067889228463173,-0.046835120767354965,-0.019492607563734055,-0.09547621756792068,-0.012613206170499325,-0.07149083912372589,0.14795905351638794,-0.29201313853263855,-0.10472510755062103,0.16460862755775452,-0.0776490643620491,-0.04772131145000458,-0.08086171746253967,-0.27459627389907837,-0.08742700517177582,-0.06149493530392647,0.014530832879245281,-0.24299012124538422,-0.1462656855583191,0.16539764404296875,-0.01998329535126686,-0.14731734991073608,0.12312791496515274,0.16531315445899963,-0.06856497377157211,0.09901605546474457,0.19399289786815643,0.1680188924074173,-0.1891942173242569,-0.09764736890792847,0.06834378838539124,0.022763988003134727,-0.260588139295578,-0.05379623919725418,0.09732397645711899,-0.00847561378031969,-0.12207628786563873,-0.010985257104039192,0.011451618745923042,-0.044053323566913605,0.05642884597182274,-0.03320830315351486,-0.07043807208538055,0.03554174304008484,0.0241077970713377,0.01123689766973257,0.12652893364429474,0.030842341482639313,-0.1593063920736313,0.1318083554506302,-0.05061053857207298,0.16602715849876404,-0.07073064148426056,0.30729734897613525,-0.0293478574603796,0.131867453455925,0.03997607156634331,0.04520479962229729,0.21126461029052734,0.06212664023041725,-0.045113496482372284,0.13021768629550934,-0.03414583206176758,-0.10744675993919373,-0.06910931318998337,0.0008987345499917865,-0.2729300260543823,0.09377724677324295,0.20125603675842285,0.07026132941246033,0.15757766366004944,0.03878675401210785,-0.035603560507297516,0.007327836472541094,-0.044191859662532806,-0.21357403695583344,-0.07435761392116547,-0.0995907336473465,0.1704288125038147,-0.15042102336883545,0.07971923798322678,0.049655310809612274,-0.11233286559581757,0.022362081333994865,-0.3570154905319214,0.018488537520170212,-0.16135603189468384,-0.06775934994220734,0.007667371537536383,-0.14678268134593964,-0.05022280290722847,0.11168073117733002,-0.07610546797513962,-0.13009043037891388,0.1458810567855835,0.019426370039582253,-0.10966409742832184,-0.08047030121088028,-0.06529401242733002,-0.19868600368499756,0.06460566818714142,0.1704859435558319,-0.11543027311563492,0.047801949083805084,-0.13686217367649078,-0.18747584521770477,0.034313641488552094,0.03236164152622223,-0.22115278244018555,0.15484905242919922,-0.022535236552357674,-0.08115775138139725,0.10029318183660507,-0.008358201943337917,-0.1646794080734253,0.11004836857318878,0.06851521879434586,0.027498506009578705,0.0620780810713768,0.11550363898277283,0.2309541553258896,0.0706612691283226,0.07563409209251404,0.2883495092391968,0.13864099979400635,-0.18512319028377533,0.12081047147512436,0.17483389377593994,-0.03729165345430374,-0.050813090056180954,-0.015399905852973461,0.17290547490119934,-0.18887291848659515,-0.01649787649512291,0.07613871991634369,-0.18100178241729736,0.016139402985572815,0.05568940192461014,-0.10894536972045898,0.06426575779914856,0.10604652762413025,0.022221000865101814,0.05786043778061867,0.00479409983381629,0.1510864943265915,0.13274021446704865,-0.19350753724575043,0.1668243259191513,0.05949603021144867,0.13724766671657562,0.11394849419593811,0.1787423938512802,-0.10757765173912048,0.0059469034895300865,-0.027962131425738335,0.17996445298194885,-0.005585270002484322,0.06396042555570602,-0.18100608885288239,0.020935995504260063,-0.3778248727321625,0.1945415884256363,0.07070658355951309,-0.20342713594436646,0.08227186650037766,0.09421015530824661,0.013003923930227757,-0.011119240894913673,0.305473655462265,-0.08784551918506622,-0.07900597900152206,0.1746169477701187,0.23474666476249695,-0.07019510120153427,0.002784526674076915,-0.053922586143016815,-0.1743079572916031,-0.035838328301906586,-0.0809624046087265,0.17802438139915466,0.07023671269416809,0.1623614877462387,-0.1665063202381134,-0.06387349963188171,-0.13747471570968628,0.0880662277340889,-0.21604937314987183,-0.13223008811473846,0.09015160799026489,0.03839285671710968,-0.18404175341129303,-0.16552703082561493,-0.039950255304574966,0.14938658475875854,-0.269197016954422,0.16352859139442444,0.1301698386669159,0.08994630724191666,0.1350780874490738,-0.19888482987880707,-0.022877398878335953,0.3170156478881836,-0.03756430745124817,-0.20509381592273712,0.2838051915168762,-0.04379424452781677,-0.18096564710140228,-0.21043303608894348,-0.14004144072532654,-0.22020018100738525,0.2493530809879303,0.09564827382564545,-0.12876270711421967,-0.12170693278312683,-0.13626335561275482,-0.23423850536346436,0.04072016477584839,-0.09401655942201614,-0.02013145200908184,-0.05926072597503662,0.0014669860247522593,0.20894649624824524,-0.06988494098186493,0.04804807901382446,-0.03666553273797035,0.07860005646944046,-0.11554481089115143,0.06857738643884659,-0.03500444442033768,0.09693026542663574,-0.10563237965106964,-0.04553942009806633,-0.0008257697336375713,-0.14571347832679749,0.14835646748542786,-0.1268431842327118,0.034499041736125946,0.007599753327667713,0.024951398372650146,0.03890850022435188,-0.017666541039943695,-0.18577812612056732,0.20636312663555145,0.011357173323631287,-0.02873980440199375,-0.15467645227909088,0.012940175831317902,0.006089847069233656,0.0319991372525692,0.11871159821748734,-0.07091182470321655,0.04534304887056351,-0.08196281641721725,0.15962666273117065,-0.015476606786251068,0.07449819892644882,0.04011688381433487,-0.16294869780540466,0.011119636707007885,0.16108745336532593,-0.23256881535053253,-0.06332220137119293,0.08352411538362503,-0.0035705622285604477,-0.23083490133285522,-0.11266738176345825,-0.004276894498616457,0.08538582175970078,-0.16807501018047333,0.19290626049041748,0.08685529232025146,-0.024320639669895172,-0.09203030169010162,-0.019214270636439323,0.045544449239969254,-0.08269120007753372,-0.06096295267343521,0.03878302872180939,0.03588106855750084,-0.14212414622306824,-0.06285125017166138,0.017992833629250526,0.0832642912864685,0.13353542983531952,-0.041451696306467056,0.07954631745815277,0.1081376001238823,-0.02159043587744236,-0.2103004902601242,-0.12150932103395462,0.27531641721725464,-0.0967826396226883,-0.155973419547081,-0.08690183609724045,0.015933185815811157,0.08314240723848343,0.07252456247806549,-0.12753139436244965,0.09506572037935257,-0.054564304649829865,-0.09726323187351227,0.09469027817249298,0.018791958689689636,0.08674566447734833,-0.003070665057748556,0.18019570410251617,0.14959914982318878,-0.034845154732465744,-0.002132393652573228,-0.09047015011310577,-0.0746322050690651,-0.07231082767248154,0.12806379795074463,-0.1448076069355011,-0.12724776566028595,0.05715440958738327,-0.04919369891285896,-0.006112079601734877,-0.15866513550281525,0.1609201282262802,-0.08487255126237869,-0.02071986347436905,-0.05338360741734505,0.0232574250549078,-0.00737341120839119,0.01120020728558302,-0.0785895586013794,-0.012343715876340866,0.0019254520302638412,-0.10915670543909073,0.14882636070251465,0.100684255361557,0.06429895013570786,0.034918397665023804,-0.08151174336671829,-0.011469678021967411,0.10474193841218948,-0.15988683700561523,0.30093738436698914,-0.050779931247234344,-0.06937512755393982,-0.2472592294216156,-0.07132147997617722,-0.1426902711391449,-0.14336548745632172,0.15405058860778809,-0.03080572932958603,-0.055160120129585266,0.1721968650817871,0.009528197348117828,0.08201797306537628,-0.003924183081835508,0.07875468581914902,-0.058255333453416824,0.08517208695411682,-0.30996769666671753,-0.1385447382926941,0.4240802824497223,-0.017784809693694115,0.04478371888399124,-0.1400584727525711,-0.07156869024038315,0.027122613042593002,-0.04986071586608887,0.07216812670230865,0.2097555547952652,0.02434450387954712,0.09068208187818527,-0.18168851733207703,-0.016577299684286118,0.3478131890296936,-0.006913601886481047,-0.1434755176305771,0.08563490211963654,0.4258347749710083,0.12171017378568649,-0.03827395662665367,0.06283199787139893,0.08259066939353943,-0.3011959493160248,-0.04403356835246086,-0.13647420704364777,0.06642802059650421,-0.08769209682941437,-0.15716174244880676,-0.19196541607379913,0.15859584510326385,-0.2057361751794815,-0.04477901756763458,0.062014754861593246,-0.0382576584815979,-0.13718105852603912,0.13049188256263733,-0.17286789417266846,0.06054812669754028,-0.12066105008125305,-0.2852567136287689,0.05869073048233986,-0.003806173102930188,0.016072984784841537,0.042289890348911285,0.028411217033863068,0.040696997195482254,-0.011998570524156094,0.055465925484895706,-0.02754797413945198,-0.10007787495851517,-0.03209490329027176,0.04993350803852081,0.03486097604036331,0.07749694585800171,0.029250014573335648,-0.11639707535505295,0.024336030706763268,0.034401945769786835,0.030039699748158455,-0.19917826354503632,-0.37036269903182983,0.6363492608070374,0.1731652170419693,-0.3342704176902771,0.06370461732149124,-0.1934945434331894,-0.07098069041967392,0.48997998237609863,-0.6427868008613586,0.712148129940033,0.46405383944511414,0.0386333167552948,-0.2548266351222992,0.12934555113315582,-0.43298110365867615,-0.033795315772295,0.027671383693814278,0.006250901613384485,-0.04287313297390938,0.19038958847522736,0.03582626208662987,0.006114778108894825,0.08611595630645752,0.19804324209690094,0.1324184685945511,0.2836602032184601,0.2496023327112198,-0.3224509358406067,-0.15226466953754425,-0.30985313653945923,-0.1399548351764679,0.25243785977363586,-0.12225683033466339,0.020677262917160988,0.03571825847029686,0.1522354632616043,0.1739271879196167,0.0553855262696743,-0.37538692355155945,-0.24756033718585968,0.09931875765323639,-0.08952061831951141,-0.30898162722587585,0.1906013935804367,0.38177812099456787,0.2496698796749115,0.09552749246358871,-0.007054765243083239,-0.12625792622566223,-0.014441684819757938,-0.2631382942199707,0.1596660315990448,-0.0891401544213295,0.07429292798042297,-0.4440244138240814,-0.07150684297084808,0.015779918059706688,-0.22399085760116577,-0.1738777905702591,0.20131753385066986,0.006793896201997995,-0.14379718899726868,0.007204108405858278,0.18805313110351562,-0.07113394886255264,0.12729217112064362,-0.027571693062782288,-0.08561864495277405,0.08117955178022385,-0.07661057263612747,0.08893551677465439,0.46004560589790344,-0.13247714936733246,0.049400027841329575,0.16053009033203125,0.09163165837526321,0.06198719143867493,0.08647366613149643,-0.3348686397075653,0.22507791221141815,-0.18753604590892792,0.22484181821346283,-0.09190189093351364,0.029987739399075508,-0.0055993408896028996,0.06817028671503067,0.17374248802661896,0.08414505422115326,-0.017474107444286346,-0.17544284462928772,0.2423657923936844,-0.09303484112024307,-0.14957678318023682,0.25588154792785645,0.015398873016238213,-0.18174704909324646,-0.032841529697179794,-0.09020018577575684,0.01807844266295433,-0.037070389837026596,-0.08241643011569977,0.07283798605203629,0.03732660412788391,-0.06413034349679947,-0.13360142707824707,0.012426645494997501,0.1394546627998352,-0.00658844830468297,-0.05461515113711357,0.15480579435825348,0.15971523523330688,-0.003966750111430883,0.2470240592956543,-0.13629089295864105,0.08017731457948685,0.25154101848602295,-0.17125168442726135,0.12058423459529877,-0.04192474111914635,-0.1577950119972229,0.16382145881652832,0.22236153483390808,-0.2544456124305725,0.04196874052286148,0.03975890576839447,-0.028912119567394257,0.01627659983932972,0.20768561959266663,0.10970279574394226,-0.1476665586233139,-0.19240905344486237,0.03182437643408775,-0.009441420435905457,0.19051320850849152,-0.33001312613487244,0.1151042953133583,0.09493380039930344,0.299892783164978,0.08840466290712357,0.051633320748806,0.0523981936275959,0.20142574608325958,-0.5302279591560364,-0.3506380021572113,0.4310756027698517,-0.171798437833786,0.3755818009376526,0.31173962354660034,-0.17182984948158264,-0.37102916836738586,-0.047756921499967575,0.022501636296510696,0.17602355778217316,0.06649194657802582,0.2445998340845108,-0.4524853825569153,-0.18133467435836792,-0.21080157160758972,0.015600082464516163,0.18400494754314423,-0.08738431334495544,-0.17699962854385376,0.12255227565765381,0.08908087760210037,0.1626610904932022,-0.13839302957057953,-0.007141040172427893,0.02714678831398487,0.027842571958899498,0.20742270350456238,-0.13031524419784546,0.03470258787274361,-0.16662830114364624,0.2691759169101715,-0.13773800432682037,0.23576952517032623,-0.1407349407672882,-0.15113277733325958,-0.15712586045265198,0.1608670949935913,-0.14427287876605988,0.29959896206855774,-0.09785649925470352,0.35008183121681213,-0.016407299786806107,-0.3103103041648865,-0.08326423913240433,-0.018825292587280273,-0.1568818837404251,-0.026130927726626396,0.1793784201145172,-0.009133891202509403,0.03651665151119232,-0.1284760683774948,0.1734975278377533,-0.06768552958965302,0.06260484457015991,0.1856934130191803,0.3451007604598999,-0.27809208631515503,-0.10242916643619537,-0.117421954870224,0.32715606689453125,-0.21674688160419464,-0.306435763835907,0.03996651992201805,0.17914468050003052,-0.26437366008758545,-0.2602858245372772,-0.013064183294773102,-0.07612895220518112,0.13596154749393463,0.2539528012275696,-0.11304596811532974,-0.4230339229106903,0.269713819026947,-0.1945260763168335,-0.23718784749507904,-0.29489317536354065,0.011448061093688011,0.009345361962914467,-0.04031030461192131,-0.3990524113178253,-0.25140634179115295,0.1950255036354065,-0.15565697848796844,0.055778905749320984,0.05656316503882408,-0.1991962343454361,0.07437559962272644,-0.15217910706996918,0.13830628991127014,0.041557472199201584,0.1961548924446106,-0.22278422117233276,-0.0480208694934845,0.1426219493150711,-0.2704019546508789,0.06627708673477173,0.007673591375350952,0.10658688843250275,0.02358352579176426,-0.05791034176945686,-0.10976321250200272,0.029357001185417175,0.17327772080898285,-0.13396406173706055,0.19228480756282806,0.1194557175040245,-0.03115648217499256,0.20730642974376678,-0.10500384122133255,0.2783029079437256,-0.06180845573544502,-0.19086873531341553,-0.12937504053115845,-0.052342332899570465,-0.03345971927046776,-0.2202846258878708,-0.2017568051815033,-0.03439400717616081,0.03022499568760395,-0.18706919252872467,0.04635326936841011,0.12219924479722977,0.1200728565454483,0.06029196456074715,-0.20700576901435852,0.011268051341176033,-0.18572063744068146,-0.002916996832937002,0.024147653952240944,-0.004739518277347088,0.024352721869945526,0.02917340397834778,-0.03158867731690407,0.012173791415989399,-0.027394581586122513,-0.013374690897762775,-0.09287923574447632,-0.023274138569831848,0.010053346864879131,0.0534667931497097,0.09254369884729385,0.11820203810930252,0.0006626488757319748,-0.019798370078206062,0.15543203055858612,0.054167479276657104,0.09159813821315765,-0.20270979404449463,-0.25372448563575745,0.029920455068349838,0.0944993644952774,-0.24151447415351868,0.22739093005657196,-0.019315266981720924,-0.06663065403699875,-0.10091664642095566,0.05219505727291107,-0.09504204243421555,-0.2195325642824173,0.24541211128234863,-0.04663930460810661,-0.09941686689853668,0.12299477308988571,-0.14885661005973816,0.11762118339538574,-0.40210098028182983,0.21987538039684296,0.023342955857515335,0.1345471292734146,-0.1623140126466751,0.05798513442277908,-0.17162324488162994,0.09030502289533615,-0.16220523416996002,-0.10154145956039429,-0.3255001902580261,0.28607606887817383,0.018092872574925423,-0.08095395565032959,0.03296004608273506,-0.06974133104085922,-0.1080784872174263,-0.03447161987423897,-0.007667774800211191,-0.06296873837709427,-0.0236353762447834,-0.27397724986076355,-0.05768045037984848,-0.13935837149620056,0.09627967327833176,-0.0758621096611023,0.12574459612369537,-0.06465430557727814,-0.07150305062532425,-0.011633258312940598,0.3484654724597931,0.16346338391304016,-0.09183920174837112,0.09790380299091339,-0.017324116080999374,-0.0689077153801918,-0.021266601979732513,0.3212030231952667,0.027629537507891655,0.07979091256856918,0.15969979763031006,0.14092856645584106,-0.2496938705444336,-0.18328529596328735,-0.148598313331604,-0.14342376589775085,0.06775172799825668,0.011761057190597057,0.18441236019134521,-0.2020992636680603,-0.23619094491004944,-0.13338163495063782,-0.00017878961807582527,0.01623242162168026,0.05793300271034241,-0.04169650003314018,0.1028546690940857,0.11649702489376068,0.22908873856067657,-0.12996751070022583,0.11662199348211288,-0.04681253060698509,-0.05180000141263008,-0.025097567588090897,0.15576541423797607,-0.023127082735300064,-0.10015207529067993,0.1748390793800354,0.0008123541483655572,0.17272496223449707,0.12135016173124313,-0.06154782325029373,-0.05828620865941048,-0.05760260298848152,-0.22983843088150024,0.09473969787359238,-0.12764878571033478,-0.1306299865245819,-0.2063509076833725,-0.021289890632033348,-0.05518531799316406,-0.20547935366630554,-0.14377868175506592,0.39141952991485596,-0.10065258294343948,0.03737569600343704,-0.09060902893543243,0.09944996237754822,-0.05701107159256935,-0.06639429926872253,-0.005499009042978287,-0.11460568010807037,-0.055185072124004364,-0.05593374744057655,0.03704828396439552,0.00039260947960428894,-0.32117554545402527,0.022997422143816948,0.14544211328029633,0.020603690296411514,0.06519671529531479,0.11261512339115143,0.01947655715048313,-0.051175761967897415,0.02612781524658203,-0.2157101184129715,-0.2168744057416916,0.160625159740448,0.027892854064702988,-0.04929792881011963,0.1337483823299408,-0.08320261538028717,0.01213321927934885,-0.10791249573230743,-0.21079261600971222,-0.05472954362630844,0.05550704523921013,-0.04060846194624901,0.05307292938232422,-0.10569322109222412,-0.1500004380941391,-0.08224286139011383,0.2473791241645813,0.07229945808649063,0.1892969310283661,0.1761055588722229,-0.16381224989891052,0.19167448580265045,-0.029454726725816727,0.1775447130203247,-0.04624274745583534,-0.2849566340446472,0.0022095213644206524,0.21303077042102814,-0.1603783518075943,0.017136717215180397,0.04653068259358406,-0.11861908435821533,0.052629392594099045,0.03761257603764534,0.12721781432628632,0.13789057731628418,-0.14087313413619995,-0.07809930294752121,0.04456479102373123,-0.11491990834474564,0.1910374015569687,0.15200495719909668,-0.12333358824253082,-0.14210930466651917,-0.23172670602798462,-0.013141856528818607,0.09185443818569183,0.03092322126030922,0.0071381269954144955,-0.1972578763961792,0.03916674107313156,0.28226137161254883,-0.041473086923360825,0.028629383072257042,0.12824492156505585,-0.1319071352481842,0.1653851568698883,0.11684875190258026,-0.25321534276008606,-0.010801292955875397,0.01145238894969225,-0.2625501751899719,0.06376104801893234,0.0036164363846182823,-0.07239383459091187,0.047484468668699265,-0.11674438416957855,-0.07465676218271255,0.15916383266448975,-0.18593309819698334,0.01047471072524786,-0.02640085481107235,0.15885616838932037,-0.09493795037269592,0.14609628915786743,-0.16137409210205078,0.08130527287721634,0.08275100588798523,0.005945611745119095,-0.07472453266382217,-0.0897957906126976,0.082512266933918,0.043262455612421036,-0.0008267541415989399,0.06512437015771866,0.07323974370956421,0.2640145421028137,0.1777523308992386,0.07125912606716156,-0.2418798953294754,0.06695064157247543,-0.035624101758003235,-0.06600506603717804,0.16756531596183777,0.16371186077594757,-0.017455875873565674,0.09127388149499893,0.013861948624253273,-0.09987851232290268,-0.08534771203994751,-0.31074726581573486,-0.06241612508893013,-0.05451656132936478,-0.05600058287382126,-0.2261095643043518,-0.1840999275445938,-0.012859711423516273,-0.20316773653030396,-0.04560050368309021,0.08845239877700806,0.02765975520014763,-0.03110690787434578,0.016487322747707367,-0.031901754438877106,-0.10865417122840881,-0.18066082894802094,-0.09173855930566788,-0.013848595321178436,-0.13016711175441742,-0.06836620718240738,0.12058992683887482,0.17591343820095062,-0.08473864942789078,0.09476492553949356,-0.12880462408065796,0.10586106032133102,-0.07166890799999237,-0.11747921258211136,-0.18273797631263733,-0.1679917424917221,-0.22985579073429108,-0.020779041573405266,0.10383690893650055,0.17191413044929504,0.10755394399166107,-0.024957675486803055,0.13131074607372284,-0.20808665454387665,0.028927914798259735,-0.0021750282030552626,0.015235853381454945,-0.0058895922265946865,0.1160205826163292,-0.10481727123260498,-0.12577320635318756,-0.06617718935012817,0.04284320026636124,-0.028367234393954277,0.054370950907468796,-0.06399726867675781,0.004112420603632927,-0.27187708020210266,-0.11236891150474548,-0.08407709747552872,0.035188112407922745,0.15844734013080597,0.12345729023218155,-0.11520787328481674,0.0052565960213541985,0.054894279688596725,0.2133166491985321,0.15128278732299805,0.06707185506820679,-0.018725179135799408,-0.13993467390537262,-0.0020969784818589687,-0.10406976193189621,0.025433802977204323,0.2768021821975708,0.018262213096022606,-0.138890340924263,0.1089344471693039,-0.07496105879545212,-0.08630695194005966,-0.0008523245924152434,-0.019301721826195717,-0.20651867985725403,-0.04832298308610916,0.05066033452749252,-0.029237885028123856,-0.056300126016139984,-0.07765955477952957,0.24347388744354248,-0.19333277642726898,-0.013611797243356705,0.04978162795305252,0.11953739076852798,0.007724141236394644,-0.020327923819422722,-0.06182754039764404,0.02472046948969364,0.15020042657852173,0.2169395536184311,-0.0027793014887720346,-0.12511639297008514,-0.11350730061531067,-0.04160292446613312,0.1922113001346588,-0.05158867686986923,-0.00035626476164907217,0.016595177352428436,0.06623513251543045,-0.1511978954076767,0.14807255566120148,0.06814580410718918,0.17083866894245148,0.16488346457481384,0.06098770722746849,-0.07230059057474136,-0.0458175428211689,0.1438753306865692,0.0870320275425911,0.03517900034785271,-0.18419647216796875,0.12091723084449768,-0.012054068967700005,-0.3001287579536438,0.07429172843694687,0.039331916719675064,-0.021142764016985893,-0.054088838398456573,-0.12421382963657379,0.12031461298465729,-0.07638849318027496,-0.11527368426322937,-0.08511313050985336,-0.12683002650737762,0.08491679280996323,-0.2632994055747986,0.10307951271533966,-0.18114431202411652,0.11574269086122513,0.018193300813436508,0.18558503687381744,-0.07585377991199493,0.04243377596139908,-0.20236632227897644,-0.17328831553459167,0.024924004450440407,0.05595764145255089,-0.2673828899860382,-0.1303543895483017,0.07162889838218689,-0.17501623928546906,-0.010734564624726772,0.19728097319602966,0.031830403953790665,0.1670970916748047,0.2560882866382599,-0.13552521169185638,-0.07236038148403168,0.21036694943904877,-0.13771753013134003,0.01353508047759533,-0.11459542065858841,0.008834187872707844,0.10000759363174438,-0.04766424372792244,0.3525402545928955,0.1536252647638321,0.22368988394737244,-0.24991270899772644,-0.09009427577257156,0.01779830828309059,-0.22059336304664612,0.1272030621767044,-0.061404064297676086,-0.09271257370710373,-0.15858927369117737,-0.1617235392332077,0.025028320029377937,-0.07552217692136765,0.0355248749256134,0.06052124872803688,-0.2494097352027893,0.05312235280871391,-0.09298442304134369,0.08329053968191147,-0.08385363966226578,-0.015193919651210308,-0.1909547746181488,-0.09061380475759506,-0.09312620013952255,0.022286416962742805,0.17347756028175354,0.10856308788061142,-0.08643177896738052,0.14517533779144287,-0.16585631668567657,0.008184469304978848,-0.05010676011443138,-0.08140816539525986,-0.09572755545377731,0.15855634212493896,0.04380282014608383,-0.04312564432621002,-0.13600939512252808,0.050741225481033325,0.08451708406209946,0.21952694654464722,0.05527690052986145,-0.07565384358167648,0.01584089733660221,-0.04822879284620285,0.27903929352760315,0.02575809881091118,0.04533772170543671,0.086992047727108,-0.05757278949022293,0.15323352813720703,-0.06946226209402084,0.10022740811109543,0.023062124848365784,0.03721495345234871,-0.038847871124744415,-0.05195164307951927,0.09869109094142914,0.019674314185976982,0.006570063531398773,0.08572712540626526,-0.08690126240253448,0.06502990424633026,0.008467456325888634,0.009962710551917553,-0.17475531995296478,0.024314388632774353,-0.050521329045295715,-0.09768930822610855,-0.19655606150627136,0.24184443056583405,0.058282818645238876,-0.019749291241168976,-0.16723507642745972,-0.025881491601467133,-0.07385699450969696,-0.07802649587392807,0.08717124909162521,-0.07403536140918732,-0.06124679744243622,0.03275345265865326,0.06777554750442505,0.04278185963630676,-0.08036329597234726,-0.012674493715167046,0.05493958294391632,0.1395604908466339,-0.10967366397380829,0.25891417264938354,0.039663370698690414,-0.200068399310112,0.21827158331871033,-0.12536278367042542,0.09654384851455688,-0.03962443396449089,-0.20289860665798187,0.165756955742836,0.036102645099163055,-0.03610623627901077,0.182722270488739,-0.011979582719504833,-0.08320582658052444,0.18855883181095123,0.2106594294309616,0.013240394182503223,-0.31340646743774414,-0.11599110066890717,-0.07645532488822937,-0.17891329526901245,0.020138317719101906,-0.0973963513970375,-0.14155890047550201,0.10702521353960037,0.03888987377285957,0.05496266484260559,0.09657366573810577,0.1928141713142395,0.26248303055763245,-0.0410933792591095,-0.03251911327242851,0.2034987211227417,-0.0044411905109882355,0.0570017546415329,-0.01137054618448019,0.1803726702928543,-0.04075360670685768,0.1355813443660736,-0.03068053536117077,0.061158809810876846,-0.5885070562362671,0.04237904027104378,-0.07721906155347824,0.17230002582073212,0.10412900149822235,-0.025975730270147324,0.20313015580177307,0.13765691220760345,0.1546551138162613,0.04230920597910881,-0.03863297775387764,-0.013561704196035862,0.22964444756507874,-0.04276411235332489,0.17409412562847137,0.17094014585018158,0.11699488759040833,-0.20576786994934082,-0.05134602636098862,0.047012656927108765,-0.08156021684408188,0.20522761344909668,-0.0625351071357727,-0.20962581038475037,0.08726239204406738,-0.11143573373556137,-0.15686623752117157,0.03803397715091705,-0.18581320345401764,-0.09439843893051147,-0.04071587696671486,-0.0185275636613369,-0.06766058504581451,-0.17422835528850555,-0.005751143209636211,0.07441991567611694,-0.14280447363853455,-0.06068534404039383,-0.0842537134885788,0.020130425691604614,-0.0337601900100708,0.025936689227819443,0.1084165945649147,0.18714390695095062,-0.22903099656105042,0.10269328206777573,0.07563410699367523,-0.04547044634819031,-0.13016173243522644,0.13159577548503876,0.12788228690624237,0.13419657945632935,0.22530630230903625,-0.13372135162353516,0.00985887460410595,0.1492178589105606,0.025657111778855324,-0.11277032643556595,-0.06248520314693451,0.007870009168982506,-0.04112830013036728,-0.046107690781354904,0.07190077751874924,-0.03497400879859924,0.05043255537748337,-0.25797560811042786,-0.06331750750541687,0.05850762128829956,0.20623382925987244,-0.151205375790596,-0.15231768786907196,-0.011233348399400711,-0.0902789756655693,-0.007542000152170658,0.09675541520118713,-0.03884503245353699,-0.0018477238481864333,-0.15840700268745422,-0.20562788844108582,-0.14236952364444733,0.2200939953327179,-0.1925036460161209,0.32860201597213745,0.06612594425678253,0.016430389136075974,-0.27706006169319153,0.10357984900474548,-0.11542689800262451,-0.004246172029525042,0.18626120686531067,-0.04471297934651375,-0.16619503498077393,0.25266143679618835,-0.08518549799919128,-0.11141682416200638,-0.07851050049066544,0.025891173630952835,0.0458548367023468,0.07315393537282944,-0.010630258359014988,0.019857283681631088,-0.031446292996406555,0.1460570991039276,-0.012734238989651203,-0.014094164595007896,0.08870113641023636,0.09069577604532242,0.10725956410169601,-0.05729953572154045,0.07122264802455902,0.10278663784265518,0.17986442148685455,0.10677618533372879,-0.27414557337760925,0.13263054192066193,-0.1195891946554184,-0.06376959383487701,-0.11451644450426102,0.17713482677936554,-0.09785154461860657,-0.20026275515556335,0.11957024782896042,-0.022379513829946518,0.1602097749710083,0.05448943004012108,0.024588221684098244,-0.04570561647415161,-0.13758276402950287,0.10477881878614426,0.0937117263674736,-0.1464407593011856,0.21853233873844147,-0.02590038999915123,-0.2047192007303238,-0.02807523123919964,0.016562238335609436,-0.010675793513655663,-0.1154259443283081,0.09327943623065948,0.07456417381763458,-0.12809999287128448,0.021121583878993988,0.1369616985321045,-0.1370806246995926,-0.1107681542634964,0.024051690474152565,0.002776334760710597,-0.08961468935012817,-0.19399720430374146,-0.1599610447883606,0.06862320005893707,-0.04390000179409981,0.08658350259065628,0.10728737711906433,-0.06127529963850975,0.07119797170162201,0.025129111483693123,-0.15339747071266174,0.010890727862715721,-0.004454080481082201,0.09643552452325821,0.09874671697616577,-0.07935541868209839,-0.1343444287776947,0.10525091737508774,0.037677496671676636,0.12053652107715607,-0.1402154564857483,0.23117949068546295,-0.05859729275107384,-0.1358240842819214,0.06239009648561478,0.10604658722877502,-0.1844458132982254,-0.014750379137694836,0.02245640754699707,-0.0361115038394928,0.005199306644499302,-0.10984198749065399,0.17051108181476593,-0.06385679543018341,-0.06812187284231186,0.04924909025430679,-0.0009150069672614336,-0.11321932077407837,-0.04747448489069939,-0.21308672428131104,0.08101498335599899,0.01193940732628107,0.14390498399734497,-0.17044490575790405,-0.09677886962890625,0.014692465774714947,-0.13038311898708344,-0.06952130049467087,-0.018496662378311157,-0.003302929922938347,0.1875244677066803,-0.09307360649108887,-0.015426135621964931,0.4878971576690674,0.047407522797584534,-0.06453203409910202,-0.05057572200894356,-0.06988181173801422,-0.1182548999786377,0.3092445731163025,0.14809170365333557,0.1909886598587036,0.057929761707782745,0.03317376226186752,-0.20139412581920624,0.05547061562538147,-0.1261366307735443,0.08164074271917343,-0.19005563855171204,0.08997242152690887,-0.04025566950440407,-0.009975031018257141,0.01412184163928032,-0.08081570267677307,-0.033207040280103683,-0.025972865521907806,-0.14547213912010193,-0.029667673632502556,-0.15454138815402985,-0.13065552711486816,-0.07161460816860199,-0.052239444106817245,0.011346018873155117,0.0035038520582020283,-0.0584208220243454,-0.12324924767017365,-0.12254278361797333,0.06744607537984848,0.00605349475517869,0.20237849652767181,-0.09723600745201111,-0.10224829614162445,-0.12149424105882645,0.03102787397801876,-0.11315806955099106,-0.03824947401881218,0.060903482139110565,-0.14717061817646027,0.08875295519828796,0.01652817614376545,-0.058345671743154526,-0.025225261226296425,-0.08717957884073257,-0.029579099267721176,-0.011704287491738796,0.0599207878112793,-0.012632451020181179,0.0010957969352602959,0.07596534490585327,-0.03590763732790947,0.0904790386557579,0.050483524799346924,-0.04583990201354027,-0.07362233102321625,-0.02966413088142872,0.11321496218442917,-0.02486897073686123,-0.04817579314112663,0.001123594818636775,0.05973120033740997,-0.005517296493053436,0.02143864333629608,0.4421824812889099,0.18873582780361176,0.276058167219162,-0.6024974584579468,-0.3178611397743225,0.08518118411302567,0.16482165455818176,0.00035615835804492235,0.3430149257183075,0.15416386723518372,-0.8155458569526672,0.37860819697380066,-0.014463454484939575,-0.38474351167678833,0.08910015970468521,-0.2334241420030594,-0.0870574340224266,-0.33308541774749756,0.378864049911499,-0.0891488790512085,-0.15635664761066437,0.07068701833486557,0.095530666410923,-0.12911878526210785,-0.31105345487594604,0.05826791748404503,-0.0754251554608345,0.021690864115953445,-0.23060399293899536,-0.010121826082468033,0.013993457891047001,0.060118213295936584,-0.18667423725128174,-0.26105228066444397,0.09176454693078995,-0.017182113602757454,-0.003616133937612176,-0.04825624078512192,0.21119175851345062,-0.1793501377105713,-0.22032034397125244,0.13514643907546997,-0.05122838914394379,0.146335631608963,0.0844818651676178,0.09108119457960129,0.20210519433021545,0.21012276411056519,-0.07170137763023376,0.11820904165506363,-0.1374913901090622,-0.16358673572540283,0.09363662451505661,-0.0391673780977726,-0.1894652545452118,0.04428046569228172,0.18628661334514618,-0.1785590797662735,-0.12378228455781937,-0.13516268134117126,0.11115837097167969,0.09493501484394073,-0.10886677354574203,0.05264290049672127,0.08597651869058609,-0.15316243469715118,0.0015912405215203762,0.13658100366592407,0.24915079772472382,0.407566100358963,0.24556481838226318,0.13948708772659302,0.054607830941677094,-0.054615121334791183,-0.042408622801303864,-0.1006135568022728,0.15956363081932068,0.02554953657090664,0.016081534326076508,-0.32751041650772095,0.019001377746462822,-0.008222227916121483,-0.046826500445604324,0.032820988446474075,0.03519719839096069,-0.08155874162912369,-0.03251853957772255,-0.17511415481567383,0.13722160458564758,0.236715167760849,0.23139502108097076,-0.12118951976299286,-0.14675047993659973,-0.1324942409992218,-0.12359105795621872,-0.016229238361120224,-0.44211429357528687,0.2762048542499542,0.0831102505326271,0.12548093497753143,0.0044555445201694965,0.29907146096229553,-0.09945410490036011,-0.13690586388111115,0.045507512986660004,0.08085746318101883,-0.11219121515750885,0.1159089058637619,0.01727425493299961,0.2864367365837097,-0.14963121712207794,0.049613066017627716,0.09504346549510956,-0.34048643708229065,-0.21858561038970947,0.17150843143463135,-0.29203423857688904,-0.4066627025604248,0.4065486192703247,0.2101569026708603,-0.23070554435253143,0.251953661441803,0.04608159512281418,0.30089789628982544,-0.05989106744527817,-0.22578197717666626,0.08577633649110794,-0.1538144052028656,-0.018868450075387955,0.1594397872686386,-0.19748876988887787,0.04487844556570053,0.22118034958839417,-0.22527554631233215,-0.25495195388793945,0.17203256487846375,0.14201001822948456,0.052297696471214294,0.03414063900709152,0.07533799856901169,-0.22073744237422943,0.011131412349641323,0.11475055664777756,-0.21483474969863892,-0.2320888191461563,0.1557352989912033,0.009894152171909809,-0.1390354335308075,0.3020821213722229,0.1896006017923355,-0.1774202585220337,-0.3184736371040344,-0.028736867010593414,-0.14974363148212433,-0.033758170902729034,-0.11805567890405655,0.2811581492424011,0.2507774233818054,0.022501284256577492,0.034131091088056564,0.08204490691423416,0.2997502088546753,0.07538044452667236,-0.12116291373968124,-0.2565760910511017,0.03215622156858444,-0.13441601395606995,0.18792356550693512,-0.05981187894940376,-0.14079760015010834,0.1071004718542099,-0.19453351199626923,-0.06894726306200027,-0.17288990318775177,0.34825167059898376,0.17384038865566254,-0.048702117055654526,0.15465660393238068,-0.20946206152439117,-0.13136406242847443,-0.10681235790252686,0.14542944729328156,0.1519925594329834,-0.19912447035312653,0.1746920645236969,-0.0018601276678964496,-0.25751617550849915,-0.10661107301712036,-0.18823450803756714,-0.15211312472820282,-0.12320581078529358,-0.20857834815979004,0.016549739986658096,0.150409996509552,0.017583848908543587,0.04539945721626282,-0.12431621551513672,-0.2639350891113281,-0.038444552570581436,-0.15582381188869476,-0.33595845103263855,0.074344202876091,0.19868001341819763,0.27838534116744995,-0.1394648253917694,0.08676166832447052,-0.1464184671640396,-0.003845092374831438,0.226806178689003,0.15421387553215027,0.21945974230766296,0.11214086413383484,-0.193431556224823,0.34936296939849854,0.04697316512465477,0.1664740890264511,0.5363029837608337,0.0429055392742157,-0.31218221783638,-0.3601672649383545,-0.3565446734428406,0.07600967586040497,0.08310042321681976,-0.3654977083206177,0.13077674806118011,-0.07882535457611084,0.013348237611353397,0.4313848614692688,-0.18107277154922485,-0.149612694978714,0.04446857422590256,0.1830540895462036,-0.05022350326180458,0.3371257781982422,0.06839669495820999,0.0634308010339737,-0.3534848392009735,-0.3546294569969177,-0.15403836965560913,0.05785774439573288,0.540846586227417,-0.27087122201919556,0.26961231231689453,0.3453158438205719,-0.43445518612861633,-0.3829636573791504,0.30235397815704346,0.26183536648750305,-0.2137875258922577,0.27261433005332947,-0.3232783377170563,-0.025146057829260826,-0.23405955731868744,-0.2921551764011383,-0.09485537558794022,-0.015362869016826153,-0.08834153413772583,0.11169347912073135,-0.3970671594142914,-0.04572273790836334,-0.2488299161195755,-0.3795574903488159,0.22683581709861755,0.051184799522161484,-0.13349895179271698,0.08819098770618439,-0.1503673940896988,0.19590818881988525,0.13003119826316833,-0.017869209870696068,0.07771787792444229,0.04457404091954231,-0.11170793324708939,-0.0433090403676033,0.04599502310156822,0.023920519277453423,-0.011496084742248058,-0.03499908745288849,0.02274884097278118,0.0075199478305876255,-0.07049588859081268,0.022139526903629303,0.037604209035634995,-0.009272669441998005,0.0013719139387831092,-0.14608921110630035,-0.0029492301400750875,0.03582413122057915,0.09773046523332596,-0.2170489877462387,0.04439331591129303,-0.07412842661142349,0.1400327980518341,0.07367582619190216,0.03132253512740135,0.03468698635697365,-0.0866781622171402,-0.06384451687335968,-0.03658827394247055,0.056517940014600754,-0.03208856284618378,0.16681741178035736,-0.07123499363660812,0.12545660138130188,0.04924719035625458,-0.044888682663440704,0.098896823823452,-0.06352092325687408,0.2346760481595993,0.17142021656036377,0.10649395734071732,-0.1168481707572937,-0.022750431671738625,-0.3894503712654114,-0.0214998759329319,0.1167440265417099,-0.12288548052310944,0.004765689838677645,0.11424868553876877,0.08174516260623932,-0.1551007181406021,-0.0034174879547208548,-0.04249883070588112,-0.026841532438993454,0.0006896659615449607,0.07255890965461731,0.015442258678376675,-0.07860540598630905,-0.2761535346508026,0.12281301617622375,0.039453860372304916,-0.024577919393777847,0.20332469046115875,0.03520661219954491,0.002379783196374774,0.03760583698749542,-0.0294346921145916,0.04784156009554863,-0.0951431393623352,0.025579918175935745,-0.18833625316619873,0.06329651176929474,-0.17168384790420532,-0.10475774109363556,0.06997796893119812,-0.03816821426153183,0.11363155394792557,0.06510031968355179,-0.014057451859116554,-0.02952427789568901,-0.039498548954725266,0.08977051079273224,-0.07896329462528229,0.01914999634027481,-0.20264852046966553,0.16408522427082062,0.05284283310174942,-0.1888284832239151,0.08567750453948975,-0.14916448295116425,-0.022595487534999847,0.3111831843852997,0.1631404608488083,0.046152517199516296,-0.08838091790676117,-0.014490687288343906,0.11265634745359421,-0.10766767710447311,0.17440149188041687,-0.14974412322044373,-0.15128087997436523,-0.07899453490972519,-0.050915807485580444,-0.12555290758609772,-0.03761345148086548,-0.05778023973107338,0.048650890588760376,-0.10822141915559769,0.16023044288158417,0.029246166348457336,-0.14782805740833282,-0.17541112005710602,-0.00904642790555954,-0.14015018939971924,-0.07627880573272705,-0.1452355533838272,0.1526739001274109,0.046399593353271484,0.22201955318450928,0.11262921988964081,0.01991104520857334,-0.03380317613482475,-0.05098157003521919,-0.05876075103878975,0.16665658354759216,-0.06727047264575958,-0.12704765796661377,-0.026309246197342873,-0.06300030648708344,-0.031191634014248848,0.1756141632795334,0.01588873751461506,0.03140239790081978,-0.18146196007728577,0.004115466959774494,-0.017917731776833534,-0.1646629273891449,-0.11149634420871735,0.04162496328353882,-0.40414154529571533,-0.07835963368415833,0.03491915017366409,-0.05552436411380768,0.009503832086920738,0.14520993828773499,0.16414906084537506,0.0963282510638237,-0.04646053537726402,0.07884994149208069,-0.004318726249039173,-0.027827739715576172,0.0632464587688446,-0.03232523798942566,0.16675099730491638,-0.10515032708644867,0.22940072417259216,-0.0685352012515068,-0.007963541895151138,0.18787901103496552,0.1305781751871109,-0.16151197254657745,0.07601580768823624,-0.08843131363391876,-0.0442965067923069,0.19017481803894043,0.0059869918040931225,0.17998291552066803,-0.06263952702283859,0.20316971838474274,0.18779559433460236,-0.10358000546693802,-0.062235310673713684,-0.062248095870018005,0.026818772777915,0.09188655018806458,0.05416145920753479,0.156555637717247,-0.1278674602508545,0.057497210800647736,0.134667307138443,0.17719393968582153,-0.15891192853450775,0.08658996969461441,0.26314979791641235,-0.21254950761795044,-0.11657508462667465,0.14917732775211334,-0.2341940850019455,-0.05138002708554268,-0.1431564837694168,0.15790066123008728,0.06780711561441422,0.05600716918706894,0.1620969921350479,-0.0676913633942604,-0.048842787742614746,-0.03149658441543579,-0.08543499559164047,-0.005361844785511494,0.05480501428246498,0.04991227760910988,0.08329925686120987,-0.02325255610048771,-0.06611569970846176,-0.04933003708720207,-0.06728360801935196,0.1656724363565445,0.16141904890537262,-0.07594709098339081,0.009084630757570267,-0.011468512006103992,-0.014561312273144722,0.040795180946588516,0.006750229746103287,0.051874082535505295,0.09930312633514404,0.00206534075550735,-0.14420241117477417,0.3519425690174103,-0.18325504660606384,-0.08822014927864075,0.16445648670196533,0.16071881353855133,0.2827243208885193,0.1472126543521881,0.08756033331155777,0.05548346787691116,-0.33672353625297546,0.11276670545339584,-0.04228002950549126,0.10394398123025894,0.14790384471416473,0.21005094051361084,-0.13089178502559662,0.016168098896741867,-0.24069631099700928,0.10830029100179672,0.12422163039445877,0.34755730628967285,-0.11504796892404556,-0.031908128410577774,-0.07573162019252777,-0.1237633004784584,-0.08720936626195908,0.042114660143852234,0.07426995038986206,-0.2419406622648239,-0.22238945960998535,-0.24033470451831818,-0.04863316938281059,-0.10080055147409439,0.143591046333313,0.04027290269732475,-0.04147244989871979,0.12160138785839081,-0.09759576618671417,0.0029407464899122715,0.14536815881729126,0.029703296720981598,0.039240140467882156,-0.1457100212574005,-0.19568118453025818,-0.022144606336951256,0.29533708095550537,0.2257237732410431,0.19223490357398987,0.11225862056016922,0.18014496564865112,0.05325959622859955,0.3080874979496002,-0.23052579164505005,-0.2660059928894043,-0.16742467880249023,0.044144097715616226,-0.11187338829040527,0.2470802515745163,0.12746527791023254,-0.02189258486032486,-0.08866565674543381,0.014697224833071232,0.19507791101932526,0.0775686502456665,0.07245645672082901,0.29620206356048584,-0.029490789398550987,-0.4747708737850189,-0.10977280884981155,-0.07807574421167374,0.3865131139755249,-0.1034887507557869,-0.43069007992744446,0.048900000751018524,0.02675476484000683,0.22900357842445374,0.011481993831694126,0.15768830478191376,-0.13651761412620544,0.012892641127109528,-0.0485561303794384,-0.05266205221414566,0.13616465032100677,0.20733679831027985,-0.07498957216739655,0.08932922035455704,0.30650782585144043,0.03598489612340927,-0.10110048204660416,0.13799948990345,-0.13032089173793793,0.16987885534763336,-0.1308375895023346,-0.019292358309030533,-0.039345141500234604,-0.07535715401172638,0.1017429456114769,-0.11893893033266068,-0.028368262574076653,0.07328895479440689,0.06476544588804245,0.02103630267083645,-0.09053421765565872,0.11770966649055481,0.10047664493322372,0.24540312588214874,0.0006201264914125204,0.16070961952209473,-0.04060300067067146,-0.0763002559542656,-0.22398270666599274,-0.0863349512219429,0.02812163718044758,0.28610795736312866,0.10503111779689789,0.18080954253673553,0.10774008929729462,0.07820136100053787,-0.07806558161973953,0.08795338869094849,-0.10431766510009766,0.06423760205507278,0.0014551578788086772,0.14048610627651215,-0.07652616500854492,0.061016745865345,0.11492259800434113,0.10239935666322708,0.27427762746810913,-0.06600327044725418,-0.018770525231957436,-0.15256555378437042,-0.05472520738840103,-0.01390155591070652,-0.0066698710434138775,-0.08929029107093811,0.035197559744119644,-0.10629285871982574,0.14042966067790985,-0.06878981739282608,0.25856244564056396,0.2166348546743393,-0.057898860424757004,-0.03705788776278496,0.24521449208259583,0.09586340934038162,0.00657397136092186,-0.21652479469776154,0.0177032221108675,0.029695231467485428,0.031346533447504044,0.0435398668050766,0.022229662165045738,-0.18348601460456848,-0.08583598583936691,0.011096295900642872,0.12263369560241699,0.3306998908519745,-0.3450704514980316,-0.017059991136193275,-0.006420317105948925,0.04602579399943352,0.11470561474561691,0.1457534283399582,0.08247733861207962,0.17128106951713562,-0.02626125141978264,0.10500495135784149,-0.10691525042057037,-0.08121753484010696,-0.02417171746492386,0.353708416223526,0.024746518582105637,-0.1122959554195404,-0.10677435249090195,-0.04012572765350342,-0.07550910860300064,0.06704142689704895,-0.023714356124401093,-0.12750226259231567,0.09200525283813477,-0.17393364012241364,0.08357233554124832,-0.0040720258839428425,0.11065491288900375,-0.14604578912258148,0.0883530005812645,-0.02262350171804428,0.025579312816262245,0.0555681474506855,-0.14270249009132385,-0.21734371781349182,-0.02718074806034565,-0.0828811302781105,-0.09639514982700348,-0.1362960785627365,0.21706591546535492,0.07052524387836456,0.15399760007858276,0.1329876184463501,-0.05871080607175827,-0.08696384727954865,-0.09336952865123749,-0.18450771272182465,0.16762270033359528,-0.11914414912462234,-0.05119962990283966,0.106537826359272,-0.01895568147301674,-0.26242876052856445,0.0055592358112335205,-0.04124843701720238,-0.12702608108520508,0.12197377532720566,-0.1588737815618515,0.06632331013679504,-0.025821760296821594,0.03662250563502312,0.1596493273973465,0.014912202022969723,0.12853460013866425,-0.06145984306931496,-0.23688161373138428,-0.1619468480348587,-0.10466807335615158,0.23709736764431,0.11207474768161774,-0.026503678411245346,0.017932895570993423,-0.10296200215816498,-0.021760793402791023,0.2558269798755646,0.018779391422867775,0.23305457830429077,-0.15995098650455475,-0.059048887342214584,-0.14532968401908875,-0.10583566874265671,0.018844304606318474,0.08704235404729843,-0.13098908960819244,-0.011924090795218945,-0.06951799988746643,-0.12238162755966187,-0.02190689742565155,-0.14679740369319916,-0.03591737896203995,0.05630418658256531,0.050399329513311386,0.15222954750061035,-0.05737777054309845,0.062482647597789764,-0.21677079796791077,0.07118089497089386,0.123751200735569,0.014565734192728996,0.05622931942343712,0.39086103439331055,0.06273365020751953,0.02809101901948452,-0.025495819747447968,-0.10361376404762268,0.08220463991165161,0.06232612952589989,-0.026917625218629837,0.025436660274863243,-0.007842403836548328,-0.15519994497299194,0.036635179072618484,0.06260402500629425,0.05307041481137276,-0.00899570994079113,0.2079479992389679,-0.11013978719711304,0.16054338216781616,-0.05361701548099518,-0.12318577617406845,-0.04989583417773247,0.17159101366996765,-0.10514624416828156,-0.09682305157184601,0.24087673425674438,-0.02534402534365654,0.0019927918910980225,-0.1881328523159027,0.13729378581047058,0.01860085316002369,0.29631507396698,-0.023585770279169083,-0.302369087934494,0.23395401239395142,-0.15934941172599792,-0.22875772416591644,-0.21835631132125854,0.14010722935199738,-0.1931988149881363,0.019822828471660614,0.1054549440741539,0.1228947788476944,-0.04565392807126045,-0.2371092289686203,0.08903615176677704,-0.29972442984580994,-0.09742040932178497,0.07340585440397263,0.09399694949388504,-0.05679946020245552,0.0267032440751791,-0.03218678757548332,-0.08223970979452133,0.12181571871042252,0.2423378974199295,